<?xml version="1.0"?>
<MethodSetup Method="MLP::MLPBNN">
  <GeneralInfo>
    <Info name="TMVA Release" value="4.2.1 [262657]"/>
    <Info name="ROOT Release" value="6.14/08 [396808]"/>
    <Info name="Creator" value="bo791269"/>
    <Info name="Date" value="Tue Mar 12 20:37:11 2019"/>
    <Info name="Host" value="Linux lxplus001.cern.ch 3.10.0-862.14.4.el7.x86_64 #1 SMP Wed Sep 26 15:12:11 UTC 2018 x86_64 x86_64 x86_64 GNU/Linux"/>
    <Info name="Dir" value="/rwthfs/rz/cluster/home/bo791269/TMVA/12.03.2019"/>
    <Info name="Training events" value="20304"/>
    <Info name="TrainingTime" value="1.29520484e+03"/>
    <Info name="AnalysisType" value="Classification"/>
  </GeneralInfo>
  <Options>
    <Option name="NCycles" modified="Yes">600</Option>
    <Option name="HiddenLayers" modified="Yes">N+5</Option>
    <Option name="NeuronType" modified="Yes">tanh</Option>
    <Option name="RandomSeed" modified="No">1</Option>
    <Option name="EstimatorType" modified="No">CE</Option>
    <Option name="NeuronInputType" modified="No">sum</Option>
    <Option name="V" modified="Yes">False</Option>
    <Option name="VerbosityLevel" modified="No">Default</Option>
    <Option name="VarTransform" modified="Yes">N</Option>
    <Option name="H" modified="Yes">True</Option>
    <Option name="CreateMVAPdfs" modified="No">False</Option>
    <Option name="IgnoreNegWeightsInTraining" modified="No">False</Option>
    <Option name="TrainingMethod" modified="Yes">BFGS</Option>
    <Option name="LearningRate" modified="No">2.000000e-02</Option>
    <Option name="DecayRate" modified="No">1.000000e-02</Option>
    <Option name="TestRate" modified="Yes">5</Option>
    <Option name="EpochMonitoring" modified="No">False</Option>
    <Option name="Sampling" modified="No">1.000000e+00</Option>
    <Option name="SamplingEpoch" modified="No">1.000000e+00</Option>
    <Option name="SamplingImportance" modified="No">1.000000e+00</Option>
    <Option name="SamplingTraining" modified="No">True</Option>
    <Option name="SamplingTesting" modified="No">False</Option>
    <Option name="ResetStep" modified="No">50</Option>
    <Option name="Tau" modified="No">3.000000e+00</Option>
    <Option name="BPMode" modified="No">sequential</Option>
    <Option name="BatchSize" modified="No">-1</Option>
    <Option name="ConvergenceImprove" modified="No">1.000000e-30</Option>
    <Option name="ConvergenceTests" modified="No">-1</Option>
    <Option name="UseRegulator" modified="Yes">True</Option>
    <Option name="UpdateLimit" modified="No">10000</Option>
    <Option name="CalculateErrors" modified="No">False</Option>
    <Option name="WeightRange" modified="No">1.000000e+00</Option>
  </Options>
  <Variables NVar="16">
    <Variable VarIndex="0" Expression="a1" Label="a1" Title="a1" Unit="" Internal="a1" Type="F" Min="-3.68934881e+19" Max="3.68934881e+19"/>
    <Variable VarIndex="1" Expression="a2" Label="a2" Title="a2" Unit="" Internal="a2" Type="F" Min="1.65215945e+00" Max="1.91371751e+00"/>
    <Variable VarIndex="2" Expression="a3" Label="a3" Title="a3" Unit="" Internal="a3" Type="F" Min="-3.68934881e+19" Max="3.68934881e+19"/>
    <Variable VarIndex="3" Expression="a4" Label="a4" Title="a4" Unit="" Internal="a4" Type="F" Min="-2.72248077e+00" Max="2.22087693e+00"/>
    <Variable VarIndex="4" Expression="a5" Label="a5" Title="a5" Unit="" Internal="a5" Type="F" Min="-3.68934881e+19" Max="3.68934881e+19"/>
    <Variable VarIndex="5" Expression="a6" Label="a6" Title="a6" Unit="" Internal="a6" Type="F" Min="-4.69478512e+00" Max="4.92631340e+00"/>
    <Variable VarIndex="6" Expression="a7" Label="a7" Title="a7" Unit="" Internal="a7" Type="F" Min="-3.68934881e+19" Max="3.68934881e+19"/>
    <Variable VarIndex="7" Expression="a8" Label="a8" Title="a8" Unit="" Internal="a8" Type="F" Min="-1.87496316e+00" Max="1.73675537e+00"/>
    <Variable VarIndex="8" Expression="a9" Label="a9" Title="a9" Unit="" Internal="a9" Type="F" Min="-3.68934881e+19" Max="3.68934881e+19"/>
    <Variable VarIndex="9" Expression="a10" Label="a10" Title="a10" Unit="" Internal="a10" Type="F" Min="-2.29549670e+00" Max="2.13668108e+00"/>
    <Variable VarIndex="10" Expression="a11" Label="a11" Title="a11" Unit="" Internal="a11" Type="F" Min="-3.68934881e+19" Max="3.68934881e+19"/>
    <Variable VarIndex="11" Expression="a12" Label="a12" Title="a12" Unit="" Internal="a12" Type="F" Min="-2.01901650e+00" Max="2.02343869e+00"/>
    <Variable VarIndex="12" Expression="a13" Label="a13" Title="a13" Unit="" Internal="a13" Type="F" Min="-3.68934881e+19" Max="3.68934881e+19"/>
    <Variable VarIndex="13" Expression="a14" Label="a14" Title="a14" Unit="" Internal="a14" Type="F" Min="-3.05427694e+00" Max="3.04666376e+00"/>
    <Variable VarIndex="14" Expression="a15" Label="a15" Title="a15" Unit="" Internal="a15" Type="F" Min="-3.68934881e+19" Max="3.68934881e+19"/>
    <Variable VarIndex="15" Expression="a16" Label="a16" Title="a16" Unit="" Internal="a16" Type="F" Min="-2.15273094e+00" Max="1.92299926e+00"/>
  </Variables>
  <Spectators NSpec="0"/>
  <Classes NClass="2">
    <Class Name="Signal" Index="0"/>
    <Class Name="Background" Index="1"/>
  </Classes>
  <Transformations NTransformations="1">
    <Transform Name="Normalize">
      <Selection>
        <Input NInputs="16">
          <Input Type="Variable" Label="a1" Expression="a1"/>
          <Input Type="Variable" Label="a2" Expression="a2"/>
          <Input Type="Variable" Label="a3" Expression="a3"/>
          <Input Type="Variable" Label="a4" Expression="a4"/>
          <Input Type="Variable" Label="a5" Expression="a5"/>
          <Input Type="Variable" Label="a6" Expression="a6"/>
          <Input Type="Variable" Label="a7" Expression="a7"/>
          <Input Type="Variable" Label="a8" Expression="a8"/>
          <Input Type="Variable" Label="a9" Expression="a9"/>
          <Input Type="Variable" Label="a10" Expression="a10"/>
          <Input Type="Variable" Label="a11" Expression="a11"/>
          <Input Type="Variable" Label="a12" Expression="a12"/>
          <Input Type="Variable" Label="a13" Expression="a13"/>
          <Input Type="Variable" Label="a14" Expression="a14"/>
          <Input Type="Variable" Label="a15" Expression="a15"/>
          <Input Type="Variable" Label="a16" Expression="a16"/>
        </Input>
        <Output NOutputs="16">
          <Output Type="Variable" Label="a1" Expression="a1"/>
          <Output Type="Variable" Label="a2" Expression="a2"/>
          <Output Type="Variable" Label="a3" Expression="a3"/>
          <Output Type="Variable" Label="a4" Expression="a4"/>
          <Output Type="Variable" Label="a5" Expression="a5"/>
          <Output Type="Variable" Label="a6" Expression="a6"/>
          <Output Type="Variable" Label="a7" Expression="a7"/>
          <Output Type="Variable" Label="a8" Expression="a8"/>
          <Output Type="Variable" Label="a9" Expression="a9"/>
          <Output Type="Variable" Label="a10" Expression="a10"/>
          <Output Type="Variable" Label="a11" Expression="a11"/>
          <Output Type="Variable" Label="a12" Expression="a12"/>
          <Output Type="Variable" Label="a13" Expression="a13"/>
          <Output Type="Variable" Label="a14" Expression="a14"/>
          <Output Type="Variable" Label="a15" Expression="a15"/>
          <Output Type="Variable" Label="a16" Expression="a16"/>
        </Output>
      </Selection>
      <Class ClassIndex="0">
        <Ranges>
          <Range Index="0" Min="-3.6893488147419103e+19" Max="3.6893488147419103e+19"/>
          <Range Index="1" Min="1.7484519481658936e+00" Max="1.8994711637496948e+00"/>
          <Range Index="2" Min="-3.6893488147419103e+19" Max="3.6893488147419103e+19"/>
          <Range Index="3" Min="-1.9614977836608887e+00" Max="2.0129170417785645e+00"/>
          <Range Index="4" Min="-3.6893488147419103e+19" Max="3.6893488147419103e+19"/>
          <Range Index="5" Min="-3.7131910324096680e+00" Max="3.5504522323608398e+00"/>
          <Range Index="6" Min="-3.6893488147419103e+19" Max="3.6893488147419103e+19"/>
          <Range Index="7" Min="-1.8745509386062622e+00" Max="1.7367553710937500e+00"/>
          <Range Index="8" Min="-3.6893488147419103e+19" Max="3.6893488147419103e+19"/>
          <Range Index="9" Min="-2.0758953094482422e+00" Max="2.1366810798645020e+00"/>
          <Range Index="10" Min="-3.6893488147419103e+19" Max="3.6893488147419103e+19"/>
          <Range Index="11" Min="-2.0004787445068359e+00" Max="1.9938075542449951e+00"/>
          <Range Index="12" Min="-3.6893488147419103e+19" Max="3.6893488147419103e+19"/>
          <Range Index="13" Min="-3.0542769432067871e+00" Max="2.9794852733612061e+00"/>
          <Range Index="14" Min="-3.6893488147419103e+19" Max="3.6893488147419103e+19"/>
          <Range Index="15" Min="-2.1527309417724609e+00" Max="1.8986717462539673e+00"/>
        </Ranges>
      </Class>
      <Class ClassIndex="1">
        <Ranges>
          <Range Index="0" Min="-3.6893488147419103e+19" Max="3.6893488147419103e+19"/>
          <Range Index="1" Min="1.6521594524383545e+00" Max="1.9137175083160400e+00"/>
          <Range Index="2" Min="-3.6893488147419103e+19" Max="3.6893488147419103e+19"/>
          <Range Index="3" Min="-2.7224807739257812e+00" Max="2.2208769321441650e+00"/>
          <Range Index="4" Min="-3.6893488147419103e+19" Max="3.6893488147419103e+19"/>
          <Range Index="5" Min="-4.6947851181030273e+00" Max="4.9263134002685547e+00"/>
          <Range Index="6" Min="-3.6893488147419103e+19" Max="3.6893488147419103e+19"/>
          <Range Index="7" Min="-1.8749631643295288e+00" Max="1.7338762283325195e+00"/>
          <Range Index="8" Min="-3.6893488147419103e+19" Max="3.6893488147419103e+19"/>
          <Range Index="9" Min="-2.2954967021942139e+00" Max="2.1338930130004883e+00"/>
          <Range Index="10" Min="-3.6893488147419103e+19" Max="3.6893488147419103e+19"/>
          <Range Index="11" Min="-2.0190165042877197e+00" Max="2.0234386920928955e+00"/>
          <Range Index="12" Min="-3.6893488147419103e+19" Max="3.6893488147419103e+19"/>
          <Range Index="13" Min="-3.0277695655822754e+00" Max="3.0466637611389160e+00"/>
          <Range Index="14" Min="-3.6893488147419103e+19" Max="3.6893488147419103e+19"/>
          <Range Index="15" Min="-2.1527309417724609e+00" Max="1.9229992628097534e+00"/>
        </Ranges>
      </Class>
      <Class ClassIndex="2">
        <Ranges>
          <Range Index="0" Min="-3.6893488147419103e+19" Max="3.6893488147419103e+19"/>
          <Range Index="1" Min="1.6521594524383545e+00" Max="1.9137175083160400e+00"/>
          <Range Index="2" Min="-3.6893488147419103e+19" Max="3.6893488147419103e+19"/>
          <Range Index="3" Min="-2.7224807739257812e+00" Max="2.2208769321441650e+00"/>
          <Range Index="4" Min="-3.6893488147419103e+19" Max="3.6893488147419103e+19"/>
          <Range Index="5" Min="-4.6947851181030273e+00" Max="4.9263134002685547e+00"/>
          <Range Index="6" Min="-3.6893488147419103e+19" Max="3.6893488147419103e+19"/>
          <Range Index="7" Min="-1.8749631643295288e+00" Max="1.7367553710937500e+00"/>
          <Range Index="8" Min="-3.6893488147419103e+19" Max="3.6893488147419103e+19"/>
          <Range Index="9" Min="-2.2954967021942139e+00" Max="2.1366810798645020e+00"/>
          <Range Index="10" Min="-3.6893488147419103e+19" Max="3.6893488147419103e+19"/>
          <Range Index="11" Min="-2.0190165042877197e+00" Max="2.0234386920928955e+00"/>
          <Range Index="12" Min="-3.6893488147419103e+19" Max="3.6893488147419103e+19"/>
          <Range Index="13" Min="-3.0542769432067871e+00" Max="3.0466637611389160e+00"/>
          <Range Index="14" Min="-3.6893488147419103e+19" Max="3.6893488147419103e+19"/>
          <Range Index="15" Min="-2.1527309417724609e+00" Max="1.9229992628097534e+00"/>
        </Ranges>
      </Class>
    </Transform>
  </Transformations>
  <MVAPdfs/>
  <Weights>
    <Layout NLayers="3">
      <Layer Index="0" NNeurons="17">
        <Neuron NSynapses="21">
          -1.1097788815954876e-02 5.7091843999442522e-03 2.3353953473075105e-03 2.4213180603197353e-03 -4.7741560000011347e-02 -4.9879114076083024e-02 -5.0227840842064823e-02 -8.5084416554011006e-04 -3.0818465162156125e-02 3.4653837711132007e-02 -7.1446534116820432e-04 -2.6916844699041223e-02 -3.5784594063998768e-02 -1.3485405948310818e-03 -1.0157262682160592e-02 -2.2222132767088090e-02 6.3202717904688135e-02 -3.3458983013795976e-02 -7.8598646501886141e-03 -1.4588354865289515e-02 3.6785310497080843e-04 
        </Neuron>
        <Neuron NSynapses="21">
          -1.3827188149194503e-04 1.0681061709308410e-03 4.4658705636189760e-04 4.5071363616269646e-04 -8.4828589220741532e-02 -8.2048636341469694e-02 8.4110412645574381e-02 -1.5997560421369291e-04 -6.4521431857818945e-02 -4.9562760423334996e-02 -1.3685206106433008e-04 4.0617436661220772e-02 5.7097033827662243e-02 -2.5914872238613188e-04 -2.0290341201433457e-03 2.7778610509850886e-02 9.5570328510791988e-02 -5.5981670481493787e-02 -1.8344569093628781e-03 5.7839348168688513e-03 6.9348634069669763e-05 
        </Neuron>
        <Neuron NSynapses="21">
          -7.8729594465672939e-04 4.0191843694508707e-04 1.6331753900825969e-04 1.6839985813566885e-04 -2.4203962667408911e-03 -2.5944211660245400e-03 -1.0715733952133450e-03 -5.8281478635125220e-05 -1.6848277041741945e-03 1.2647286089412313e-03 -5.2076969508912910e-05 -2.7752167141054354e-03 -4.6286147829398272e-03 -9.5836789306007986e-05 -7.1430996330875340e-04 -2.0131180771684504e-03 3.3100084730418801e-03 -1.7658955404120909e-03 -5.5048512590260754e-04 -1.0850265993192091e-03 2.6356862194615467e-05 
        </Neuron>
        <Neuron NSynapses="21">
          2.1226337822658700e-01 9.7668602772701174e-02 2.7546046315665856e-02 2.2382416043339508e-02 -1.8874100119064363e+00 1.1169021578867848e+00 -1.7027806168507034e+00 -1.1333767488102510e-02 -1.3190005911819678e+00 1.0122291829831940e+00 -3.8304851592326689e-03 1.1891909797604348e+00 1.7917990459997397e+00 -1.7248306048394123e-02 -1.2584252676898280e-01 8.6436347344278996e-01 -1.3402100566741144e+00 7.3207127492731450e-01 -1.7982909972049546e-01 3.9092366708393983e-01 4.4684822480645630e-03 
        </Neuron>
        <Neuron NSynapses="21">
          -9.1978004496399664e-05 3.8120591800661781e-05 1.5706097530514716e-05 1.6391956819515874e-05 5.0162036302231743e-03 -1.3938213552378792e-03 -1.7797037382596748e-03 -5.7385580066801581e-06 2.7451172395973355e-03 9.4410634987418616e-04 -4.8266185949185318e-06 -4.6592061344028678e-04 -1.1637372063374557e-04 -9.0766609974013443e-06 -6.2864504805012082e-05 -4.2125650158737760e-04 2.0080688381020925e-03 -5.6426496907793148e-04 -4.5693266678818593e-05 -1.7245842172890029e-04 2.4759601410204751e-06 
        </Neuron>
        <Neuron NSynapses="21">
          1.5757431744747523e-02 -8.1639473183110177e-03 -3.3424278898489951e-03 -3.4642710655495503e-03 6.3883870429200282e-02 6.4514579446312156e-02 5.9160554571742491e-02 1.2175814610735152e-03 4.4140216895719578e-02 -4.3745890707776895e-02 1.0216390536304293e-03 3.5495782492903340e-02 4.9108268400340070e-02 1.9302879158825076e-03 1.4539601852511913e-02 2.9234971124409405e-02 -8.2147431842842886e-02 4.3394277260782058e-02 1.1238148680689479e-02 2.0205197531817952e-02 -5.2644990906150144e-04 
        </Neuron>
        <Neuron NSynapses="21">
          2.4598830303160495e-04 -1.1876803153954321e-04 -4.8701782829499520e-05 -5.0184162858317068e-05 9.1903731032590020e-03 -5.0926954202115777e-03 2.9010226680207547e-03 1.7674573469971753e-05 4.0921868329995836e-03 -1.3396478966461504e-03 1.4835322375919773e-05 9.0881014127167710e-04 1.1415511160738131e-03 2.8188252670254431e-05 2.1341693804247542e-04 7.1752006177452780e-04 7.0256564746598244e-03 -2.2958887104277481e-03 1.6306633316041995e-04 3.7307494841989740e-04 -7.6302558637297376e-06 
        </Neuron>
        <Neuron NSynapses="21">
          -6.0499451095701162e-03 3.1727252969099831e-03 1.3033266438513278e-03 1.3536823436498199e-03 -1.3828763553834353e-02 -1.7879386104032221e-02 -2.3632130631223391e-02 -4.7527320089726135e-04 -9.8066729547810864e-03 1.6378623220145754e-02 -4.0175258134700933e-04 -1.0813294135070454e-02 -1.2762139947570453e-02 -7.5107009012666877e-04 -5.5956568998052946e-03 -9.7399214781250538e-03 2.2247254976169795e-02 -1.2896726586252035e-02 -4.3071558918884433e-03 -7.5681094116895400e-03 2.0867268172626314e-04 
        </Neuron>
        <Neuron NSynapses="21">
          3.9012434263636139e-04 -2.0269612039375737e-04 -8.2949517097931011e-05 -8.5963248826408822e-05 -9.0611293541967373e-04 1.5489738601280067e-03 2.8056169144605168e-03 3.0177839437349678e-05 -3.3536984827367344e-04 -1.5734264083715015e-03 2.5423286815735228e-05 6.1543505254867494e-04 4.7341072548162829e-04 4.7961241991037842e-05 3.5843064613189958e-04 6.1225619754689555e-04 -1.8846445037177422e-03 1.0318478602491699e-03 2.7552693400076351e-04 4.9183024772523395e-04 -1.3072107613739808e-05 
        </Neuron>
        <Neuron NSynapses="21">
          -1.4377086871523608e-03 7.9699039776865777e-04 3.3123621020620015e-04 3.4024730700986584e-04 -1.7946164935815471e-02 -1.8832555738741104e-02 3.5120023011629567e-03 -1.2277193708559627e-04 -1.0790876851460181e-02 -2.9263070899060038e-04 -1.0543024539474262e-04 1.7524132505436127e-04 2.4167269999359141e-03 -1.8826979731073981e-04 -1.4524261861370077e-03 -6.8678372643306155e-04 2.5959490359685436e-02 -1.0350916016587166e-02 -1.1280691390323013e-03 -1.5190454346338607e-03 5.4495004158862408e-05 
        </Neuron>
        <Neuron NSynapses="21">
          -9.0716324875922600e-04 4.6319405684456345e-04 1.8979129477782436e-04 1.9680192740671837e-04 7.3056959924928499e-04 -5.0254646983039896e-03 -9.4298073212063143e-04 -6.9177399419038498e-05 2.5685520823638810e-05 1.4639158230131057e-03 -5.8205389450381621e-05 -3.2625777437285384e-03 -5.5576728715216019e-03 -1.0961409537490056e-04 -8.2087012099182194e-04 -2.3191018044158959e-03 6.4329747841084936e-03 -3.1210847742661422e-03 -6.3237319470060773e-04 -1.2368133359430243e-03 2.9948119195805548e-05 
        </Neuron>
        <Neuron NSynapses="21">
          -1.1932247264835594e-01 -1.0137357079242583e-02 1.2147595293598122e-03 -2.6826313230448637e-02 -1.4569183287460796e+00 9.7577689684123614e-01 1.3860712680884653e+00 1.2259214406954048e-02 -9.7589399755546224e-01 -8.3937664633076592e-01 1.2674677749874956e-02 -9.4427164459188029e-01 -1.4405025642118168e+00 -3.2372188786928234e-03 -4.7899369986756628e-03 -6.7131552164760944e-01 -1.1522172322466961e+00 6.7059755121791198e-01 -1.8234765131641430e-02 -2.6475410691596346e-01 1.5367378292308208e-03 
        </Neuron>
        <Neuron NSynapses="21">
          3.9918043322798363e-03 -2.0415469733410145e-03 -8.3527429607138681e-04 -8.6559832817110192e-04 1.4337547457197954e-02 1.4089168464074693e-02 2.0391494533319413e-02 3.0425800300593698e-04 1.0325383365019366e-02 -1.2553930193007410e-02 2.5550834203874552e-04 1.0983953346108150e-02 1.6291156063560689e-02 4.8230009315661465e-04 3.6304543581087011e-03 8.6329761758126341e-03 -1.6544084409688301e-02 1.0515337855091445e-02 2.8090392079707519e-03 5.3325732024235555e-03 -1.3151614146942738e-04 
        </Neuron>
        <Neuron NSynapses="21">
          5.3312659993394722e-03 -2.7394137912923858e-03 -1.1223715185779001e-03 -1.1642036114913347e-03 2.2798246512421218e-02 2.5316749710245171e-02 2.2326475921393855e-02 4.0854085971763973e-04 1.4738569194138790e-02 -1.6058839108503111e-02 3.4371140893165987e-04 1.3257215933911666e-02 1.7594866326176958e-02 6.4758169344080667e-04 4.8765974261092736e-03 1.0900333522690254e-02 -3.2174655326648392e-02 1.6832314206431175e-02 3.7742611006247803e-03 7.0449284853079950e-03 -1.7670228854437729e-04 
        </Neuron>
        <Neuron NSynapses="21">
          -4.3580444182882367e-03 2.2373681644888800e-03 9.1498135859780546e-04 9.4831408947016805e-04 -1.6602994699793101e-02 -1.4555869597814918e-02 -2.2063575986287078e-02 -3.3314005304487708e-04 -1.1464176564183814e-02 1.4300954322856996e-02 -2.7989434097469378e-04 -1.1254206081234574e-02 -1.6061289020548347e-02 -5.2803529408115173e-04 -3.9785958345902751e-03 -9.0257864560074723e-03 1.7131185073416835e-02 -1.1004589389021121e-02 -3.0759671167509364e-03 -5.7602553051686184e-03 1.4419236666502177e-04 
        </Neuron>
        <Neuron NSynapses="21">
          -6.6673364967452823e-04 4.8927445772939100e-04 6.8207136122729563e-05 2.7200932074658021e-04 -7.1815434851827589e-03 -1.0317706737986383e-02 -7.7689141634319271e-04 -6.4502347603496361e-05 -4.2967245624977541e-03 1.1261790358649936e-03 7.0454839390205712e-05 5.9233241628557599e-04 2.0593678342751263e-03 -2.1219679145784690e-04 -6.3609979912073356e-04 -8.0517502445455266e-05 1.4048409732012882e-02 -5.7225773445858386e-03 -5.9591287021876910e-04 -7.0762408594259875e-04 3.2769268582295568e-05 
        </Neuron>
        <Neuron NSynapses="21">
          2.9852597031959197e-02 -1.3854277932904939e-02 -3.2074129388279704e-03 1.8237963747723589e-03 -6.7090281167355692e-01 -6.2004138278303500e-01 8.7369907325577978e-01 -6.5630206250952554e-04 -4.7150270438902181e-01 -5.3370040462345303e-01 -4.3523523857794937e-03 4.2961637307528916e-01 5.9642325928335904e-01 1.8834843750028744e-03 4.5804954152491063e-03 3.2140666955048158e-01 7.2655672145140437e-01 -4.0249549126798634e-01 1.1833966405879973e-02 1.1057653300039903e-01 -5.7902214923644772e-03 
        </Neuron>
      </Layer>
      <Layer Index="1" NNeurons="22">
        <Neuron NSynapses="1">
          -1.0625287028220789e+00 
        </Neuron>
        <Neuron NSynapses="1">
          5.5085611420993719e-01 
        </Neuron>
        <Neuron NSynapses="1">
          2.2583342847473145e-01 
        </Neuron>
        <Neuron NSynapses="1">
          2.3400780468646856e-01 
        </Neuron>
        <Neuron NSynapses="1">
          -8.0811420058733674e+00 
        </Neuron>
        <Neuron NSynapses="1">
          -4.5812245382758068e+00 
        </Neuron>
        <Neuron NSynapses="1">
          -6.9607650077310961e+00 
        </Neuron>
        <Neuron NSynapses="1">
          -8.2265331458799371e-02 
        </Neuron>
        <Neuron NSynapses="1">
          -3.8347222840012956e+00 
        </Neuron>
        <Neuron NSynapses="1">
          3.4822062941611396e+00 
        </Neuron>
        <Neuron NSynapses="1">
          -6.9107824905065715e-02 
        </Neuron>
        <Neuron NSynapses="1">
          -3.2210838959622126e+00 
        </Neuron>
        <Neuron NSynapses="1">
          -5.8556487465420934e+00 
        </Neuron>
        <Neuron NSynapses="1">
          -1.3040839801795784e-01 
        </Neuron>
        <Neuron NSynapses="1">
          -9.7874797581607798e-01 
        </Neuron>
        <Neuron NSynapses="1">
          -2.3297303513262606e+00 
        </Neuron>
        <Neuron NSynapses="1">
          6.0470387003122745e+00 
        </Neuron>
        <Neuron NSynapses="1">
          -2.8931173928341454e+00 
        </Neuron>
        <Neuron NSynapses="1">
          -7.5384375117230151e-01 
        </Neuron>
        <Neuron NSynapses="1">
          -1.3871541798525708e+00 
        </Neuron>
        <Neuron NSynapses="1">
          3.5572009557810057e-02 
        </Neuron>
        <Neuron NSynapses="1">
          -4.4942200235841295e-01 
        </Neuron>
      </Layer>
      <Layer Index="2" NNeurons="1">
        <Neuron NSynapses="0"/>
      </Layer>
    </Layout>
    <InverseHessian NElements="143641" NRows="379" NCols="379">
      <Row Index="0">
        6.6381931252522406e+05 1.3873244735200406e+05 6.4665422032117647e+04 6.6629767337578203e+04 -7.2847543548523390e+02 3.2095915089662543e+04 2.3645534630971724e+01 -2.3810099079528802e+04 4.4304368837905240e+03 -2.8063902416554392e+03 -2.0021457010244427e+04 -1.5458355229145163e+04 6.2981889156289969e+02 -3.7689627720043980e+04 -1.9896122272205396e+05 4.6399798984893561e+04 1.5096925971447743e+04 -2.2686155700622745e+04 -1.4018662934911641e+05 -2.5885705952617104e+05 1.0332715853522555e+04 -5.3685172968356346e+02 -3.0639787860036304e+03 -1.1439623559503743e+03 -1.2706788807418925e+03 2.6255627168943101e+02 -2.4523948134292914e+03 -1.7213766876317895e+03 4.1987209018060298e+02 -4.8908109137974679e+02 -5.0278984293620233e+03 3.5077943916047570e+02 9.0010998676169020e+03 -1.6098761706955218e+03 6.5555468281678623e+02 5.6048672859259386e+03 -7.7075168744573393e+03 5.6132154316970230e+02 6.0313594091248142e+03 3.2244303709678352e+03 -1.5259628950853326e+04 -1.7899203289208481e+02 -2.6544548990664771e+02 -3.6360255647042686e+02 -9.2320633775787428e+01 -1.2177091459835356e+02 -2.7253180731314205e+02 1.3562278926296567e+03 3.9165950116890599e+01 3.3978076103347121e+01 5.1311524950560124e+02 1.3986338077113032e+01 2.7352500753731874e+01 -1.8143676195968874e+02 2.2566447507655539e+02 5.0764245830901018e+01 8.3719897300507000e+02 -5.7113212530903729e+02 7.5971608036804628e+02 -7.7241171284561824e+02 3.9040771315339953e+01 -4.0922070721746422e+01 -1.3713004959323371e+01 -6.4160106600362342e+03 -7.8808045219728956e+02 -2.3617387284059078e+01 -4.9093160565738799e+01 8.8043682087274374e+03 7.2836857234974741e+02 -2.1752336118984331e+03 -7.8777043741574744e+00 -1.4786157994593057e+04 7.1623843041937507e+03 -7.7269441804855887e+00 -3.1107016936554487e+03 -1.8898226356602936e+03 -8.3321026968187653e+00 4.5735029320488138e+03 -1.1961159981502638e+04 -6.3688821759047387e+03 -1.1142872955828165e+04 1.7260288906102360e+03 -1.8204522897966322e+04 5.1672232316295776e+00 3.5405949543255847e+03 1.2149376276467228e+03 2.9801329369993618e+02 3.9420783674639824e+02 -4.9889221199344320e+01 -1.9254534459723800e+01 -3.8189109052138519e+01 -1.0972990441567163e+02 3.7557730998833563e+01 4.8863911356893368e+01 -9.0384727686525366e+01 2.5230585736690846e+03 -5.4478684076095396e+02 -1.6389804957986780e+02 -3.0504585989628540e+03 -3.1800432125624502e+03 2.5169952998880035e+01 6.9917831612576265e+01 -1.4657945021730766e+03 2.5642438097799313e+03 4.4203935040161014e+01 -3.6648628309584456e+03 3.3065983821448899e+03 1.2578161912652431e+03 1.2390558136153268e+03 6.2036985514326079e+02 -8.6930650522572760e+03 1.7012612185915132e+03 -4.4646472013459788e+02 -2.1266238025064613e+03 6.4333985679535181e+03 -3.7338622413305916e+02 -9.1485204961348409e+03 1.3953133106186942e+03 -7.1924553676159076e+02 -7.6978567926889664e+03 1.3752509667475133e+04 -3.4800259244634744e+03 9.0507553027075046e+03 -6.9035651600006677e+03 1.2253732352237217e+04 1.9392067533498630e+02 -9.7492952067407896e+02 -2.1770408424376819e+02 -2.6499517724761972e+01 3.7962473883195344e+01 1.9016847356540279e+02 -2.0748347263217365e+03 -2.0946723094695699e+02 9.3350131678016623e-01 -3.8009027778792370e+02 -3.9829970267476165e+02 1.3146885104142711e+00 -3.4273994591014925e+03 5.8972613543077750e+02 1.0787486748716219e+01 7.1135493552379376e+02 4.6738287613056018e+03 -1.1718582261514366e+03 1.0631342779606930e+03 1.4158119864540931e+03 -3.0035357833681410e+03 -2.3872729545837501e+00 2.3931505027349340e+03 -5.8688960544051952e+01 2.5957417186378734e+02 3.5876761962796081e+02 -4.4887529877667248e+02 2.8507023679020549e+03 -6.7527149795074365e+01 -1.0990603301020178e+02 1.0913332443071813e+03 -1.0299892402113492e+03 -9.3995093553574407e+01 4.3137247564837016e+03 -7.0460916277102751e+02 -1.5828829043118458e+02 1.7152386640080003e+03 -5.9537926029124792e+03 1.3969164270136048e+03 -2.3768856012101242e+03 5.2778011744799733e+03 -4.7180959572332213e+03 4.6355377890635282e+01 2.2804869472775608e+03 -1.0562032625368738e+02 -2.5822223348397529e+02 -2.1513943634144380e+02 7.1191456645592552e+00 1.4256783304709825e+03 3.4659978641884607e+01 9.7142935860450962e+01 3.7217419969505499e+01 7.0142531774821691e+01 8.3002761014304269e+01 -1.0515268371542770e+03 2.3719736644013756e+02 1.5944282980867138e+02 -1.0937358880089196e+03 1.5248354170530074e+03 7.6773568280329346e+02 -7.1994876549314358e+02 -2.4983437234183657e+02 -1.8003651936295792e+03 -4.4489268134348094e+01 -4.5676818738360234e+03 8.4884490816529433e+02 8.1184682905197769e+02 7.9644354679150274e+02 3.5101456236164631e+02 -1.6821917969854985e+02 -5.6306790675666343e+02 -3.1377507247256290e+02 -5.7189639552254084e+02 -1.5706920403280453e+03 -2.6489424033567684e+02 4.9209755822624866e+03 -7.2789498250632028e+02 -4.9439831698119815e+02 2.8884205817161674e+03 -7.1736712549800886e+03 -1.5939851191559683e+01 9.8364698138220774e+01 2.3875751349954808e+03 3.0826542774957779e+03 1.3905764249925778e+02 1.0535248645320535e+03 2.4139915154740447e+02 1.0663302663323702e+02 7.7982313460845035e+01 -4.2404647831892362e+01 -4.3599716466757309e+02 1.4154899576199568e+02 -3.4831586089800112e+01 1.4037641277819057e+02 1.9364478351024445e+02 -3.0590063062692934e+01 1.1241234715382598e+03 3.9273758930648910e+00 -6.0639383653615369e+01 -6.9939535795763368e+02 -2.4930432343388429e+03 -2.7703026566652989e+02 1.5180054481112165e+01 -4.0988686046679504e+02 1.7169950198547740e+03 1.6177769202739000e+01 3.6313616533245659e+02 2.7011665004373936e+03 9.9352615267862529e+02 1.0928692561756816e+03 -5.8079652637645631e+03 2.7940285556119888e+03 3.0770096421473900e+03 -3.6630907568605903e+02 3.7856562489741336e+03 -1.2313816318456462e+04 -3.0615606626706449e+02 -3.2763544349222211e+03 9.5386382738056091e+03 -5.7188549667917323e+02 -4.3825748274764628e+03 3.6650955450945694e+03 8.9994630741949659e+03 4.7658947426277155e+02 -3.1120347518744093e+03 8.6634696643523130e+03 1.5659110068521909e+02 -2.1961223050295957e+03 -1.7731401983799587e+03 -1.1251636030116206e+03 -1.1688805346409499e+03 2.1427653563878266e+00 -2.5720354955711664e+03 3.1733199922796484e+02 4.2145638720464922e+02 -2.2692937120929719e+02 9.8633169790969259e+02 3.5548537048328126e+02 -3.1065017088406894e+03 3.0165171950007607e+02 6.6294748160913332e+02 1.3349340673202823e+03 6.8386183639187220e+03 -1.0450249271707435e+03 2.9880248691379024e+03 -1.2590481291429314e+03 -5.1678222191231980e+03 -1.8373154079844244e+02 -6.9349439938204596e+03 -1.1348329927902450e+03 -4.3921063218358904e+02 -4.7598369473393541e+02 2.5671223356010159e+02 -5.2141020607092014e+03 6.9969140630139918e+01 1.5900984571532899e+02 -9.4418666382927040e+02 1.3319196213281866e+03 1.3645314273788244e+02 -9.8547476570902945e+03 1.6236700915087374e+03 2.4876608144246711e+02 8.3851277441388083e+02 1.3929246512948244e+04 -2.3725331187695811e+03 4.5161437584254018e+03 -1.3708651893342176e+03 -5.2368287150101969e+02 -6.9665501111652702e+01 7.4118509209584263e+03 2.5940064877520490e+02 -2.5639558617380681e+02 -2.4872244194106315e+02 -5.2463503845931791e+02 1.4156893895821777e+03 -1.7830488322711972e+01 1.0704799941166129e+02 1.1515235019462689e+03 -7.6764267806274961e+02 8.9333368616971711e+01 4.6291140684756683e+03 -5.2735362576093303e+02 1.6635921357217921e+02 -2.4640748819836008e+03 -7.7858568040546379e+03 4.2346708929729357e+02 -1.9150753423513379e+03 -2.2114625754743429e+03 4.9587334501302030e+02 -4.7353783350903541e+01 1.4867061635771279e+03 1.9198899580925308e+03 1.2911508608285221e+03 1.2972601780263940e+03 -1.0045806638190697e+02 2.4063280660856617e+02 8.3463528823277557e+01 -4.8090881875779087e+02 1.2963376006913677e+02 6.3183553078859404e+01 -4.0665924978560179e+02 3.4677208261525006e+03 -2.0696603605774726e+02 -7.6274469707767980e+02 -1.3274072994531043e+03 -6.5556917775106194e+03 1.8628627140026060e+02 -1.1510639783041495e+02 7.8614003228733918e+02 4.5129866823611328e+03 2.1100206637009978e+02 -1.3069823653386920e+03 -1.6113718055805512e+03 -4.0665383172307702e+02 -4.3323683920040276e+02 1.6379455574778992e+03 3.3187354287184039e+03 -2.4008223686744241e+03 1.3612427829966316e+02 -9.6925868218296619e+03 -3.0885268436846145e+04 1.1354980344672242e+02 -2.5309353767822475e+04 2.4894719498829145e+03 2.1932472214878862e+02 4.8947959100825919e+03 -3.2886438841747840e+03 1.5224498726671445e+03 5.3670382051664601e+03 3.1219684252201614e+03 -7.3029682683133324e+03 -5.7850499388743486e+01 -3.1299653220583768e+03 1.4991319777745521e+03 6.7586556728571111e+02 5.6507017590857322e+02 -1.4933473762962003e+03 9.4715219579008556e+02 -5.1122222929228083e+03 -1.8908723731214042e+02 -4.2676372491143047e+02 -1.2270522060830006e+03 -1.4077975207055817e+02 7.6394962378740256e+03 8.8576618832357999e+03 -4.0470943816375893e+02 -2.4288458754801400e+03 6.3619565667111683e+03 -9.1346907338071765e+02 1.1697024249277359e+02 -1.9160411988898397e+03 -1.4008599047601754e+03 1.2201605199791950e+02 -1.6236456752051281e+03 
      </Row>
      <Row Index="1">
        1.3873244737165477e+05 8.7665000766170281e+05 -5.1453652668593029e+04 -5.3330957008818812e+04 5.7005671543581684e+02 -1.4330940891221035e+04 5.4927358140192882e+02 1.8758659665710886e+04 -2.4892694915575867e+03 1.7039789486696786e+03 1.5760312689663995e+04 1.2582682097160656e+04 -1.5460302263889762e+03 2.9729010838526559e+04 2.1537414102462336e+05 -2.2242362603345930e+04 -6.7235098599933899e+03 9.5015613852100596e+03 1.5547562962632749e+05 -5.3493669764773585e+01 -8.1162729041301136e+03 -8.2358932901510343e+01 -9.3952122173600947e+02 -4.3724149580340600e+02 -4.5097059000801528e+02 6.2226171886581142e+01 -3.9754702596106995e+02 1.0725711285634134e+01 1.6102198912593303e+02 -2.6623984101954761e+01 2.7909546896330357e+02 1.3589570443936100e+02 3.6048091637476200e+03 -7.3882080619163389e+02 2.5490040422676975e+02 1.3698529262995144e+03 -2.3620436471302469e+03 -4.9126235781528339e+02 -3.8401949578640961e+02 1.1069973042549245e+03 -2.3096949863196724e+03 -6.9910133338147716e+01 5.0829573035810608e+02 6.6792995908908779e+00 -5.8763591555180028e+01 -1.1168464870774187e+01 1.8488192168326350e+01 -5.4624847137915640e+02 -6.4379974877840141e+01 1.8806132414742024e+01 -2.6425370918470435e+01 -2.1725809357594699e+02 1.6818521407913067e+01 3.6667206574228476e+02 -1.5874751769471914e+02 3.6088136996015237e+01 -4.5374969486065675e+02 -1.6002267222065711e+01 -3.4293034252605139e+02 2.5201897762657609e+02 3.4143932040315121e+00 -6.0786961177087505e+02 -1.0050147034027759e+01 4.9457160878382274e+03 9.9515229015692603e+02 1.8021075292676687e+02 1.7551589027361479e+02 -4.2385171591971255e+02 9.1922415574093975e+01 7.0823399081060779e+02 -5.5966901592706563e+01 2.4331961496721633e+03 5.7657335948962300e+03 -4.6210705691861222e+01 -5.7358280139345861e+03 8.7794873885510947e+02 -9.3500962104124483e+01 -3.1640087683572492e+03 3.7429210448169442e+02 -1.5362459138533450e+02 7.9883775053979116e+02 -2.8975220668203110e+03 1.0443351358268104e+04 2.3837180911457835e+01 1.0156787274261733e+03 3.2268282387213549e+02 1.2056765107679166e+02 1.2692490014422219e+02 -1.6352449103609251e+02 1.8557492813146928e+02 1.0484540400039987e+02 -4.3435326862667353e+01 2.6529526284514577e+02 2.1608269785967423e+02 -3.6497835492392824e+01 9.8581355885892572e+02 -1.4562793759410852e+02 -6.8687610199020128e+01 -5.9754940326209180e+02 -1.4043315434286028e+03 1.7245494643718121e+02 7.5554225544561632e+01 -4.4465278219164611e+02 6.8284355260041775e+02 1.8781326208263636e+01 -1.3077153630805115e+03 1.9975212097354233e+02 1.4042393241706304e+02 1.7259094641916454e+02 -1.3444483937772611e+02 -1.4161420558372029e+03 -3.8318829843116691e+02 -5.7284926549600641e+01 -6.0596931553678587e+01 -1.7327534485186334e+02 -4.7521395616267000e+01 -2.4162443466932164e+03 3.2792302491199735e+02 -8.5201917025246075e+01 7.1238588407667703e+02 4.0968025302139322e+03 -6.2600735502132420e+02 9.9733051249643904e+02 9.5066521782579366e+02 -1.7291500478877570e+03 2.4409493667539209e+01 -6.6144112284600851e+02 -2.9387639638724795e+02 -7.8579189062074875e+01 -1.1004073286437779e+02 -1.3146928402704361e+01 -5.8273177403972363e+02 5.8755721799047024e+01 3.0355197752644017e+01 -2.2517678785210592e+01 1.4049031663017377e+02 2.4941826723605118e+01 -6.5451116873268620e+02 1.9443765696007176e+02 4.4745557810054379e+01 4.8336377230387370e+02 5.7221684527567413e+02 -3.0502625610507675e+02 3.3795327164097398e+02 2.9799380232304975e+02 -2.6165361491596559e+02 -1.2248138003769782e+01 -2.0389891162996437e+03 -1.3673813079253232e+03 -6.0038281870988430e+02 -7.1445474902002024e+02 -4.2833365665193014e+01 -7.8184039307250350e+02 2.5054167673122720e+01 2.2879985978217837e+02 1.4313989031006133e+02 -2.4809023720116056e+02 1.9086225619891047e+02 6.1864353756266905e+02 -1.6593484494878703e+02 3.4825788510896746e+02 1.8562747069766390e+03 -5.0833459250401393e+02 -4.2776155741295861e+02 5.0577847404038812e+02 -6.4547485290358509e+02 -9.6474490008210569e+02 -9.6366494214162230e+01 -1.8076774012621172e+02 7.3043209820660195e+02 4.0432845235746936e+02 4.4270513165678858e+02 -3.6323196372155508e+01 5.6514567585701298e+02 1.6490627151604713e+01 -1.5351936990280228e+02 7.2873602528310585e+01 9.0240097212586988e+01 -1.2902134594618656e+02 8.4815170259146544e+02 -1.3237101063302543e+02 -2.3870990715262451e+02 -5.7023339586066140e+02 -1.4021796929241423e+03 3.5250318505203177e+02 -2.2300642487304867e+02 -1.7226978168266942e+02 2.1172868895942811e+03 6.6049631613306701e+01 4.0417714663473225e+03 -6.0003518539480865e+02 -6.8199639351021324e+02 -6.4736966593415127e+02 -4.3989016683979571e+01 2.1734453746128838e+02 1.1086084926829062e+02 2.5905575866544768e+02 1.0351010826421066e+02 1.8097279348071879e+02 2.2002712550402543e+02 -1.4936664451877959e+02 4.8417266586001460e+01 4.1367917556670727e+02 -1.2981460958092575e+03 6.1383964176358131e+02 1.0691492927862055e+02 -1.3726821267473497e+02 -9.4391686527148704e+02 -2.9274459562440347e+03 -1.1519389916550176e+02 1.9319659835041966e+02 -3.2580641781038139e+01 -4.6532253610435873e+01 -5.1872205266161473e+01 8.7122050561520155e+01 3.4486620751751616e+02 -6.3604451046558097e+00 1.8825626715464750e+01 -1.1428833360076533e+02 -1.2184395167876210e+02 1.5963871529997050e+01 1.3050072400422359e+03 -3.8218769010751566e+02 2.8747819055264699e+01 -2.1787252444925252e+02 -1.1361824673951387e+03 1.1914583307776775e+02 -2.9380157969250286e+02 -2.6002766186284134e+02 2.5177884588870802e+02 -8.1678649773821235e+00 -1.6924255573920673e+03 -2.2868952518680408e+03 -9.9785908257769188e+02 -1.0813488494255362e+03 -2.2103691535771395e+02 -5.9308187012889248e+03 8.8563594221185485e+02 3.7205804077878315e+02 2.0188501515741373e+03 8.9468670629499775e+02 3.1245263365342089e+02 9.6003958095311464e+03 -2.8333898189498841e+03 5.8207664371889814e+02 2.8870490541240079e+03 1.6639885179220873e+03 -2.7682541862459620e+03 4.3048237400513954e+03 2.0459251075011703e+03 -7.8438692980717660e+03 -1.6005535791074499e+02 -2.4616864612556765e+03 4.9934583077828120e+02 5.6457368260629664e+02 5.4180058654423374e+02 1.9714936969238624e+02 1.0783825077649817e+02 -1.3947180217539426e+01 -2.1422548407109753e+02 -4.3375464573035242e+02 2.5636564707497655e+02 -1.8109174704038003e+02 -2.4813842345515150e+02 8.9963809472243156e+01 -3.4035523233112190e+02 1.0215733801689439e+03 -4.3531069054733962e+00 7.2130478957886226e+01 -2.1648303852268873e+02 1.5733067447067615e+03 1.8663348087395425e+03 9.5048450981499627e+01 -9.1278247873817872e+02 3.8215612935093213e+02 2.5499802671151156e+02 2.7381044583831317e+02 8.2840083649094595e+01 -4.2104763263391033e+02 -8.5965872072885759e+01 -9.9345091669232033e+01 -2.3336104059100398e+02 5.9249549641168869e+01 -8.3160363602891607e+01 -1.2112783788963147e+03 1.8734695296306745e+02 -1.5271194129210926e+02 1.0352617724319171e+03 2.0163541680612725e+03 -1.8153152507335471e+02 2.4350735798518417e+02 1.3432238006898870e+03 -1.3194584398973775e+03 4.3497394523117691e+01 1.1295460260588479e+03 1.3232174905263792e+03 6.3169970394995198e+02 6.5057480437072081e+02 1.4910832862806274e+00 5.9558546809003849e+02 1.2154351871873587e+02 -2.3181348154071350e+02 6.5681662420346584e+01 1.5976671307995275e+02 -1.9532683047534306e+02 2.3332090922322932e+03 -3.3918805843831433e+02 -3.6751323594638689e+02 -1.9886752646274913e+03 -4.0484904012496722e+03 3.1532831964286743e+02 -3.5431636872611125e+02 -7.4991784875535222e+02 4.3806819601206334e+03 1.0082512435503304e+02 1.9847797865322595e+03 -3.0382683481419349e+01 -2.1297506862495607e+02 -1.2883995694929422e+02 1.0960680051001589e+01 2.3334962667650325e+02 -9.0324899585551975e+01 7.5338968320014260e+01 3.2431822926506811e+01 -2.6241328917725968e+02 6.4564290079830471e+01 -9.2203687261058406e+02 9.7337846790920594e+01 1.2982054813494776e+02 -7.2184831529941005e+02 1.6756584264174089e+03 8.4522846197139927e+01 -1.7701665211370357e+02 -5.3713626135745777e+01 -2.3849078959104795e+03 -3.5962474591098726e+01 1.4488262384403279e+03 -1.3518096849864221e+03 -5.8714299851869873e+02 -6.0732378564358532e+02 -5.4707299422356391e+02 1.0544271243500384e+03 -2.9656721051122531e+02 2.1686622142528677e+02 2.1144138871062514e+03 -7.4310180487251419e+03 1.8210730346335939e+02 2.9786365461263149e+03 1.3084816086786943e+03 3.4228059664577393e+02 1.8288725613900915e+03 -2.0325542357485636e+04 9.3243483878239590e+02 1.2821784322528038e+03 1.7173105896742536e+03 -3.5207563572270319e+03 -9.3898038937527431e+01 2.1382170422035788e+03 -1.1309990257392637e+03 -5.1892641550596818e+02 -4.2922044355217122e+02 -4.2081070233468708e+03 -7.4777052794657095e+01 -5.2924680409708235e+03 1.3628753192061794e+02 -4.8635813396905587e+03 5.4900616105030549e+03 1.1747574012020709e+02 3.8219116281397112e+02 1.6082847843234804e+03 3.1073670251082547e+02 2.1262039748588827e+03 -9.8920853548315404e+02 -1.9256878459261362e+01 -2.5284680138212565e+02 1.4725094858321570e+03 6.2828295396344561e+02 -7.4047960010217466e+01 -2.6399587829935485e+03 
      </Row>
      <Row Index="2">
        6.4665422026722248e+04 -5.1453652668577270e+04 9.7767176788737706e+05 -2.3144741243482800e+04 3.9577308223779255e+02 -9.1456836643337501e+03 4.0316195478664486e+02 8.1715425121444569e+03 -1.6778937946220681e+03 1.6742289289217847e+03 6.8683640363894665e+03 4.7322651369483801e+03 -4.6423408997640479e+02 1.2939312317121978e+04 8.4700737453189402e+04 -9.8378788125725623e+03 -4.4436423295606310e+03 5.6327012958852611e+03 5.9395790536527420e+04 1.4634903339714810e+03 -3.5383888825642739e+03 1.7013913151131419e+00 -4.8432344265113352e+02 -2.2349095360486535e+02 -2.2113075991300866e+02 1.8834466635102217e+01 9.4199611190327545e+01 4.7419141068857243e+01 8.1413665331740049e+01 -2.6146782023631602e+01 1.1880093249676338e+02 6.8868543048876745e+01 1.7179621805738186e+03 -3.5588911973878180e+02 1.3022550607887388e+02 7.5069423899707363e+02 -1.2146616170929933e+03 -2.6457996338536122e+02 -7.9271554639196711e+02 7.5921646489602881e+02 -1.0842447015047735e+03 -3.5608776063952973e+01 4.3199349025107222e+02 4.4438564076230250e+01 -2.6041973758605309e+01 2.5929577722563408e+00 3.3730107770970790e+01 -4.0910169457469601e+02 -4.1867664814548334e+01 8.3199592208111426e+00 -6.0352075225455337e+01 -1.2775251645041863e+02 7.6383561644543079e+00 2.6601157980592689e+02 -1.1020782237758976e+02 1.6781552371522139e+01 -3.9488476309261750e+02 -4.5765473589322937e+01 -2.4749060547399131e+02 2.0727211787773831e+02 -5.3344879673968535e+01 -3.0954452239978127e+02 -4.7552311641975393e+00 3.0633318236946070e+03 2.1300914872627618e+02 -5.5241271601058543e+01 -6.0073626723780762e+01 -1.8849341908533438e+02 -5.9928472073085459e+02 4.8840336066426971e+02 2.6491294294530235e+01 1.2764518230153335e+03 1.9345530110726449e+03 2.2749378549378889e+01 -2.3543015574747660e+03 5.4983809450779859e+02 3.9240406837605406e+01 -1.3619423595478802e+03 1.1326222915996161e+03 -8.7397464598327679e+02 -5.9077975914813578e+01 -1.1214701520315648e+03 6.0275063711459552e+03 -1.1802647629112471e+01 2.9750460665135324e+02 1.2012554509189795e+02 5.3861155380436685e+01 5.3828060105884106e+01 -7.2555975135692279e+01 2.1646474938022141e+02 5.0978579825852648e+01 -1.9526301652532084e+01 1.2617115708957135e+02 1.0685588039268623e+02 -1.6477926177610698e+01 2.1486688368597743e+02 -1.1614834113170218e+01 -3.1101839092261798e+01 -1.3200131133649847e+02 -3.9466232768386953e+02 1.5673008574443520e+02 -2.8126259440265130e+01 -1.2176194668060270e+02 2.1952050212972972e+02 8.5882137916050851e+00 -7.1304375955552678e+02 5.1246629490080522e+01 6.1077557630254887e+01 8.2013159311609343e+01 -1.1561255067757202e+02 2.6204396068630194e+02 -2.7138559565467085e+02 -2.6587350142905962e+01 1.8298919266825396e+02 -3.9683560617962212e+02 -2.2142691254240162e+01 -1.3358003498870094e+03 1.1591774254886695e+02 -3.8224694138541963e+01 6.8376890393426584e+02 2.3227983935715242e+03 9.4964232987102150e+01 -4.3938526917665149e+02 8.1271398783801123e+02 -1.4526009846373927e+03 1.1271501601091586e+01 -2.8428478209708192e+02 -1.5792614681909981e+02 -5.1292699471960077e+01 -7.6917995733325370e+01 -4.5294505217840197e+01 -2.2169187240804422e+02 5.9576418158701927e+01 2.0739453709400550e+01 5.3777678350445058e+01 1.2989412190662188e+02 1.7078933254685580e+01 2.7256889308628161e+00 4.3974659949330089e+01 2.9821220384841126e+01 2.1835231057293277e+02 -1.7346931008940010e+02 -1.0352676280290325e+02 1.5526149041676763e+02 -3.3525421270191146e+01 1.5845872857610811e+02 -8.2454888555009802e+00 -3.9821246442125448e+02 -6.8566745537316910e+02 -3.8789551167572063e+02 -4.5039080870313228e+02 2.8175539171345008e+01 -6.6971941401227741e+02 1.2395009133120766e+01 1.4972080359271149e+02 -4.2629452180598093e+01 -7.6360558926798603e+01 1.2531610234226901e+02 4.5428675533795740e+02 -9.0476629131581831e+01 2.2835495511106819e+02 3.4300510482543280e+02 -5.2524591397399990e+02 -3.6110217387386797e+02 4.6880679978459852e+02 -1.2577395639425931e+03 1.5402734653243760e+02 -6.3728953890968114e+01 -3.1028158510566755e+02 4.1574148755659917e+02 2.5460872535080125e+02 2.7095178586775364e+02 -2.4806194533462985e+01 1.1780129398388090e+02 1.2538964659222984e+01 -9.6552768106546864e+01 3.8926163820009606e+01 5.8656376052224005e+01 -8.1333279649456017e+01 4.9931820921124381e+02 -7.3673943183050142e+01 -1.5108172788775119e+02 -1.9858103438114085e+02 -8.6130428218247107e+02 8.7579752601544897e+01 -2.6409850854510296e+01 -4.8393436747996020e+01 1.3100340465809422e+03 4.1848467595176771e+01 2.5122864857877867e+03 -5.8577720877247339e+02 -5.0963032448308832e+02 -4.8126143239999510e+02 -4.5368158668428805e+01 2.4320891309384206e+02 5.9842341233497791e+01 1.9143685610773400e+02 8.3422077498311978e+01 7.4520395695522438e+01 1.6228636175111268e+02 -3.9499746451289889e+02 6.9962835179534295e+01 3.0647874218866400e+02 -5.2526543381015654e+02 9.0338885531366304e+02 1.1555413992180002e+02 -1.5696480485784923e+02 -4.1351215790207789e+02 -2.6041944604462269e+03 -8.5106017170714779e+01 6.1264126411639154e+01 -5.6717387898985180e+01 -4.2270358604262583e+01 -4.3177891254184942e+01 3.2702882448071250e+01 1.4855045629318556e+02 -1.0944206896179821e+01 1.6129311236327339e+01 -4.9704236180667067e+01 -7.6892180397109769e+01 1.3742630873425696e+01 6.2398995339489193e+02 -1.9786747275350353e+02 2.5369978245165839e+01 -4.4236541099526221e+01 -4.5143498642606255e+02 5.2076841560454341e+01 -1.0174731941108621e+02 -1.1777892623201478e+02 -6.3168923455152253e+01 -7.0845066689653322e+00 -8.9290606017738719e+02 -1.1248964977966823e+03 -4.8300581900864927e+02 -5.2905017285758731e+02 -3.4253873220301102e+02 -2.0297409854000202e+03 3.7114205165726162e+02 1.8064213216327937e+02 2.0500616359661326e+03 2.3580016556022738e+03 1.5153426237467113e+02 5.0717481230292778e+03 -2.3302886152399878e+03 2.8178833030984663e+02 1.3797402416967107e+03 7.5932729398895754e+02 -8.9539894913069111e+02 2.7573612868413411e+03 9.6613325303932288e+02 -3.8394280699125711e+03 -7.7541433543446260e+01 -1.5513902396305966e+03 5.2185947698019822e+02 4.9166991596583193e+02 4.8342682930407227e+02 1.1934452696036169e+02 2.9383948058921465e+02 -1.9997627960685350e+01 -1.8614735531477498e+02 -2.3654975540516898e+02 1.1421373206584940e+02 -1.5723670801032483e+02 -1.5229886000564147e+02 7.3940235251042395e+01 -2.9481070315879379e+02 5.1406099381027025e+02 -2.8673981757816910e+02 1.2578782579803010e+02 -4.2799457204514329e+02 1.1459597473487920e+03 1.7602938860162631e+03 8.2163242017384619e+01 -4.8706508398062113e+02 2.4515443047042208e+02 1.5709244243162175e+02 1.6789485313064870e+02 1.5368618969454474e+01 1.3024437608339457e+02 -4.6568198245523035e+01 -6.1112011544357415e+01 -2.6278314456310909e+01 -3.0906493468485678e+01 -5.1310499368710680e+01 -5.6034762705963340e+02 5.8384261810362659e+01 -9.3976553422830875e+01 7.7689808343362984e+02 1.0091846573829662e+03 5.5033709061655827e+01 -2.1713882353886083e+02 9.7811283025446232e+02 -9.6618696276444371e+02 2.6895243060425855e+01 1.9048686340242784e+02 7.4217680865248531e+02 4.0787279697222539e+02 4.1966213391494921e+02 6.1372204723335017e+01 2.8417849653854449e+02 8.8794188051461788e+01 -1.5122530080545650e+02 -9.5812233140058197e+01 1.8720708086561353e+02 -1.2741857620609198e+02 1.2505915288411215e+03 -1.6322340514263851e+02 -2.3924492882015011e+02 -9.4468178853986524e+02 -2.1921971424668136e+03 1.7316325155871164e+02 -8.9646646277916261e+01 -1.6413703693883281e+02 2.6157006665316148e+03 6.5825662699062377e+01 1.6513654879345822e+03 -1.9991800395501139e+02 -2.9990696441322780e+02 -2.5229037353967851e+02 2.2349175926869123e+00 -1.4264332948574520e+01 -8.1732922656011397e+01 1.1071918401072395e+02 2.4510563373842160e+01 -2.3384873339072465e+02 9.4068936256371160e+01 -6.0896849025810593e+02 3.0048165787375183e+01 1.8118419599700519e+02 -5.5412959368630106e+02 1.2907118892366379e+03 -2.9627940044523427e+01 3.4329986532661145e+00 -3.7232659687489172e+02 -2.0265660816690161e+03 -5.0308336938731372e+01 5.4748740497428298e+02 -6.4059807204677873e+02 -2.9147779217727259e+02 -3.0051252617373206e+02 -6.2262311207725429e+02 -8.6558992134557684e+01 2.4941566789454268e+02 1.0824047112561192e+02 2.4466577102013639e+03 -5.9910771410517236e+02 9.0979829678531161e+01 3.8915558816956191e+03 4.9521848315586590e+02 1.7073643349516220e+02 7.5904289219155862e+02 -9.6840413364618416e+03 2.9286114332600118e+02 9.4155957859707087e+01 8.0783008522684440e+02 -1.9862596598918481e+03 -4.6923304139059589e+01 8.1432078093314931e+02 -5.3849660193733871e+02 -2.4447333564817575e+02 -1.9684216325143939e+02 -1.6957032351989837e+03 -1.2973426338208427e+02 -2.3617879558969435e+03 6.4625868746908310e+01 -2.1435916043018028e+03 3.0172202987366463e+03 5.2071414040781022e+01 -5.3370478975405808e+02 -5.1451478773621830e+01 1.4780504280830178e+02 9.5085037106636548e+02 -1.0891300510772171e+03 9.8733844615804074e+01 -1.4729223663693412e+02 6.9965205614803347e+02 -2.6209648106194813e+01 -3.4776291293047670e+01 -1.3194348279401522e+03 
      </Row>
      <Row Index="3">
        6.6629767335988348e+04 -5.3330957012951403e+04 -2.3144741241799959e+04 9.7596488770673762e+05 4.4141385156765682e+02 -1.0519421876883225e+04 3.9823171033486506e+02 8.4748856136444665e+03 -1.8828924421037416e+03 1.6187370837500773e+03 7.1227792997356155e+03 4.9319874576074935e+03 -4.9749574800570133e+02 1.3413513645935338e+04 8.7542467787698959e+04 -1.0133281535176449e+04 -5.1011172496137224e+03 6.5766352759462598e+03 6.1014094486757851e+04 1.8854402813962079e+03 -3.6684987951170242e+03 -3.3315677560949553e-01 -5.6992428195051616e+02 -2.5270632700022543e+02 -2.4796935652039247e+02 6.5059977799328408e+01 4.6955720993220888e+02 3.9450085985013175e+01 9.1474424480940797e+01 -7.9323583655723610e+01 1.0767104031297731e+02 7.7319833838402701e+01 1.8196874029856781e+03 -3.6947291422407557e+02 1.4674729925230349e+02 9.4963166601775993e+02 -1.2571716413453291e+03 -1.3097037234768050e+02 -1.1810440007592842e+03 9.5493400267082234e+02 -1.3166870894338194e+03 -4.0048726338798588e+01 4.7810545759298839e+02 5.3084388960603974e+01 -2.6146863352973014e+01 1.9384862732840702e+00 2.7774342997698113e+01 -5.2276655588734866e+02 -4.1410853461449733e+01 8.5606255056918599e+00 -5.8180697220101138e+01 -1.2808960520384426e+02 7.8383305583556648e+00 2.5445949235932494e+02 -1.0333982065945747e+02 1.7047431422844056e+01 -4.4323854012650554e+02 -5.0152640075502859e+01 -3.0645266808457745e+02 2.8317282994114066e+02 -9.3660613300686236e+01 -2.9671431627347192e+02 -4.8614037332663429e+00 3.2907877531193953e+03 1.5277227151096668e+02 -8.5645648789824918e+01 -9.2930719429685269e+01 -2.8240556601343695e+02 -7.1295514746067215e+02 5.1430055412112415e+02 3.7968967049164348e+01 1.5329504249115671e+03 2.7320086753160767e+03 3.2390057888856973e+01 -2.4395625833865724e+03 2.9254197758561213e+02 5.7140938556025503e+01 -1.3027386669466505e+03 1.1667709432962417e+03 -1.0960153925922368e+03 -2.0967988715431420e+02 -1.0866262112609402e+03 6.3716890592868767e+03 -1.6742497794376504e+01 4.2438371332106908e+02 1.5018869408301543e+02 6.4241595351496471e+01 6.8781431313133908e+01 -7.1248609222879168e+01 3.4320787994447369e+02 5.7625867409544298e+01 -2.3645511954538506e+01 1.2918034225714655e+02 1.1954345755845134e+02 -1.9904854754998752e+01 2.9111655490818509e+02 -2.4767110781511292e+01 -3.7069562860655424e+01 -1.8449172317193006e+02 -4.8689882274587058e+02 2.2697818867456226e+02 -9.7067891090817284e+01 -1.1734450925537749e+02 2.2280769600044005e+02 1.0241211690939963e+01 -7.3139375298811501e+02 6.4512952042394318e+01 7.2840993499732576e+01 9.3940545233373996e+01 -1.2604484885331658e+02 6.0267193263469017e+02 -2.5139936807321601e+02 -3.1132778798814797e+01 2.4616342641202937e+02 -3.0907695965476159e+02 -2.6023113920050037e+01 -1.4164900296531123e+03 1.4805649783119225e+02 -4.5366153788569136e+01 7.3891126070560131e+02 2.3716561951368162e+03 2.2600275371860153e+02 -7.9292257154227991e+02 8.6432443590150797e+02 -1.2647615080282558e+03 1.3294301291927695e+01 -2.7752080698757345e+02 -1.9207921014633757e+02 -6.9268416511295072e+01 -1.0016067382497567e+02 -5.2135369822386565e+01 -2.5820598135977548e+02 5.6453126251697540e+01 2.7931379719739198e+01 6.5361288814136060e+01 1.2530886979664137e+02 2.3078842653486390e+01 -6.0731032999887248e+01 6.0613314922506106e+01 4.0515574286102492e+01 2.1976511765423220e+02 -1.2002632839653234e+02 -1.1863578193753347e+02 1.8559493997421669e+02 -1.1205030812757468e+02 1.5323567320595612e+02 -1.1241198857137988e+01 -4.0074562689264985e+02 -7.2093614836551387e+02 -3.9846327924070647e+02 -4.6223484546175496e+02 3.6724782217291704e+01 -8.2431973195374485e+02 6.3410841562872520e+00 1.5358672980649817e+02 -7.5281696592054175e+01 -1.0387868790232233e+02 1.2855172960554228e+02 4.2888726576594195e+02 -9.2610178157384325e+01 2.3434932893435325e+02 3.7149172267664778e+02 -4.6963202701198543e+02 -4.3393936733362284e+02 5.8812517890105266e+02 -1.2300235868799255e+03 1.0010465052836594e+01 -6.5389153365744278e+01 -3.1357721914855756e+02 4.5319110522812116e+02 2.7631126426569244e+02 2.9351619048980137e+02 -3.5560752304474590e+01 1.5104428597071092e+01 9.2587411655549658e+00 -1.0468721375799942e+02 5.2332756128836081e+01 5.4226752718210264e+01 -8.8209353625669792e+01 4.7150525719875804e+02 -6.7902149944886332e+01 -1.6388143874993511e+02 -2.3734049960122184e+02 -8.3999794488676275e+02 3.3948028587845329e+01 3.9132563531607957e+01 -6.0643649783574801e+01 1.3566034629077622e+03 4.5379663918865845e+01 2.5420712197903003e+03 -6.2346959326560864e+02 -5.2851096879214106e+02 -4.9958743331240112e+02 -5.4957277478455580e+01 2.8846328702574738e+02 5.5129876553685790e+01 1.9836383627760461e+02 9.8364597428289699e+01 6.0698727253204197e+01 1.6816078323057678e+02 -3.4644082737076315e+02 6.2297811214308467e+01 3.1753182532155279e+02 -5.4580005926646845e+02 8.4775355411306282e+02 1.4803755734900005e+02 -1.6183789802099545e+02 -4.5775936334179278e+02 -2.6235874635963373e+03 -8.8199535594507068e+01 3.2381622272951063e+01 -5.7828695227726712e+01 -3.9021512283652555e+01 -3.9262039798268233e+01 3.0062872744988454e+01 1.0854263632092989e+02 -8.5445415443264210e+00 1.4773945705659571e+01 -4.9916696456362843e+01 -7.5900243569783925e+01 1.2611569508011598e+01 6.4968666373538144e+02 -2.0124295137411173e+02 2.3323882926444639e+01 -3.3737307054776466e+01 -4.8856026910923526e+02 3.3157262245747916e+01 -6.8230210947782325e+01 -1.1157814400061034e+02 -4.8353593062849541e+01 -6.5123166007688269e+00 -7.7975304384835545e+02 -1.2208410353599279e+03 -5.3626244680764648e+02 -5.8577692095202292e+02 -3.0253167627243107e+02 -2.2029938321856912e+03 4.5730639146009707e+02 2.0084683215803881e+02 1.9185551271851946e+03 2.4871315405970336e+03 1.6853844938983957e+02 5.1990187190148954e+03 -2.3567323440993205e+03 3.1337214824623987e+02 1.4369143096959706e+03 1.1421793187738513e+03 -9.4563273339546276e+02 2.9791353856296614e+03 1.0095059208766056e+03 -3.7237849698923683e+03 -8.6277286473729419e+01 -1.6216961840196236e+03 4.7958400471655295e+02 4.7608041707675875e+02 4.6270624222701008e+02 1.0770833045296695e+02 4.9936746413195260e+02 -1.8215974473809183e+01 -1.8010418001153630e+02 -1.9751491458341479e+02 1.3014696041912339e+02 -1.5225310695204610e+02 -1.6097279379700194e+02 7.7982981226475658e+01 -2.8587014067463542e+02 5.8902986391094032e+02 -2.7715489412106763e+02 2.2860988408494995e+02 -5.7386842316382899e+02 1.1139228361548376e+03 1.7983897731292727e+03 7.9694312317762524e+01 -6.1946805541505569e+02 2.6328314169657870e+02 1.7679600093483896e+02 1.8133411977695505e+02 8.8079602558664192e+00 3.6034650271615652e+02 -4.4084626277952793e+01 -6.8066113866510022e+01 4.6400078549449972e+00 -2.5142113953559146e+00 -5.7303894870649742e+01 -6.0131337290052215e+02 7.5592797726654680e+01 -1.0582205085251030e+02 8.4465979902362392e+02 1.0123138126537042e+03 1.6264504952481366e+02 -4.0025599901964620e+02 9.9307521313044003e+02 -7.8045734782642467e+02 3.0194069341174327e+01 2.8111208296678160e+02 7.6951497239883884e+02 4.1437646719784061e+02 4.3125687613834907e+02 7.0168038489679020e+01 2.7559698932066465e+02 9.3357300415454120e+01 -1.5392676948587052e+02 -1.2277739615451446e+02 1.8907657000164909e+02 -1.2958532660268725e+02 1.3132075540029882e+03 -1.7146338504521918e+02 -2.4297969753373127e+02 -9.9581295984281735e+02 -2.2987892845180240e+03 1.8414812961357165e+02 -4.3001722178759337e+01 -2.0344135214088612e+02 2.6576869908298281e+03 6.6845253457082435e+01 1.6771140816186869e+03 -1.8139488739525552e+02 -2.8789365315673876e+02 -2.3933551563905667e+02 -8.5552120573242689e+00 -3.8111020010375796e+01 -8.3255669506069353e+01 1.0611932801684543e+02 3.9002953526775855e+01 -2.3987794745227950e+02 9.0166724539072277e+01 -6.4459733414742254e+02 3.9007611694229126e+01 1.7403103303390500e+02 -5.5254527972426774e+02 1.3308778905156632e+03 -3.8375886274708080e+01 2.9819669434971928e+01 -3.4956071448001990e+02 -2.0878612632224094e+03 -4.8313496335875243e+01 5.3908795098606606e+02 -6.6629029994560267e+02 -2.9589757871887844e+02 -3.0460244831079490e+02 -7.0002750010438967e+02 -2.3762737524343993e+02 1.6763637233740212e+02 1.0959505465435028e+02 2.6516911859573956e+03 -1.3521710784073812e+03 9.2103780106570440e+01 3.3091977690027684e+03 5.8257689980991961e+02 1.7302927466657502e+02 8.4265926159695493e+02 -9.9479857854140300e+03 2.6699988793781245e+02 3.9180055859057575e+01 8.9654483702560628e+02 -2.0584206788845013e+03 -4.7502242179993054e+01 8.3696580717929442e+02 -5.6962255370267667e+02 -2.5736526073103698e+02 -2.0272977616703406e+02 -1.4708517468910900e+03 -1.7954887255136350e+02 -2.5642157492501428e+03 6.6446905392663879e+01 -1.9392945402833236e+03 3.0772149402043733e+03 5.2289904332302640e+01 -4.6384022655614035e+02 5.2876176247985583e+01 1.5607375275275103e+02 1.0009476137107658e+03 -1.0668486663248786e+03 1.4832091017621184e+02 -2.0215703521421196e+02 7.4710885356706069e+02 -2.9019324204980585e+01 -3.7082782434800855e+01 -1.3355728239535176e+03 
      </Row>
      <Row Index="4">
        -7.2847543489662598e+02 5.7005671526752076e+02 3.9577308218283088e+02 4.4141385169380868e+02 4.1777105858636099e+02 8.4538472116567800e+02 -1.8314570586745944e+00 -1.5267347510562834e+02 -7.8875937255616338e+02 2.8673379536218988e+01 -1.2865403756645313e+02 -1.2604811068050736e+02 2.3643419255851864e+01 -2.3472308993485714e+02 -1.7656075870321587e+01 8.9609977686888769e+01 3.5490962115979625e+02 -7.4781725184154527e+02 1.7085984804372345e+03 6.5408722733852096e+02 6.5592147130970304e+01 -7.9179299433049778e+01 -1.6719134362460647e+02 -6.3654716088441830e+01 -5.8228367789572999e+01 3.1841304683089123e+02 1.6953038844446867e+03 -2.9066657629311834e+01 2.2341279564381658e+01 -4.5669952077861353e+02 -9.1966112092148393e+01 1.8807732275304922e+01 4.4634567413859202e+01 -7.5710077872937674e+01 3.6587231415855229e+01 3.3931955018182038e+02 3.0601007108654005e+02 8.0029964940531534e+02 -1.4020248341784784e+03 4.4554372249222257e+02 -4.7172779358173068e+02 -9.8802298424905040e+00 -9.1273054423831809e+01 -1.7353447573911041e+00 6.8395915137521683e+00 7.0945608725211429e+00 -2.0826855384430665e+01 -1.4721419654764634e+02 1.4199049369912302e+01 -2.7600698211817623e+00 1.9858574594786283e+01 3.4236043032938667e+01 -2.2894743638028885e+00 1.0905882407112847e+02 -1.1295054464087290e+01 -4.3709673831312772e+00 1.3220287963954490e+01 -1.7997883892465347e+02 -6.5573712235818618e+01 1.1567729589555448e+02 -4.5259862301766532e+01 1.7550747533566744e+02 1.1977319050711586e+00 -5.1617438900932484e+01 2.9404321863916135e+01 2.4023637578841601e+01 2.8441924114548783e+01 -1.2543814611913430e+02 -1.0678109189039124e+03 -1.3698899569013039e+02 -9.6056753518543800e+00 -1.3691704066517027e+03 -1.8586544315080863e+02 -8.1249768067754786e+00 1.7360400666112122e+02 -2.2575796977992843e+02 -1.4601087569467012e+01 8.0804566332498268e+01 -4.8347890643577472e+01 -1.2604343161899456e+02 -6.0259652359296535e+02 1.0102689755236850e+02 1.2414545196503644e+02 4.1248665195375089e+00 -3.1293830323496786e+02 -1.0463843889687348e+02 -1.9045508060453358e+01 -2.3685105364474111e+01 -7.8084974225368228e+01 -2.5319645028467616e+02 2.5453560201237075e+01 6.5879186802212217e+00 1.1376419457940040e+02 5.8300659758324414e+01 5.6593092769634126e+00 4.6681970819773014e+01 1.5540321129208174e+01 1.0017841926070020e+01 1.8093719097382433e+02 -1.5397152919983105e+02 -1.1594329692153232e+02 1.9967090118334846e+02 -5.8185574278443113e+01 1.5814321501090171e+02 -2.7491791159762897e+00 1.9454667173118321e+02 -1.8306703432098629e+01 -5.9148797389779020e+00 -8.9646159036652762e+00 -2.0896572062154405e+01 3.5314402749212877e+02 -1.0686017475312326e+01 2.3548366151070326e+00 1.4159358049538824e+02 1.7265044294831796e+01 1.8969457860731609e+00 -1.4294439039013696e+02 8.6515486600509462e+01 3.4339822382427805e+00 7.6826541940881768e+01 -1.6746218912408528e+02 4.6811213820080084e+01 -5.7329028899363243e+02 1.1236238905463225e+02 3.0883614130121123e+02 -8.9389387758637895e-01 1.4361374620923220e+02 -6.5653457114045068e+01 -6.6823132860445014e+01 -8.6200567201459364e+01 -1.4347092188236138e+02 -4.5218171284400933e+02 2.5268603830590280e+01 2.7169200882601331e+01 2.2607731356847216e+02 4.9547316293716733e+01 2.2728354175027238e+01 1.3392309913269844e+02 -6.9854477053945203e+00 3.9925742493820351e+01 -2.9953262959540247e+01 -2.3402739653642581e+02 -1.8837743015999308e+02 4.0242535272832106e+02 -4.9435062938845954e+02 7.6490805607158109e+01 -1.1269374542202659e+01 1.9307100391703045e+02 -2.2987577079637379e+02 -1.4640543470239686e+02 -1.3982390261468777e+02 2.5747335611435780e+00 -1.2643849705353699e+02 -1.1151666612887471e+01 5.3938639091325733e+01 -3.1101795093983412e+01 -4.1735853058691632e+01 4.5403355296544362e+01 -1.5057099802837456e+02 -6.0144917874059995e+00 8.6102017492151134e+01 8.0826819167492943e+01 4.1367905471128660e+02 -3.0165428111794995e+01 1.7510368733237590e+02 -2.6034277365777075e+02 -6.6134192366602053e+02 -2.3886913799409058e+01 -7.4534733502730433e+01 -2.4519488308973848e+01 -6.8429075553879102e+00 -7.1874366040692621e+00 -6.8005308699260532e+00 -3.8079906149991984e+00 5.0502790985362189e+00 2.2958950591682310e+00 1.8769143556629174e+01 5.5515644106481545e+00 1.9441227560994321e+00 2.2204202655492111e+01 -8.8810861404654933e+00 3.6564389705305729e+00 9.0872929453494237e+01 7.4989699174599309e+00 7.5297480157066659e+00 1.5606942587930032e+01 5.0890284190091876e+01 -9.4406087560438436e+01 -9.6988626419624779e-01 2.1975982910922312e+01 -1.2498265244092624e+02 -6.0889409143341595e+01 -6.5514574798648368e+01 -2.7457697520155193e+01 -5.0504405222765314e+01 7.2902911603549967e+00 2.3104700603499040e+01 3.7317691126099326e+01 -8.3793571921449992e+00 1.9380704866077224e+01 2.1197028252580132e+01 -1.7184134761013581e+01 3.5894273726722631e+01 7.0581471718306830e+00 7.5693159148567986e+01 -8.6122662899605835e+00 7.5409258881684096e+01 -1.4486929576567675e+02 -2.1648850506771146e+02 -1.0016187126032221e+01 -5.4552347426174947e+01 -6.4043176022676107e-01 -2.2868200604407320e+00 -1.2349411005930051e+00 1.2878457411616290e+01 -1.4079792746800615e+02 -2.8261184842151003e+01 7.7688255153157115e-01 -2.9305824581792081e+01 -6.6706205349892628e+01 7.2068760397901599e-01 1.0396752571423388e+01 -3.5424343675327123e+01 1.3905559328213997e+00 1.2302166644035424e+01 1.2052902657262658e+02 -7.5726353535728620e+01 8.9020264145011879e+01 4.5660694810044333e+01 -1.6381915503162406e+02 -3.7069471590075409e-01 -5.9391876684377735e+02 1.6176139213821773e+02 8.8005223854499377e+01 9.3517443606248605e+01 3.0602078032559956e+02 -5.9675877505026165e+02 -2.3267707562010787e+02 -3.3252679343221928e+01 -2.2385369429442139e+03 -2.9740358033030009e+02 -2.8033652597208402e+01 5.0536412107746763e+01 -2.7203063089338963e+02 -5.2086729247177345e+01 -9.0289571798173711e+01 4.0595135388259337e+02 2.4943105254979761e+02 1.2110064397640326e+03 -4.4238154776023464e+01 -6.3413830988640711e+02 1.4416444960604128e+01 -1.6087983442175948e+02 1.6682716318348571e+02 1.1354294414167992e+02 1.0953317446338815e+02 -2.5806569749955131e+01 8.4690237406556321e+01 4.3422213175062687e+00 -4.1977778815965308e+01 6.5112754997171010e+01 3.0389457598597883e+01 -3.5553752118544068e+01 2.3212472741236382e+02 -1.3847170820605296e+01 -6.7110197731237150e+01 -8.3898797064427328e+01 -5.0216902403534903e+02 4.8616690489281211e+00 -1.5760163208080053e+02 8.6876197804351804e+01 7.2043936280763728e+02 1.8559961853055938e+01 2.9819702526542824e+02 6.2194035732858310e+01 1.8549144389145340e+01 2.6473918327588081e+01 2.2809301284643880e+01 2.3804566226465326e+02 -6.0932909381645537e+00 -7.3454583999699423e+00 1.7622970205733509e+01 -2.5040198193788882e+01 -6.2863567100442879e+00 -5.8113558187719718e+00 2.1184919443252763e+00 -1.0559959517080244e+01 -1.0515716281471271e+01 1.9897487403368359e+01 4.4366477244575563e+01 -3.2955863237828021e+02 1.2962285401307210e+02 -1.9333547187250616e+02 3.0226549185572367e+00 -3.4239264691334893e+02 3.9323594426058989e+01 5.7289746991737275e+01 5.7604544008874655e+01 -2.4942521827760089e-01 -5.0470562803310810e+02 2.1385691495429999e+01 -2.2006211861369316e+01 -5.9212953373278197e+01 5.6505065165100859e+01 -1.8465861871529654e+01 -1.9541189483537124e+01 1.8691655973869452e+01 -3.4698622003374339e+01 4.5287034394267380e+01 -5.2517607662633168e+01 -2.2802154636768435e+02 3.8825895575184381e+02 8.4972470021596422e+01 2.5690519151038654e+02 9.6301887875324610e+00 -9.2890777698105651e+01 -2.7828702108295602e+02 -1.6166767787364768e+02 -1.8046163098684167e+02 -6.5946929849025054e+01 -2.8148370229326974e+02 1.0621518674569783e+01 6.1641864302773740e+01 9.2920166055450437e+01 1.7190989100303170e+01 5.1821287009513647e+01 -1.0825864071866114e+01 7.3431153006221113e+00 9.5042137477390014e+01 1.5410972901123750e+02 1.9130472910771857e+01 -1.1921162187161438e+02 2.4289246909585674e+02 -5.0028219961420655e+02 -8.3340391488013452e+01 -2.6476404197877855e+01 -1.2982832823304489e+02 4.3200141135606600e+00 -1.4918004253930164e+00 -3.6405846202718095e-01 2.6077621140226574e+02 2.3510510232207580e+03 -9.6680682659733357e+00 9.4726502237863031e-01 -1.9469571009513966e+03 1.6314274321153394e+02 8.0880383483208718e-01 -2.1205843528626409e+02 7.9025847800257850e+01 1.4805836942876418e+00 -8.6677561888231594e+01 2.6847646482635281e+02 8.4189108928624773e+02 -1.0567810776396307e+03 6.6764698081155188e+01 -5.1647321378964314e+01 -4.4875181792121310e-01 -4.8311403998101596e+01 1.1503608296967400e+01 6.5700278569528718e+00 -5.1568746687414126e+00 1.4145764019849285e+03 4.8222092779273208e+02 -8.4130506846321396e-02 2.5844440208755590e+00 3.0119851535155203e+03 3.3093206623272174e+01 3.7575858816591530e+00 -1.6204079388687853e+02 -2.3557448316410847e+02 -4.8987637478366768e+00 -1.5943460851497619e+01 -1.8851447353501410e+02 -5.6298527484972283e+02 3.7301625342420851e+02 -1.2907348965788289e+01 -1.2472072000076022e+02 1.6682243914933099e+00 -1.2708571984106868e+01 
      </Row>
      <Row Index="5">
        3.2095915094553737e+04 -1.4330940898316485e+04 -9.1456836629518239e+03 -1.0519421869726813e+04 8.4538472096664748e+02 7.2482211461357540e+04 4.4805473258800919e+02 3.5527613056466130e+03 1.6208609014125213e+03 1.0687613514291475e+03 3.0064574073254830e+03 7.5663474291873481e+03 -1.1655830621483362e+03 5.4448937000745982e+03 -2.9006607266029014e+03 -1.0427708164800079e+04 3.5123896536466753e+04 -5.0659819976837149e+04 -2.2643927131772063e+04 -3.6737879210816091e+03 -1.5216389992229410e+03 -4.5195881104418186e+03 3.2795797788719328e+03 1.7200106032267086e+03 1.7906754653746502e+03 1.8120142047353938e+03 -7.1109766049577738e+03 -1.1885216447810894e+03 -6.4468151185924739e+02 -4.6994763228787106e+03 -2.7962920659473630e+03 -5.4010109408035430e+02 -3.5247224551327345e+03 -1.2650961653292046e+02 -1.0132567589224911e+03 -3.0133563745222336e+03 7.0636549487894272e+03 -6.4764809711505904e+02 1.3064626998364985e+04 -1.8369838017413608e+03 -1.2792614113398458e+03 2.7949553683144376e+02 2.4077095630463737e+02 -9.5010497136738195e+01 -3.0679663568662363e+01 -8.3017380240457896e+01 -5.4538819280876396e+00 8.4779734899832147e+02 1.8658881307696674e+01 1.6928344887683807e+01 1.2351271030073303e+02 4.5722437067303872e+01 1.2565541216138627e+01 1.6267191410576270e+03 -4.0661327201783661e+02 1.9211390561230360e+01 -1.1068555609813939e+02 -1.8280483036621147e+03 4.7064759152599527e+02 -5.9378912687621869e+02 -4.0003198353478547e+02 8.9812482108139375e+02 -5.7703829062536443e+00 -3.2108014047179022e+03 1.4680123087001539e+03 3.5412274962239371e+02 3.2197588093054947e+02 -5.3966500512805369e+03 9.7975935593900886e+02 7.3665398267508226e+03 -1.1038712978591661e+02 1.6926221990795410e+04 1.3283971983108240e+04 -9.3059654126926716e+01 6.8560586850100726e+03 2.5420586475668224e+03 -1.8722609847113000e+02 -5.6395818996867056e+03 -5.2744506885636838e+02 -1.6840391069658835e+02 1.2998683503889182e+04 -4.4948344516181623e+03 -7.0662487817375340e+03 4.7887054256639772e+01 5.6399024987373923e+02 3.0428963207561537e+02 1.6196022349089799e+02 2.0339687335838062e+02 -2.5205259752651546e+02 2.6409841507523124e+03 1.4128009684925951e+02 -6.4231361448564257e+01 4.3810081177718359e+02 4.3760210491715861e+02 -5.3214883694886794e+01 2.0345422206478454e+03 -2.5116733613621091e+02 -9.7305530340415316e+01 -3.8673266674065462e+02 -3.3445867424707803e+03 1.4528347914991841e+03 -1.4894638915514597e+03 -7.5085368201379470e+02 2.9699117998668153e+03 2.6722251664439682e+01 -9.6890164781000531e+03 -1.0647915686876258e+03 6.2371263339296547e+02 7.6809374572301977e+02 1.1452496634222780e+03 -8.5324604416363800e+03 1.5791235626005478e+03 -2.7775125391895335e+02 -3.2200395185410430e+03 2.9644777353278187e+03 -2.3317629534035859e+02 2.0700673689750110e+03 -1.9020048790104630e+02 -4.1139234984252175e+02 7.8492626283848886e+03 -3.1799952396806293e+02 -2.8310048383569401e+03 1.0305157773291894e+04 7.8997654122732001e+03 -6.0487886966675796e+03 1.1946195438958239e+02 -1.4058873482892377e+03 -1.2321451010720702e+03 -6.5567517614655299e+02 -7.5907371689523552e+02 -5.5972632481779988e+02 -2.6423638887039378e+03 -9.2003492954761811e+01 2.4990295101016636e+02 7.2927766928790879e+02 -2.3326810010458576e+02 2.0943101436169945e+02 -1.1228905430056111e+03 1.2552943775959943e+02 3.8159983886166469e+02 1.7823461059888732e+03 1.8096292437435131e+03 -1.1677831302033537e+03 2.2466149631921030e+03 -1.8780043437163040e+03 -2.0517813384225556e+03 -1.0576669471970393e+02 2.0671641753439044e+03 7.0333616969786362e+02 2.4322690089358366e+02 4.6600001573856389e+01 2.1856012708728156e+02 3.5644674446200379e+03 -2.1125579118396422e+02 -6.6278503370431508e+01 1.3840059330295435e+02 -3.5582287731950191e+02 -5.9791338627915138e+01 6.7746330435720665e+02 -1.4528133945045604e+02 -1.3203446891941900e+02 -3.4703710866043366e+02 -1.4951512255485377e+03 9.4656081892747079e+02 -4.9701947249569412e+03 3.1582057402961800e+02 1.8020297960147009e+03 3.6375371734644432e+01 2.1688220689683985e+03 3.1077814318290802e+02 -4.3036733002023539e+01 -3.1570476760212159e+01 -3.0719615398499468e+02 9.0296155112591259e+02 6.8586694909541706e+01 2.0198172082802557e+01 4.3869142256732266e+02 2.5638835843659217e+02 1.8134575520338331e+01 9.4193963311168045e+02 -1.0428520922668474e+02 3.1309485309016736e+01 -1.6927746419249311e+03 -1.6869980242238926e+03 7.8332347432601296e+02 2.3839806119445916e+02 -1.8805854257410001e+03 1.6361352901079954e+03 -9.8583086510188878e+00 1.9306420058559743e+03 4.2378645178071019e+02 -4.7446289220036851e+02 -7.1102573018609291e+02 1.5825307506654366e+02 -3.3556955669840554e+03 -6.3449441275967808e+02 2.1292501650455529e+02 -4.8860009691119819e+02 -1.1601661925005092e+03 1.7886659479258856e+02 -2.3880298701092288e+03 2.6355613546426002e+02 3.0384544060890403e+02 -3.7073394858548877e+03 2.4752454425356709e+03 -1.5863201230055051e+03 2.5341886039172077e+03 -5.4119761650871314e+03 2.7944861456643266e+03 -8.7507958913479911e+01 -1.0002499320401712e+03 -2.9052426812459089e+02 -6.1003353052656166e+01 -1.3426260194847418e+02 -1.4399674573618722e+02 -1.0776164597368677e+03 -1.2660215860781364e+02 2.7244861125742318e+01 2.3815458092625840e+02 -1.7350799789530697e+02 2.1794440436494128e+01 -2.0552018296811580e+03 5.0357188045643124e+02 3.2606570945740117e+01 5.0870673012500185e+02 1.7749113093001506e+03 -6.6778879533287318e+02 2.9789979636760836e+02 -5.4376152825257486e+02 3.2446073240834357e+02 -9.3260282843839377e+00 5.1181715548003267e+03 -1.2111577240849583e+03 -1.0552391821794608e+03 -1.1266083790095936e+03 -1.2228930000080629e+03 -6.7799684123633906e+03 7.8254405133494238e+03 4.1434066179511092e+02 5.7688474157406799e+03 1.1246321911751906e+04 3.4894265379283843e+02 -1.7072895159692580e+03 4.6720641996526765e+03 6.4111826548528006e+02 -2.5582683470081392e+03 9.6929970276250287e+02 -4.7827770043258715e+03 2.3774048958939238e+03 -2.4858301858712111e+03 8.9419754118820783e+03 -1.8007622581192334e+02 -4.0584462943247345e+03 -4.5523684148714301e+02 7.9573843010846758e+01 1.8936217644709177e+02 4.1015832774793353e+02 -1.0645527454865616e+04 2.6918773881310221e+02 -5.0101314558163267e+01 -1.4829003640521928e+03 3.8055638133286993e+02 -4.0671479943679515e+01 -7.0588697933725177e+02 1.2140737174872413e+02 -6.1529744383997240e+01 1.6746389756688550e+03 1.7047994211451951e+03 -5.1888608166295817e+03 7.8942841102378206e+03 1.1628557111978444e+03 -1.7845817792053203e+03 1.8407624493527692e+01 -8.4455192746258690e+03 3.7885305978926044e+02 1.2033631259598769e+03 1.6749078075636353e+03 2.5418754245128503e+02 -6.9318430138193144e+03 -2.1704248269265605e+01 -5.1654905413651795e+02 -1.1327499376344522e+03 -2.0364077734258763e+02 -4.3125460560442502e+02 -2.2159784001627158e+03 1.7469591026779108e+02 -7.4900841332992741e+02 3.9492269499545964e+03 4.6211212041502913e+03 -2.9059731673009601e+03 6.5097676018498823e+03 6.3292959391037348e+03 -3.9105374099229375e+03 2.1199248019803053e+02 2.8702455819659081e+03 -3.1617109699738648e+02 -4.1930490750148601e+02 -4.2353318622063671e+02 -8.3410472074160975e+02 -7.7079128266809107e+01 -9.7488483704765940e+01 1.6366084401448859e+02 1.7995562133402163e+03 -3.1916491631232111e+02 1.3724677063365425e+02 1.6939184300038978e+03 -3.6395176126991737e+02 2.5856310128103269e+02 -1.3192543680251629e+03 -1.9770103104345535e+03 -9.3619641378934693e+02 -2.4035942795318115e+03 -3.9248069148521404e+02 -4.7795679421244859e+02 -7.2187329686625162e+01 1.5721297575259459e+03 1.4662754574010530e+03 6.2215990967699145e+02 5.2141554125818948e+02 1.3389124105371366e+01 -1.5876439642102916e+03 4.6588265854031192e+01 -2.1736464615236173e+02 -1.1889530767654287e+02 1.9924253685676240e+02 -1.8300291670205718e+02 8.2998436686208788e+02 -9.5822024756546398e+00 -3.5982992832249136e+02 -1.1665630493152150e+03 -2.0404750754470106e+03 -8.6122130833737037e+02 8.2695746351833509e+02 -1.9349740832370121e+03 3.1628759167516632e+03 9.8852013958327007e+01 3.2862945921555875e+03 -4.3133153581785609e+02 -4.7474799519794942e+01 -5.6138494280065061e+01 -4.0627186595744970e+03 5.5968220008259832e+03 -8.1899582784869381e+01 5.1956745529571435e+00 1.1225086059318888e+04 -4.4196417107003163e+03 4.5106003648108270e+00 9.3737884762083752e+02 -3.8333092574330476e+02 1.3510626544442033e+01 3.0577997591889061e+03 -3.0915397193466933e+03 2.9221185536304051e+03 -1.1001133171335210e+04 8.5364808890801783e+02 8.0852367786718105e+02 -1.8284476837573465e+00 1.5227417729738584e+03 -9.9742115282570012e+00 -8.0107473363609444e+01 4.1129144277512260e+01 -7.3683267717973176e+03 6.4338819910105940e+03 2.7146320666180854e+03 -3.4741592851475311e+01 -9.3917163070263468e+03 -4.5238142780553499e+03 -3.3068449499169475e+01 6.0360172194272436e+03 5.5219709265808251e+03 5.8443599985302960e+01 -7.7478767221665066e+01 6.5802521968028350e+03 -5.1312452084373426e+03 1.0401995891914648e+04 -3.6664149238372602e+02 3.0395420893824526e+03 -1.9771091370662294e+01 -4.6979224471314531e+01 
      </Row>
      <Row Index="6">
        2.3645535077066370e+01 5.4927358169580612e+02 4.0316195479047411e+02 3.9823171046805567e+02 -1.8314570516771127e+00 4.4805473243016269e+02 3.4291997096351793e+02 -1.5007454450846035e+02 -2.6441939888817672e+00 7.8258710255605024e+02 -1.2701724374637466e+02 1.7340797577189874e+03 -1.3985601933368275e+02 -2.3855596911410183e+02 -2.6761416098704387e+02 -3.0237716302110412e+03 2.5870494293786504e+02 -2.1642447704076059e+02 5.6297489894433352e+02 2.3857210009298660e+03 6.6079385712284108e+01 -2.4342747400642003e+02 -8.2320143999824538e+01 -4.2321313347615700e+01 -3.9906351734108028e+01 2.1369301293862364e-01 2.9016183696626427e+02 -6.3231731998994093e+01 1.4977368432468182e+01 -6.6665148354385622e+00 -1.0556813637287212e+02 1.2806652718677636e+01 -1.6209989529268404e+02 -5.7094570796467607e+00 2.4368016060148786e+01 2.1012042230155919e+02 6.3065343697469086e+02 8.5980850770303860e+01 -3.4839242374482649e+02 1.3035464320700157e+02 -2.8283897311408884e+02 -6.6163337229973376e+00 2.0610110870276526e+02 3.0244432430546965e+01 -2.7479561904893899e+00 9.7191943218130916e-01 1.3205587347415822e+01 1.9628831741386750e+02 -7.5373961742673004e+00 1.1788169102632420e+00 -1.2636997764069344e+01 -9.7445008031713769e+00 1.0591527306017916e+00 1.0184149733794095e+02 -3.0137596486218985e+01 2.1206412449606229e+00 -1.5970395714344963e+02 -1.2279079523297277e+02 1.1141805430113202e+02 -9.9933493107799308e+01 -1.4934759579102374e+02 1.3174362025987239e+02 -6.8166365654940342e-01 -2.5887576769354337e+02 -1.8737594066283236e-01 1.8871811412529070e+01 1.7405903079099716e+01 -3.9147811951177425e+02 2.6147242366745013e+02 -1.8787422894706455e+02 -7.3584840284320094e+00 8.6596341923232694e+02 1.1188650585642085e+03 -6.2947278374595328e+00 -1.2295377525321271e+03 1.4052012496232044e+02 -1.1739827683296568e+01 6.8539469396571803e+01 2.7737749046817828e+02 2.9912990279011569e+02 3.0572185565162101e+02 4.7546664076704985e+01 -2.2306196097277075e+02 3.2813407108338737e+00 8.6007043677577485e+01 9.5174929472413396e+01 3.4996102785808205e+01 4.0103922967157501e+01 -7.7155407216071126e-01 4.7107334940470651e+01 -3.7463363696600709e+00 -1.3023961691365010e+01 1.9280192196154218e+00 8.1199293944507644e-02 -1.0942597215042241e+01 4.7320696619163527e+01 -2.0218962088230938e+00 -2.0093720734503009e+01 -1.3467432490213452e+02 -1.1701968528626247e+02 3.2692666038364337e+01 -1.3206640266499264e+01 -3.0283528369790368e+01 1.9899313164804619e+02 5.5337562016811717e+00 2.4656313993954279e+02 -2.3205800348794696e+01 -2.9071718003188408e+01 -2.4037783921189259e+01 4.3572617109954635e+01 -1.0642702333207481e+02 -4.0495046081811267e+01 1.0631965754424954e+01 -7.4792576202411396e+01 -1.1779710947370154e+02 9.1210858168904707e+00 9.0725537687680344e+01 3.6285206861271995e+01 1.7609205855389572e+01 -2.3945267967117559e+01 -2.6164446090819780e+01 -9.2447953417524232e+01 -1.0907616805585906e+02 9.3992446699305106e+01 -2.2435394179882223e+02 -4.8427742814565136e+00 -8.8382754385584477e+01 -8.3375260579764472e+00 9.1783329664850726e+00 7.8012979567309415e-01 -5.9150446823742548e+00 -9.7250615988713093e+01 7.7511150295479645e+00 -2.9242999383669712e+00 8.0756151660727653e+00 1.0130857838438033e+01 -2.6225129855393448e+00 -9.3568984446115564e+01 2.7616917926595210e+01 -5.7160270780719884e+00 8.4191612382620889e+01 8.4662048039890522e+01 -5.5081664786653164e+01 5.2096696652448827e+01 -3.2138635357880503e+00 -2.5650875122860668e+01 1.5905666864135277e+00 3.0156199801939351e+01 1.1405511495624114e+02 6.0558889364494462e+01 5.2862401783470162e+01 1.7342449335367125e+01 3.5804753962646290e+00 3.2712092052724671e+01 -2.1286997129998792e+01 -2.4347038158060371e+01 8.3186708605780069e+01 -1.8183444005328170e+01 2.9076101368143611e+02 -4.0179575791710946e+01 -3.5278122116472247e+01 -2.3135781042335282e+02 -5.6465817740784303e+02 5.3137608012306714e-02 1.3527070300045068e+01 -2.7650637654296929e+02 7.5579737065301504e+02 9.5575808850319390e+00 1.5756616881451737e+02 2.8045915687883394e+00 -1.8401780811009303e+00 -3.6133270000873381e+00 1.8226970986353788e+00 2.4007502140937461e+02 2.7548539988613147e+01 1.0470127813061652e+00 3.5890791502364721e+00 5.5959801179510663e+01 8.3184618504065355e-01 1.8634242687736946e+02 -2.3329942166350971e+01 1.3597862652930459e+00 -4.9342064660879828e+01 -2.6098134106305298e+02 1.2498780841105533e+02 -1.4629283133792882e+02 -4.6298475248207410e+01 1.1358768622597540e+02 -4.1170154697101680e-01 -1.3705831807558866e+01 -1.1489520868730952e+02 -6.3792769009830522e+01 -5.8931261645007453e+01 5.5926470737763658e+00 -7.4347689044341053e+01 1.8172297281395373e+00 2.2963972253126627e+01 -1.2402328685247987e+01 1.3671602642404039e+00 1.9549618247502899e+01 -2.4216429944999638e+02 1.5792577665550624e+01 3.7229724213066191e+01 2.1697621365431377e+02 4.6322198423802132e+02 -5.2325895658462414e+01 9.0910507303925954e+00 1.0855997982403619e+02 -5.3553179319346305e+02 -1.0165912152893412e+01 -4.0392230345015378e+01 -7.6806529888312525e+01 -4.0037177499532959e+01 -4.1354798689282916e+01 -1.5956515057134368e+01 -1.6528425987905871e+02 8.3592772968546285e+00 1.4865896008408868e+01 2.2608493386996997e+01 9.2841275458697510e+00 1.2549025189608336e+01 1.8782203097776051e+02 -5.5669795639937774e+01 2.3393880956656972e+01 5.7358753998672000e+01 -1.4111727247239924e+02 -7.9087488737153137e+01 1.1924269150928785e+02 -1.2098836866627607e+01 -9.7913084906185077e+01 -6.4874836671224330e+00 5.6930477482066885e+02 -9.4752595728530196e+01 -6.2177807460034387e+01 -6.2398953342581081e+01 1.0088164786739591e+02 -3.4995669787685972e+02 1.5698823171889825e+02 2.3242522797153327e+01 4.2370207514865854e+01 -4.2131112030634944e+02 1.9679517525569963e+01 1.4860823780910564e+03 -3.8363755870258200e+02 3.6866905759860742e+01 8.2866647386277918e+01 -2.1628443655214221e+02 -4.0486119608931614e+02 -2.6040407389865891e+02 4.2297935307447432e+01 6.4068840442852252e+02 -1.0165011603421389e+01 -8.9706941571773314e+01 1.2831046055519903e+02 8.3947751087394067e+01 8.9614180128468206e+01 1.0271362593129993e+01 -9.3071094429091659e+01 -3.2295207982534109e+01 -3.1845891392292174e+01 -3.1035386448776222e+01 -7.2044459347459366e+01 -2.6675837966655337e+01 5.4390006716969310e+00 -1.0443070949895152e+01 -4.9483754177056710e+01 -4.4937952297811933e+01 6.3463603572543548e+01 -7.4079123952269029e+01 -2.3705688056865284e+01 2.9429212205303890e+02 2.3804246624998598e+01 1.3785117218147207e+01 3.0148487302618200e+01 -5.1432038193664425e+01 -1.1581344493390134e+01 -9.2446306869710497e+00 9.1526915632550754e-01 -1.6521604585578260e+02 -2.1616210348195892e+00 3.6474901606709409e+00 -8.5026386788937920e+00 -3.1193123581905624e+01 3.0692224698116135e+00 -6.0271097819422494e+01 2.4900728976988894e+01 6.6149576553841314e+00 1.1940039949169055e+02 1.7764425588230651e+02 -1.1551748393552664e+02 7.8369336254785580e+00 3.3279241243580367e+02 -4.6875815411587280e+02 -1.6851722192186571e+00 -6.1996526714139691e+01 4.8460371515087104e+01 4.0788621273360661e+01 4.1728576531807903e+01 1.6109007635292656e+01 -4.7214782488111041e+01 2.4635813114114953e+01 -1.5434813436330273e+01 -2.3152681338450272e+01 4.9007424414308275e+01 -1.3093937220130393e+01 1.8392443000386470e+02 -4.8449276861380817e+01 -2.4351747281129590e+01 -2.8102296154310316e+01 -2.4807524247055542e+02 -2.4881012892195386e+01 5.3971640568174053e+01 -6.6630426482013263e+00 1.9546843680870461e+02 6.7341450769545190e+00 -3.7124432287951095e+00 -1.9344152079204633e+01 -3.1524564017458033e+01 -3.1012495803016463e+01 1.2079265114785221e+01 -1.3048799609460369e+02 -2.6538987067665879e+01 1.1830242410842629e+01 -2.1598439082586566e+01 -5.0807561513436553e+01 1.0112065112504382e+01 -2.3719086279701799e+02 2.3227804361515943e+01 1.8879134308398800e+01 3.4849252516105537e+01 3.7561435245204859e+02 -7.1830022211209695e+01 7.1832584577731396e+01 -5.4857733869294208e+01 -2.3064981005506260e+02 -5.2063077989623707e+00 1.6413636622124568e+02 -1.3627820791959826e+02 -6.2037488871890190e+01 -6.2078101531171626e+01 -1.3847221610939894e+02 3.6622425207069438e+02 7.0955099220406851e+01 2.2305843134869139e+01 4.7159120223714820e+02 -1.7707421083636546e+03 1.8795788223598205e+01 -2.1944878359157281e+02 3.4258188751014404e+02 3.5733401816056670e+01 2.8177699991858412e+02 -1.9330297489883596e+03 2.1181127020096767e+02 -3.0183665293635545e+02 1.4256963901724464e+02 -1.7708692698660911e+02 -9.7266647804316566e+00 5.5223504387955813e+01 2.2096522933541564e+01 7.7596462420293939e+00 1.3733835343597001e+01 -2.7501286112037423e+02 -1.7228518534002851e+02 5.2344555746849721e+02 -6.0867556214611778e+00 -3.7023516019237684e+02 -2.4420532691390940e+03 -4.2652614652577210e+00 3.7807003894855609e+02 7.6517070577642448e+02 -3.9207078855171171e+00 -2.0068488994293528e+01 2.2837996600493707e+02 1.6792060256173562e+02 -1.7503610575917733e+02 -1.6880243595709576e+01 1.8349195095947087e+02 2.3128725265695822e+00 -2.7338722858447818e+02 
      </Row>
      <Row Index="7">
        -2.3810099077958897e+04 1.8758659668808956e+04 8.1715425133141980e+03 8.4748856150561624e+03 -1.5267347510398758e+02 3.5527613065547189e+03 -1.5007454448293174e+02 9.9700786007442442e+05 6.4867662661364011e+02 -6.2590480041150226e+02 -2.5149997730618052e+03 -1.7342343340029463e+03 1.6769190274879887e+02 -4.7369185097965601e+03 -3.0658115236063368e+04 3.6327742631658220e+03 1.7270726911453130e+03 -2.1935211815389885e+03 -2.1397134425214146e+04 -6.6740721334538716e+02 1.2956120748508431e+03 -2.3263512173823528e+00 1.8540832680569292e+02 8.4800697804035735e+01 8.3373156499670586e+01 -1.1127594235515517e+01 -7.8478962323268220e+01 -1.8876938665423040e+01 -3.0813350431053550e+01 1.5429004113015537e+01 -4.5303160452633620e+01 -2.6066262480217119e+01 -6.3038141016822954e+02 1.3015795946128890e+02 -4.9372566633759561e+01 -2.9332199228866284e+02 4.4356889353755059e+02 8.5442356754831508e+01 3.4548005850010077e+02 -3.0067511729553325e+02 4.1153433012673457e+02 1.3491478192117938e+01 -1.6792136301047867e+02 -1.8201557343016248e+01 9.5432840171852149e+00 -1.0770608821185306e+00 -1.2572255924940691e+01 1.6552136510489436e+02 1.5591272496836609e+01 -3.0696704070833221e+00 2.3428506614996877e+01 4.7382252606825205e+01 -2.8211551077238255e+00 -9.7653702245570457e+01 4.0422607852502551e+01 -6.1897261920667006e+00 1.5443836945459043e+02 1.6732699123092971e+01 9.9068107982830952e+01 -8.5793759750260961e+01 2.4757003998325672e+01 1.1301495930719102e+02 1.7591929088484903e+00 -1.1611618715703371e+03 -6.5458395512609059e+01 2.6848964337754296e+01 2.8912877547089010e+01 8.6773589522205967e+01 2.4774572792696245e+02 -1.8718742792587364e+02 -1.2203705619365792e+01 -5.1650493909447414e+02 -7.5619894000504542e+02 -1.0435751078210160e+01 8.5551534341802426e+02 -1.8180079048163577e+02 -1.8294725620144163e+01 4.9086810495578538e+02 -4.4761624215579036e+02 3.5963388778016815e+02 3.9773654059546971e+01 4.0037100489020850e+02 -2.2691601699329121e+03 5.4072237927848619e+00 -1.1548419559445028e+02 -4.5928020746592665e+01 -2.0760942158050511e+01 -2.1140115081449267e+01 2.6504320289524912e+01 -9.4831483668486499e+01 -1.9446412127796066e+01 7.5725287806159258e+00 -4.6801773238114038e+01 -4.0632663605681955e+01 6.3880587227967354e+00 -7.9202606215407855e+01 3.8903921533019457e+00 1.2005785386363641e+01 4.8499802248421474e+01 1.4614310226482618e+02 -6.6162893651871855e+01 1.8472185734739469e+01 4.0981326312428791e+01 -7.7217194181350351e+01 -3.3186586946249008e+00 2.6442855857912946e+02 -1.8157580446175416e+01 -2.3424655391398119e+01 -3.1285927010467276e+01 4.5014932848720491e+01 -1.5562088020222836e+02 1.0046571878241957e+02 1.0202209140370314e+01 -7.9573277732983115e+01 1.4849747665691393e+02 8.5107477400397329e+00 4.9425224346564573e+02 -4.3585662721150584e+01 1.4688412414560389e+01 -2.6897016546599116e+02 -8.5181776578895870e+02 -5.8601083251372742e+01 2.2146856737143389e+02 -3.1582495531200402e+02 5.3311034074312192e+02 -4.3340448450762779e+00 1.0160901428864963e+02 6.1877294346604685e+01 2.1129783694264916e+01 3.1386342565307132e+01 1.8018689590302529e+01 8.0620801312668789e+01 -2.2310830619046101e+01 -8.5567902748261986e+00 -2.2177848431480015e+01 -4.8654497893705411e+01 -7.0556608266531384e+00 -5.0649917605551309e+00 -1.5986019632615353e+01 -1.2327715655641441e+01 -7.9171847006693497e+01 7.2391252168335996e+01 3.6969103008166712e+01 -5.7896493242555152e+01 2.5867073983572482e+01 -6.6455652406679292e+01 3.4146705798749508e+00 1.2982605256160434e+02 2.5723141565934839e+02 1.4699138954274895e+02 1.7029879129198798e+02 -1.2757530063859804e+01 2.6843042172949390e+02 -4.1672920275987053e+00 -5.6751196378180111e+01 2.2490275672238752e+01 2.8336282763753616e+01 -4.7513421518106043e+01 -1.6432254406888458e+02 3.2861560843468169e+01 -8.6589945759247712e+01 -1.1210788489622801e+02 1.8943700631962270e+02 1.4377666461119907e+02 -1.8913339376761064e+02 4.8587610599172422e+02 -5.9611225623142985e+01 2.4175542589160614e+01 1.2084627309551524e+02 -1.5834880732412512e+02 -9.7472652916963852e+01 -1.0349562161101585e+02 1.0340691461151437e+01 -2.8221756508992257e+01 -4.3585348611395602e+00 3.6951291498527098e+01 -1.5651478915543748e+01 -2.1406767504571690e+01 3.1133351202071026e+01 -1.8275593582927831e+02 2.6698717026683880e+01 5.7849085290798030e+01 7.4381452065882058e+01 3.1902386803581362e+02 -2.4239687583354680e+01 6.6737273601711422e-01 1.7887634443553907e+01 -4.9382967160874978e+02 -1.6023451859364286e+01 -9.3961663293888000e+02 2.2653701339201234e+02 1.9381546433107087e+02 1.8321974561428397e+02 1.8344859769928917e+01 -9.7902938883593492e+01 -2.1955735961924347e+01 -7.2776415051790309e+01 -3.3149952732831593e+01 -2.6666197417966487e+01 -6.1686690559586452e+01 1.5047962302169208e+02 -2.6393749149269979e+01 -1.1649024034426702e+02 1.9514328218414175e+02 -3.4371202176864927e+02 -4.7571617771693127e+01 6.0620483792072946e+01 1.5887141102396345e+02 9.8355981092051752e+02 3.2349771384231246e+01 -1.8281942115092534e+01 2.2754644297507184e+01 1.6066115090336098e+01 1.6291602784192946e+01 -1.1735350330142296e+01 -5.0923549349395216e+01 4.0042235860014443e+00 -6.0993815578949580e+00 1.8510343846908654e+01 2.8470094115244137e+01 -5.1991567459431280e+00 -2.2846746244833776e+02 7.2649356053894735e+01 -9.6161366293317769e+00 1.2630277890471916e+01 1.6320218329612794e+02 -1.7446609333127526e+01 3.3771263502998409e+01 4.1518926763747004e+01 2.8713600110375410e+01 2.6824090136215091e+00 3.1416061139674275e+02 4.2383227413090492e+02 1.8297322098660788e+02 2.0036504891412642e+02 1.2276996976267901e+02 7.4037499194555903e+02 -1.4062532407585786e+02 -6.8470939939364371e+01 -7.6302697889558658e+02 -9.3197286873159567e+02 -5.7438756115563820e+01 -1.8719903557759483e+03 8.8146364223093610e+02 -1.0679923623797268e+02 -5.1307835888264913e+02 -3.0873249755525467e+02 3.2951271313665382e+02 -1.0452547793848616e+03 -3.5949410301331909e+02 1.3940636334066201e+03 2.9394177279535626e+01 5.8211029530508404e+02 -1.9427960505742089e+02 -1.8407463640119477e+02 -1.8063659357907090e+02 -4.3006303207247583e+01 -1.3419860247861823e+02 7.7410816784649796e+00 6.9669976351406888e+01 8.3054353104636334e+01 -4.2120690768091890e+01 5.8860170118259305e+01 5.4873197104476276e+01 -2.7757357743104990e+01 1.1038806548128684e+02 -1.9518041740819041e+02 1.1555004651191393e+02 -5.8615253869475964e+01 1.7958647031838700e+02 -4.2445977765892212e+02 -6.7162667614194606e+02 -3.0764289258280769e+01 1.9354223746259470e+02 -9.6669158670144952e+01 -6.2947282211856873e+01 -6.6414306149247750e+01 -4.4793513922950297e+00 -8.2781380442473733e+01 1.6873610680546335e+01 2.4388189926564053e+01 4.3529431068618578e+00 1.0677775169519578e+01 2.0501986521265110e+01 2.0049031067553858e+02 -2.1089279435949720e+01 3.7651026427517536e+01 -2.9840409777355990e+02 -3.5760353179987851e+02 -3.6314887823056779e+01 1.0901122418966565e+02 -3.7217259512613009e+02 3.3613250438051796e+02 -1.0756622108223382e+01 -6.8814945353258281e+01 -2.7611756948910420e+02 -1.5186405316084040e+02 -1.5677531212720010e+02 -2.5074519516949294e+01 -1.0224316472260919e+02 -3.3600224101448475e+01 5.6364492992355423e+01 4.1369631553037834e+01 -7.1726724444015417e+01 4.7478330256674269e+01 -4.6271407912084396e+02 6.0040983016482642e+01 8.9103902803442793e+01 3.4946101095024960e+02 8.1099976407556892e+02 -6.4584067853162196e+01 2.5389417411748582e+01 5.8900028706538592e+01 -9.6933451379308019e+02 -2.4518542447185609e+01 -6.1639412562775419e+02 7.4984743056594567e+01 1.1213333036050221e+02 9.4207626067915271e+01 1.0000984614251252e-01 9.0620104258696301e+00 3.0911277517346662e+01 -4.1376370930677481e+01 -1.0252814919964635e+01 8.8458553314661117e+01 -3.5153270964054428e+01 2.3256999469264667e+02 -1.1750930687447180e+01 -6.7731569959950932e+01 2.0396966118973037e+02 -4.9138034163446264e+02 1.2750348251525182e+01 -4.6187899434807651e+00 1.3648619582076032e+02 7.6877555541648542e+02 1.8803487547207624e+01 -1.9669797250831698e+02 2.3578087098112667e+02 1.0723545622781128e+02 1.1048666570986288e+02 2.4708486229943901e+02 6.8403947839997386e+01 -9.4690174476945046e+01 -3.9822150804566917e+01 -9.6384778323262935e+02 1.9162261401620952e+02 -3.3473639573562394e+01 -1.4461056185183004e+03 -1.8304086301236663e+02 -6.2822309330666300e+01 -2.7914469062548829e+02 3.5537333634279134e+03 -9.8686368005588662e+01 -1.3083476553134005e+01 -3.0145130279076079e+02 7.3502025073587504e+02 1.7264779114723673e+01 -2.9471393086967896e+02 1.9952911877923179e+02 9.0460019131497347e+01 7.2102773453104859e+01 5.9204104512972560e+02 5.6181864638737466e+01 8.7351419816925045e+02 -2.3702703008958441e+01 7.6324062855304703e+02 -1.1180320875686814e+03 -1.8866879544533980e+01 2.1227788203112300e+02 3.6899502014901877e+01 -5.4789056445429452e+01 -3.5006267267824529e+02 4.1572339189563974e+02 -4.5233807497280246e+01 6.0716399802653754e+01 -2.5982243465279271e+02 1.8406530058973907e+01 1.2916710656213493e+01 4.8546313761207210e+02 
      </Row>
      <Row Index="8">
