<?xml version="1.0"?>
<MethodSetup Method="BDT::BDTD">
  <GeneralInfo>
    <Info name="TMVA Release" value="4.2.1 [262657]"/>
    <Info name="ROOT Release" value="6.14/08 [396808]"/>
    <Info name="Creator" value="bo791269"/>
    <Info name="Date" value="Tue Mar 12 21:35:14 2019"/>
    <Info name="Host" value="Linux lxplus001.cern.ch 3.10.0-862.14.4.el7.x86_64 #1 SMP Wed Sep 26 15:12:11 UTC 2018 x86_64 x86_64 x86_64 GNU/Linux"/>
    <Info name="Dir" value="/rwthfs/rz/cluster/home/bo791269/TMVA/12.03.2019"/>
    <Info name="Training events" value="20304"/>
    <Info name="TrainingTime" value="1.89661980e-01"/>
    <Info name="AnalysisType" value="Classification"/>
  </GeneralInfo>
  <Options>
    <Option name="V" modified="Yes">False</Option>
    <Option name="VerbosityLevel" modified="No">Default</Option>
    <Option name="VarTransform" modified="Yes">Decorrelate</Option>
    <Option name="H" modified="Yes">False</Option>
    <Option name="CreateMVAPdfs" modified="No">False</Option>
    <Option name="IgnoreNegWeightsInTraining" modified="No">False</Option>
    <Option name="NTrees" modified="Yes">400</Option>
    <Option name="MaxDepth" modified="Yes">3</Option>
    <Option name="MinNodeSize" modified="Yes">5%</Option>
    <Option name="nCuts" modified="Yes">20</Option>
    <Option name="BoostType" modified="Yes">AdaBoost</Option>
    <Option name="AdaBoostR2Loss" modified="No">quadratic</Option>
    <Option name="UseBaggedBoost" modified="No">False</Option>
    <Option name="Shrinkage" modified="No">1.000000e+00</Option>
    <Option name="AdaBoostBeta" modified="No">5.000000e-01</Option>
    <Option name="UseRandomisedTrees" modified="No">False</Option>
    <Option name="UseNvars" modified="No">4</Option>
    <Option name="UsePoissonNvars" modified="No">True</Option>
    <Option name="BaggedSampleFraction" modified="No">6.000000e-01</Option>
    <Option name="UseYesNoLeaf" modified="No">True</Option>
    <Option name="NegWeightTreatment" modified="No">inverseboostnegweights</Option>
    <Option name="Css" modified="No">1.000000e+00</Option>
    <Option name="Cts_sb" modified="No">1.000000e+00</Option>
    <Option name="Ctb_ss" modified="No">1.000000e+00</Option>
    <Option name="Cbb" modified="No">1.000000e+00</Option>
    <Option name="NodePurityLimit" modified="No">5.000000e-01</Option>
    <Option name="SeparationType" modified="Yes">giniindex</Option>
    <Option name="RegressionLossFunctionBDTG" modified="No">huber</Option>
    <Option name="HuberQuantile" modified="No">7.000000e-01</Option>
    <Option name="DoBoostMonitor" modified="No">False</Option>
    <Option name="UseFisherCuts" modified="No">False</Option>
    <Option name="MinLinCorrForFisher" modified="No">8.000000e-01</Option>
    <Option name="UseExclusiveVars" modified="No">False</Option>
    <Option name="DoPreselection" modified="No">False</Option>
    <Option name="SigToBkgFraction" modified="No">1.000000e+00</Option>
    <Option name="PruneMethod" modified="No">nopruning</Option>
    <Option name="PruneStrength" modified="No">0.000000e+00</Option>
    <Option name="PruningValFraction" modified="No">5.000000e-01</Option>
    <Option name="SkipNormalization" modified="No">False</Option>
    <Option name="nEventsMin" modified="No">0</Option>
    <Option name="UseBaggedGrad" modified="No">False</Option>
    <Option name="GradBaggingFraction" modified="No">6.000000e-01</Option>
    <Option name="UseNTrainEvents" modified="No">0</Option>
    <Option name="NNodesMax" modified="No">0</Option>
  </Options>
  <Variables NVar="16">
    <Variable VarIndex="0" Expression="a1" Label="a1" Title="a1" Unit="" Internal="a1" Type="F" Min="-3.68934881e+19" Max="3.68934881e+19"/>
    <Variable VarIndex="1" Expression="a2" Label="a2" Title="a2" Unit="" Internal="a2" Type="F" Min="1.65215945e+00" Max="1.91371751e+00"/>
    <Variable VarIndex="2" Expression="a3" Label="a3" Title="a3" Unit="" Internal="a3" Type="F" Min="-3.68934881e+19" Max="3.68934881e+19"/>
    <Variable VarIndex="3" Expression="a4" Label="a4" Title="a4" Unit="" Internal="a4" Type="F" Min="-2.72248077e+00" Max="2.22087693e+00"/>
    <Variable VarIndex="4" Expression="a5" Label="a5" Title="a5" Unit="" Internal="a5" Type="F" Min="-3.68934881e+19" Max="3.68934881e+19"/>
    <Variable VarIndex="5" Expression="a6" Label="a6" Title="a6" Unit="" Internal="a6" Type="F" Min="-4.69478512e+00" Max="4.92631340e+00"/>
    <Variable VarIndex="6" Expression="a7" Label="a7" Title="a7" Unit="" Internal="a7" Type="F" Min="-3.68934881e+19" Max="3.68934881e+19"/>
    <Variable VarIndex="7" Expression="a8" Label="a8" Title="a8" Unit="" Internal="a8" Type="F" Min="-1.87496316e+00" Max="1.73675537e+00"/>
    <Variable VarIndex="8" Expression="a9" Label="a9" Title="a9" Unit="" Internal="a9" Type="F" Min="-3.68934881e+19" Max="3.68934881e+19"/>
    <Variable VarIndex="9" Expression="a10" Label="a10" Title="a10" Unit="" Internal="a10" Type="F" Min="-2.29549670e+00" Max="2.13668108e+00"/>
    <Variable VarIndex="10" Expression="a11" Label="a11" Title="a11" Unit="" Internal="a11" Type="F" Min="-3.68934881e+19" Max="3.68934881e+19"/>
    <Variable VarIndex="11" Expression="a12" Label="a12" Title="a12" Unit="" Internal="a12" Type="F" Min="-2.01901650e+00" Max="2.02343869e+00"/>
    <Variable VarIndex="12" Expression="a13" Label="a13" Title="a13" Unit="" Internal="a13" Type="F" Min="-3.68934881e+19" Max="3.68934881e+19"/>
    <Variable VarIndex="13" Expression="a14" Label="a14" Title="a14" Unit="" Internal="a14" Type="F" Min="-3.05427694e+00" Max="3.04666376e+00"/>
    <Variable VarIndex="14" Expression="a15" Label="a15" Title="a15" Unit="" Internal="a15" Type="F" Min="-3.68934881e+19" Max="3.68934881e+19"/>
    <Variable VarIndex="15" Expression="a16" Label="a16" Title="a16" Unit="" Internal="a16" Type="F" Min="-2.15273094e+00" Max="1.92299926e+00"/>
  </Variables>
  <Spectators NSpec="0"/>
  <Classes NClass="2">
    <Class Name="Signal" Index="0"/>
    <Class Name="Background" Index="1"/>
  </Classes>
  <Transformations NTransformations="1">
    <Transform Name="Decorrelation">
      <Selection>
        <Input NInputs="16">
          <Input Type="Variable" Label="a1" Expression="a1"/>
          <Input Type="Variable" Label="a2" Expression="a2"/>
          <Input Type="Variable" Label="a3" Expression="a3"/>
          <Input Type="Variable" Label="a4" Expression="a4"/>
          <Input Type="Variable" Label="a5" Expression="a5"/>
          <Input Type="Variable" Label="a6" Expression="a6"/>
          <Input Type="Variable" Label="a7" Expression="a7"/>
          <Input Type="Variable" Label="a8" Expression="a8"/>
          <Input Type="Variable" Label="a9" Expression="a9"/>
          <Input Type="Variable" Label="a10" Expression="a10"/>
          <Input Type="Variable" Label="a11" Expression="a11"/>
          <Input Type="Variable" Label="a12" Expression="a12"/>
          <Input Type="Variable" Label="a13" Expression="a13"/>
          <Input Type="Variable" Label="a14" Expression="a14"/>
          <Input Type="Variable" Label="a15" Expression="a15"/>
          <Input Type="Variable" Label="a16" Expression="a16"/>
        </Input>
        <Output NOutputs="16">
          <Output Type="Variable" Label="a1" Expression="a1"/>
          <Output Type="Variable" Label="a2" Expression="a2"/>
          <Output Type="Variable" Label="a3" Expression="a3"/>
          <Output Type="Variable" Label="a4" Expression="a4"/>
          <Output Type="Variable" Label="a5" Expression="a5"/>
          <Output Type="Variable" Label="a6" Expression="a6"/>
          <Output Type="Variable" Label="a7" Expression="a7"/>
          <Output Type="Variable" Label="a8" Expression="a8"/>
          <Output Type="Variable" Label="a9" Expression="a9"/>
          <Output Type="Variable" Label="a10" Expression="a10"/>
          <Output Type="Variable" Label="a11" Expression="a11"/>
          <Output Type="Variable" Label="a12" Expression="a12"/>
          <Output Type="Variable" Label="a13" Expression="a13"/>
          <Output Type="Variable" Label="a14" Expression="a14"/>
          <Output Type="Variable" Label="a15" Expression="a15"/>
          <Output Type="Variable" Label="a16" Expression="a16"/>
        </Output>
      </Selection>
      <Matrix Rows="16" Columns="16">
        5.361722773585723e-20 -9.708486638774093e-23 -4.813723276328638e-23 1.386481424327724e-24 -3.193943137378143e-22 3.785691521427333e-24 1.016116671336751e-22 -1.581629411595972e-20 -7.939063961575698e-23 3.401303342487869e-21 -1.592577582485873e-22 9.175592978578187e-22 -2.001232428114081e-23 -9.357143904850956e-21 -2.402502025756521e-22 -3.628147376582950e-21 -9.708486638774094e-23 4.001399683293478e+00 -3.692142168282442e-23 -2.232627393525611e-02 -1.346185583915839e-22 -7.393725495912682e-03 -4.763697041149472e-23 3.233270243613467e-10 -3.776678758274117e-23 1.980263068260864e-10 -4.495883965886376e-23 1.117436050878449e-10 -6.521871717020082e-23 -1.445014211423598e-10 1.646926005142622e-23 -1.627309594578581e-09 -4.813723276328788e-23 -3.692142168282444e-23 5.483614792681857e-20 2.743585445551926e-24 3.185974266256965e-22 -9.424595763449651e-25 4.904949111606759e-23 -4.234928138334281e-20 -4.095108699892211e-22 6.167680699184058e-21 3.830047564415077e-22 -1.738632111618798e-21 3.667092055989451e-22 -4.757913281502703e-20 2.966818359290448e-22 -9.635927265442991e-21 1.386481424327725e-24 -2.232627393525612e-02 2.743585445551925e-24 3.153761782386335e-03 2.227241582691502e-24 -1.030109990218682e-03 2.084147017879633e-24 2.307833656550050e-10 4.126654162141243e-24 -6.805144926801088e-11 1.389124606141637e-25 -1.714797572357849e-11 3.159407591495723e-24 -1.556612091489315e-11 -3.851535429638374e-24 -7.191386969820560e-10 -3.193943137378142e-22 -1.346185583915839e-22 3.185974266256965e-22 2.227241582691503e-24 5.471234588538783e-20 -1.250308676760384e-24 2.272770197559605e-22 1.277659464739013e-20 -4.770719162338418e-23 1.175574520302169e-20 2.999941022578607e-22 -1.288231110427784e-20 -4.373098466493770e-22 -1.482855525925671e-20 -9.394826369475560e-23 3.236778286998801e-21 3.785691521427331e-24 -7.393725495912678e-03 -9.424595763449651e-25 -1.030109990218682e-03 -1.250308676760384e-24 6.460981556527052e-03 -5.486741138173350e-24 3.315334734214251e-10 5.877363578315065e-24 -6.922185382580763e-11 -4.307074573436187e-24 -3.465853421107747e-11 -1.508244298950250e-24 -1.888175935371338e-11 2.392289511658338e-24 -1.709437394515952e-09 1.016116671336765e-22 -4.763697041149472e-23 4.904949111606911e-23 2.084147017879633e-24 2.272770197559578e-22 -5.486741138173350e-24 5.383658115244399e-20 2.698631475864318e-20 -3.288361375759296e-23 -1.352338965139554e-21 3.688525525131899e-22 -6.655115019395143e-22 6.622961863124386e-23 8.433151680324450e-21 -1.376806323158175e-22 6.093284684823913e-21 -1.581629411595973e-20 3.233270243613463e-10 -4.234928138334280e-20 2.307833656550050e-10 1.277659464739012e-20 3.315334734214251e-10 2.698631475864318e-20 2.107499854877710e-04 -1.479167088802831e-20 -1.603320790647637e-05 2.003073507753866e-20 -5.927291540805983e-06 3.571559420216772e-20 4.275306717144157e-06 7.475910063505286e-21 -3.312378267197841e-09 -7.939063961575695e-23 -3.776678758274117e-23 -4.095108699892242e-22 4.126654162141242e-24 -4.770719162338576e-23 5.877363578315066e-24 -3.288361375759296e-23 -1.479167088802831e-20 5.438353099775242e-20 -5.514877862524107e-21 -2.203568777256458e-22 8.366472446491849e-21 5.871290383109171e-23 5.636552964247515e-20 -4.716301683253006e-22 -3.865783231283059e-21 3.401303342487872e-21 1.980263068260866e-10 6.167680699184053e-21 -6.805144926801086e-11 1.175574520302169e-20 -6.922185382580766e-11 -1.352338965139546e-21 -1.603320790647637e-05 -5.514877862524104e-21 2.017707711731491e-04 -3.159482737386928e-20 -2.107140988993877e-05 -4.424407837792249e-20 -4.482628830984633e-06 4.422976991453383e-20 9.002560039861440e-09 -1.592577582485903e-22 -4.495883965886377e-23 3.830047564415107e-22 1.389124606141635e-25 2.999941022578637e-22 -4.307074573436187e-24 3.688525525131870e-22 2.003073507753866e-20 -2.203568777256458e-22 -3.159482737386928e-20 5.403270902265588e-20 1.017993856056168e-21 -1.903401841645699e-22 -6.025488639299582e-20 1.418666958914505e-22 4.334289159898205e-21 9.175592978578185e-22 1.117436050878451e-10 -1.738632111618798e-21 -1.714797572357852e-11 -1.288231110427784e-20 -3.465853421107747e-11 -6.655115019395152e-22 -5.927291540805983e-06 8.366472446491853e-21 -2.107140988993877e-05 1.017993856056169e-21 2.124278666479074e-04 2.828838793280211e-20 6.894633676699091e-06 -1.537904418263408e-20 -4.808232723516910e-09 -2.001232428114079e-23 -6.521871717020082e-23 3.667092055989468e-22 3.159407591495722e-24 -4.373098466493770e-22 -1.508244298950250e-24 6.622961863124455e-23 3.571559420216770e-20 5.871290383108955e-23 -4.424407837792249e-20 -1.903401841645691e-22 2.828838793280210e-20 5.462811083714751e-20 2.523322515407166e-20 1.886031429554202e-22 7.647338887269217e-21 -9.357143904850952e-21 -1.445014211423599e-10 -4.757913281502704e-20 -1.556612091489314e-11 -1.482855525925672e-20 -1.888175935371338e-11 8.433151680324459e-21 4.275306717144161e-06 5.636552964247516e-20 -4.482628830984643e-06 -6.025488639299582e-20 6.894633676699094e-06 2.523322515407167e-20 2.118994801547843e-04 -6.174621824754578e-20 1.695610012260065e-08 -2.402502025756510e-22 1.646926005142621e-23 2.966818359290464e-22 -3.851535429638372e-24 -9.394826369475484e-23 2.392289511658338e-24 -1.376806323158157e-22 7.475910063505290e-21 -4.716301683253043e-22 4.422976991453383e-20 1.418666958914490e-22 -1.537904418263408e-20 1.886031429554233e-22 -6.174621824754577e-20 5.385447161554826e-20 2.694856721694014e-21 -3.628147376582949e-21 -1.627309594578577e-09 -9.635927265442988e-21 -7.191386969820564e-10 3.236778286998802e-21 -1.709437394515952e-09 6.093284684823914e-21 -3.312378267197841e-09 -3.865783231283060e-21 9.002560039861438e-09 4.334289159898204e-21 -4.808232723516910e-09 7.647338887269215e-21 1.695610012260065e-08 2.694856721694012e-21 7.601659523913006e-04 
      </Matrix>
      <Matrix Rows="16" Columns="16">
        5.374778679893076e-20 1.379103632744605e-24 3.152906881976849e-22 8.420618291183802e-25 2.480063451596001e-22 4.041156590742355e-25 1.057281631517449e-23 -4.079311461397522e-21 -7.238548921820533e-23 -1.843793478722916e-21 4.351246505471659e-23 -3.777871167990043e-21 -4.914546547024656e-22 8.224790696876052e-21 1.221050318517355e-22 7.199780051661553e-21 1.379103037508318e-24 6.973808910764871e-02 3.407644031560912e-25 1.724798486833923e-03 2.033214704908515e-24 -2.507226094324687e-04 -1.045581531050589e-24 6.870554615117843e-09 -4.167909628650375e-24 4.725339396039907e-09 5.171860925332436e-25 -2.720662151311427e-09 -8.464929356062822e-25 -5.926199883365652e-09 -5.437846256541176e-25 -1.055078232697351e-11 3.152906881976874e-22 3.407685477020472e-25 5.446742803449928e-20 -9.748142323122987e-25 -1.751497211426605e-22 7.522544137708326e-25 2.840350267616224e-22 -7.703545638475083e-22 2.938869590269972e-22 -2.981372810354496e-20 5.978720826587943e-23 8.814797702527971e-21 2.588389921130298e-22 -4.064008439871690e-20 2.515414748772724e-22 1.905824131322176e-20 8.420621391566026e-25 1.724798486833924e-03 -9.748120735618339e-25 1.065663627995328e-03 -1.451794624021196e-26 -4.410182142029215e-05 -5.515655728647378e-25 3.777495828834742e-09 -1.321784241613371e-24 2.592224857717142e-09 3.469533196545998e-25 -1.606855446771188e-09 -6.605303762286219e-26 -3.314450117444074e-09 1.004796263413365e-25 5.495542758540654e-12 2.480063451595987e-22 2.033215651381261e-24 -1.751497211426613e-22 -1.451843922208788e-26 5.374828603430632e-20 -1.431107684464882e-25 3.902173432355318e-23 3.388739683838029e-21 1.414620334776007e-22 3.031719383151061e-20 -6.020385017765924e-23 1.055778214835216e-20 -8.530438940387756e-23 -2.085012396105353e-21 6.833870038356640e-23 7.792703114739563e-20 4.041147122074522e-25 -2.507226094324686e-04 7.522478208755406e-25 -4.410182142029209e-05 -1.431122740318702e-25 9.307969487601821e-04 6.920597347458485e-25 -6.682471803013247e-09 9.149061306836385e-25 -3.842314718358978e-09 5.626288560522312e-25 2.387934510343762e-09 5.407094600705814e-25 4.750064443724476e-09 -8.324023507530832e-25 -1.678356486595629e-11 1.057281631517602e-23 -1.045581492985865e-24 2.840350267616253e-22 -5.515655926986623e-25 3.902173432355355e-23 6.920597953133819e-25 5.410779580274610e-20 -3.855080000622168e-21 -1.838405069598602e-22 -9.243274819094799e-21 -4.325802103070086e-23 -2.644773958940370e-20 1.826847472113393e-22 -2.296907196283951e-20 -5.944734147824701e-22 -1.226080191150600e-19 -4.079311461387995e-21 6.870554615117847e-09 -7.703545637871331e-22 3.777495828834743e-09 3.388739683849847e-21 -6.682471803013247e-09 -3.855080000615546e-21 2.207594888775885e-04 -6.200638744923039e-22 5.836482069185693e-06 -4.476152776821934e-20 1.410176500954766e-05 2.960133839238196e-21 1.751649812719293e-05 6.523974595123757e-21 1.754989238989305e-13 -7.238548921821011e-23 -4.167774941628750e-24 2.938869590269970e-22 -1.321854394342040e-24 1.414620334776016e-22 9.151203803108161e-25 -1.838405069598586e-22 -6.200638762053733e-22 5.446631866287254e-20 -1.980572834460833e-20 -1.841237426546449e-22 -5.072680836535134e-20 1.577038485987430e-23 3.508888110966199e-20 -1.145091443533285e-22 2.168404344971009e-19 -1.843793478613094e-21 4.725339396039908e-09 -2.981372810289709e-20 2.592224857717142e-09 3.031719383155530e-20 -3.842314718358979e-09 -9.243274818822189e-21 5.836482069185683e-06 -1.980572835737705e-20 2.004611221936744e-04 2.633396113559945e-20 1.880259486368572e-05 3.033184483828825e-20 1.198762681914522e-06 -3.861373759856306e-20 2.019497884558346e-12 4.351246505471737e-23 5.171851582134767e-25 5.978720826587830e-23 3.469538062971903e-25 -6.020385017765885e-23 5.626273698198157e-25 -4.325802103070122e-23 -4.476152776822010e-20 -1.841237426546450e-22 2.633396113526063e-20 5.350671163801775e-20 3.088816003830268e-22 -2.475875988203259e-23 -2.178100404739511e-20 7.763660579122853e-23 4.364537583913706e-21 -3.777871168032067e-21 -2.720662151311427e-09 8.814797702300510e-21 -1.606855446771188e-09 1.055778214828121e-20 2.387934510343761e-09 -2.644773958937896e-20 1.410176500954764e-05 -5.072680836573719e-20 1.880259486368572e-05 3.088816005043308e-22 3.663555186371713e-04 -1.985367791635914e-21 -6.881937411793198e-05 -5.198866175398078e-20 -4.941007480317274e-13 -4.914546547024729e-22 -8.464927849689195e-25 2.588389921130267e-22 -6.605311608398243e-26 -8.530438940387462e-23 5.407096996939780e-25 1.826847472113392e-22 2.960133839236088e-21 1.577038485987180e-23 3.033184483828480e-20 -2.475875988203259e-23 -1.985367791630640e-21 5.393766434049193e-20 3.698273060981727e-20 -3.080557625729202e-22 9.614249455870153e-21 8.224790696879583e-21 -5.926199883365652e-09 -4.064008439876870e-20 -3.314450117444074e-09 -2.085012396100375e-21 4.750064443724476e-09 -2.296907196285873e-20 1.751649812719293e-05 3.508888110990743e-20 1.198762681914510e-06 -2.178100404739265e-20 -6.881937411793202e-05 3.698273060981793e-20 2.404672698539325e-04 -6.789886165994921e-21 -3.524964065002623e-14 1.221050318517326e-22 -5.437839617479967e-25 2.515414748772740e-22 1.004792805373734e-25 6.833870038356526e-23 -8.324012946548957e-25 -5.944734147824656e-22 6.523974595108687e-21 -1.145091443533261e-22 -3.861373759866260e-20 7.763660579123044e-23 -5.198866175403314e-20 -3.080557625729208e-22 -6.789886165994822e-21 5.378378324474557e-20 1.336792735875693e-20 7.318869379594407e-21 -1.055078232697559e-11 1.988744310609308e-20 5.495542758537733e-12 7.811639195595408e-20 -1.678356486595508e-11 -1.226004021133220e-19 1.754989271000039e-13 2.437871470644658e-19 2.019497848169832e-12 4.177609955507745e-21 -4.941007999795740e-13 9.644387439338371e-21 -3.524946750997371e-14 1.350075513481308e-20 2.110902402651623e-03 
      </Matrix>
      <Matrix Rows="16" Columns="16">
        5.367633396695953e-20 -1.290972815495537e-23 1.356333041797123e-22 4.153254650643591e-23 -2.952624982422591e-23 2.120431508797972e-23 5.765482644557236e-23 -8.075427959547778e-21 -7.921410154553363e-23 5.657263190793401e-21 -5.521828599001312e-23 6.592049578675001e-21 -2.563597757678964e-22 -1.312705387088504e-20 -6.104560200985376e-23 1.271702422413962e-21 -1.290972815495537e-23 1.629393265227841e+00 2.778110346690928e-23 4.461926902184239e-03 -2.014818865470359e-25 1.138703200561235e-03 -5.882038169674994e-24 1.176512477447379e-08 -2.054015013331765e-23 -1.599603695421097e-10 -6.657419810344914e-24 3.496965782181293e-10 -2.123744244932505e-23 1.941020002988072e-08 -1.792018155104425e-23 8.918378868228750e-10 1.356333041797121e-22 2.778110346690928e-23 5.464075812164116e-20 8.886348335645999e-25 6.694069140033233e-23 3.374551644126441e-24 1.624895470613822e-22 -4.102754019153315e-21 -5.413569192442513e-23 -1.296773410452871e-21 2.162930664663373e-22 3.540610862350615e-21 3.191342162116238e-22 1.704585984443618e-20 2.740625874898543e-22 -8.741196583617494e-22 4.153254650643591e-23 4.461926902184237e-03 8.886348335646087e-25 3.989187895661156e-02 1.216953723928768e-23 1.810946263350404e-02 -1.233673766780141e-23 3.889999192545795e-08 3.489727136230861e-23 -8.015566785291860e-10 -1.567932112667024e-23 2.606061641235952e-10 3.443000714246393e-23 2.229242334444993e-08 -3.017542939004413e-23 7.877122025409812e-10 -2.952624982422701e-23 -2.014818865470368e-25 6.694069140033193e-23 1.216953723928767e-23 5.421569045697837e-20 6.639182775087839e-24 1.356961768035629e-22 -2.422251558602680e-21 4.893106984740006e-23 -1.148088565147749e-20 1.150026927089888e-22 -5.363972508386310e-20 -2.581841025654617e-22 3.072252516216211e-20 -1.481446220998978e-23 8.682930400017045e-22 2.120431508797971e-23 1.138703200561233e-03 3.374551644126444e-24 1.810946263350404e-02 6.639182775087839e-24 1.086537446156888e-02 -3.845410274417095e-24 1.992672991796032e-08 1.739097929794004e-23 -4.340697895375511e-10 -7.312917670971827e-24 2.613662365397688e-10 1.527824809821989e-23 1.862725148711519e-08 -1.635957670883264e-23 3.364427137916060e-10 5.765482644557196e-23 -5.882038169674995e-24 1.624895470613792e-22 -1.233673766780141e-23 1.356961768035616e-22 -3.845410274417099e-24 5.396366095504189e-20 -3.030923882583916e-21 -1.060071027017048e-22 7.587676475679132e-21 1.594634883169677e-22 -1.195821084357451e-20 1.295323240605748e-22 -1.056947828863042e-20 -3.619313525756856e-22 -8.038115626288507e-21 -8.075427959547778e-21 1.176512477447380e-08 -4.102754019153315e-21 3.889999192545795e-08 -2.422251558602680e-21 1.992672991796033e-08 -3.030923882583916e-21 2.841385631175215e-04 7.609830387191793e-22 -4.149659587207876e-06 4.108946370558920e-21 -5.981711842662631e-07 1.392934867077902e-22 -2.191208074022496e-05 8.372419638768596e-21 9.115607239792526e-11 -7.921410154553284e-23 -2.054015013331765e-23 -5.413569192442514e-23 3.489727136230860e-23 4.893106984740309e-23 1.739097929794004e-23 -1.060071027017044e-22 7.609830387191795e-22 5.441960974456884e-20 -9.724213641745835e-21 -1.994509325842110e-22 1.401016577342497e-20 3.641290528196375e-23 -4.335758143232221e-21 -2.946020119662884e-22 -6.705179783654092e-21 5.657263190793401e-21 -1.599603695421096e-10 -1.296773410452869e-21 -8.015566785291859e-10 -1.148088565147748e-20 -4.340697895375513e-10 7.587676475679130e-21 -4.149659587207875e-06 -9.724213641745836e-21 2.031990725931128e-04 3.381600573331799e-21 -2.080509587461420e-06 -1.405795991600642e-20 2.430260319066450e-06 8.856082348978135e-21 -2.071068786449005e-12 -5.521828599001313e-23 -6.657419810344914e-24 2.162930664663373e-22 -1.567932112667024e-23 1.150026927089910e-22 -7.312917670971831e-24 1.594634883169692e-22 4.108946370558920e-21 -1.994509325842114e-22 3.381600573331799e-21 5.376312943177580e-20 3.003168957068539e-20 -1.016040679093210e-22 4.352955111798083e-20 1.098086807457398e-22 -3.449081546536648e-21 6.592049578674994e-21 3.496965782181293e-10 3.540610862350618e-21 2.606061641235949e-10 -5.363972508386310e-20 2.613662365397687e-10 -1.195821084357451e-20 -5.981711842662632e-07 1.401016577342497e-20 -2.080509587461420e-06 3.003168957068540e-20 1.872756883380682e-04 -1.036758345537851e-20 9.765548197330818e-07 -3.964286150722571e-20 2.133842547019295e-12 -2.563597757678963e-22 -2.123744244932505e-23 3.191342162116237e-22 3.443000714246393e-23 -2.581841025654601e-22 1.527824809821990e-23 1.295323240605745e-22 1.392934867077906e-22 3.641290528196982e-23 -1.405795991600642e-20 -1.016040679093195e-22 -1.036758345537851e-20 5.426803495349185e-20 5.221555193398901e-21 -6.404811351739609e-23 -4.975911928949114e-23 -1.312705387088505e-20 1.941020002988072e-08 1.704585984443618e-20 2.229242334444991e-08 3.072252516216211e-20 1.862725148711518e-08 -1.056947828863042e-20 -2.191208074022496e-05 -4.335758143232220e-21 2.430260319066450e-06 4.352955111798084e-20 9.765548197330810e-07 5.221555193398903e-21 2.700529068807473e-04 -1.985527947695672e-20 1.699329852292780e-10 -6.104560200985188e-23 -1.792018155104425e-23 2.740625874898544e-22 -3.017542939004413e-23 -1.481446220998978e-23 -1.635957670883264e-23 -3.619313525756836e-22 8.372419638768594e-21 -2.946020119662898e-22 8.856082348978132e-21 1.098086807457391e-22 -3.964286150722570e-20 -6.404811351739606e-23 -1.985527947695672e-20 5.381263146880424e-20 4.253999309772224e-21 1.271702422413962e-21 8.918378868228751e-10 -8.741196583617486e-22 7.877122025409808e-10 8.682930400017042e-22 3.364427137916064e-10 -8.038115626288505e-21 9.115607239792524e-11 -6.705179783654091e-21 -2.071068786449006e-12 -3.449081546536648e-21 2.133842547019294e-12 -4.975911928949037e-23 1.699329852292780e-10 4.253999309772225e-21 2.260633955377443e-03 
      </Matrix>
    </Transform>
  </Transformations>
  <MVAPdfs/>
  <Weights NTrees="1" AnalysisType="0">
    <BinaryTree type="DecisionTree" boostWeight="0.0000000000000000e+00" itree="0">
      <Node pos="s" depth="0" NCoef="0" IVar="-1" Cut="0.0000000000000000e+00" cType="1" res="-9.9000000000000000e+01" rms="0.0000000000000000e+00" purity="5.0000000000000000e-01" nType="-1"/>
    </BinaryTree>
  </Weights>
</MethodSetup>
