<?xml version="1.0"?>
<MethodSetup Method="MLP::MLPBNN">
  <GeneralInfo>
    <Info name="TMVA Release" value="4.2.1 [262657]"/>
    <Info name="ROOT Release" value="6.14/08 [396808]"/>
    <Info name="Creator" value="bo791269"/>
    <Info name="Date" value="Sun Jan 27 13:34:34 2019"/>
    <Info name="Host" value="Linux lxplus001.cern.ch 3.10.0-862.14.4.el7.x86_64 #1 SMP Wed Sep 26 15:12:11 UTC 2018 x86_64 x86_64 x86_64 GNU/Linux"/>
    <Info name="Dir" value="/rwthfs/rz/cluster/home/bo791269/TMVA/All_methods_147-175_MLPBNN_testonly"/>
    <Info name="Training events" value="88265"/>
    <Info name="TrainingTime" value="5.03816698e+03"/>
    <Info name="AnalysisType" value="Classification"/>
  </GeneralInfo>
  <Options>
    <Option name="NCycles" modified="Yes">600</Option>
    <Option name="HiddenLayers" modified="Yes">N+5</Option>
    <Option name="NeuronType" modified="Yes">tanh</Option>
    <Option name="RandomSeed" modified="No">1</Option>
    <Option name="EstimatorType" modified="No">CE</Option>
    <Option name="NeuronInputType" modified="No">sum</Option>
    <Option name="V" modified="Yes">False</Option>
    <Option name="VerbosityLevel" modified="No">Default</Option>
    <Option name="VarTransform" modified="Yes">N</Option>
    <Option name="H" modified="Yes">True</Option>
    <Option name="CreateMVAPdfs" modified="No">False</Option>
    <Option name="IgnoreNegWeightsInTraining" modified="No">False</Option>
    <Option name="TrainingMethod" modified="Yes">BFGS</Option>
    <Option name="LearningRate" modified="No">2.000000e-02</Option>
    <Option name="DecayRate" modified="No">1.000000e-02</Option>
    <Option name="TestRate" modified="Yes">5</Option>
    <Option name="EpochMonitoring" modified="No">False</Option>
    <Option name="Sampling" modified="No">1.000000e+00</Option>
    <Option name="SamplingEpoch" modified="No">1.000000e+00</Option>
    <Option name="SamplingImportance" modified="No">1.000000e+00</Option>
    <Option name="SamplingTraining" modified="No">True</Option>
    <Option name="SamplingTesting" modified="No">False</Option>
    <Option name="ResetStep" modified="No">50</Option>
    <Option name="Tau" modified="No">3.000000e+00</Option>
    <Option name="BPMode" modified="No">sequential</Option>
    <Option name="BatchSize" modified="No">-1</Option>
    <Option name="ConvergenceImprove" modified="No">1.000000e-30</Option>
    <Option name="ConvergenceTests" modified="No">-1</Option>
    <Option name="UseRegulator" modified="Yes">True</Option>
    <Option name="UpdateLimit" modified="No">10000</Option>
    <Option name="CalculateErrors" modified="No">False</Option>
    <Option name="WeightRange" modified="No">1.000000e+00</Option>
  </Options>
  <Variables NVar="16">
    <Variable VarIndex="0" Expression="a1" Label="a1" Title="a1" Unit="" Internal="a1" Type="F" Min="1.57373667e-01" Max="1.24246657e+00"/>
    <Variable VarIndex="1" Expression="a2" Label="a2" Title="a2" Unit="" Internal="a2" Type="F" Min="-1.51193914e+01" Max="4.00456572e+00"/>
    <Variable VarIndex="2" Expression="a3" Label="a3" Title="a3" Unit="" Internal="a3" Type="F" Min="-5.69186084e+03" Max="2.84588086e+03"/>
    <Variable VarIndex="3" Expression="a4" Label="a4" Title="a4" Unit="" Internal="a4" Type="F" Min="-9.99852955e-01" Max="4.97340471e-01"/>
    <Variable VarIndex="4" Expression="a5" Label="a5" Title="a5" Unit="" Internal="a5" Type="F" Min="-5.22256327e+00" Max="5.22256327e+00"/>
    <Variable VarIndex="5" Expression="a6" Label="a6" Title="a6" Unit="" Internal="a6" Type="F" Min="-2.16296172e+00" Max="2.35471702e+00"/>
    <Variable VarIndex="6" Expression="a7" Label="a7" Title="a7" Unit="" Internal="a7" Type="F" Min="-3.55545311e+01" Max="1.21747368e+02"/>
    <Variable VarIndex="7" Expression="a8" Label="a8" Title="a8" Unit="" Internal="a8" Type="F" Min="-3.22184873e+00" Max="1.39832640e+00"/>
    <Variable VarIndex="8" Expression="a9" Label="a9" Title="a9" Unit="" Internal="a9" Type="F" Min="-3.22184873e+00" Max="1.37559271e+00"/>
    <Variable VarIndex="9" Expression="a10" Label="a10" Title="a10" Unit="" Internal="a10" Type="F" Min="-2.75343609e+00" Max="9.99795198e-01"/>
    <Variable VarIndex="10" Expression="a11" Label="a11" Title="a11" Unit="" Internal="a11" Type="F" Min="-2.31309462e+00" Max="9.99992847e-01"/>
    <Variable VarIndex="11" Expression="a12" Label="a12" Title="a12" Unit="" Internal="a12" Type="F" Min="-6.77213516e+01" Max="1.84312522e+00"/>
    <Variable VarIndex="12" Expression="a13" Label="a13" Title="a13" Unit="" Internal="a13" Type="F" Min="0.00000000e+00" Max="1.00076920e+02"/>
    <Variable VarIndex="13" Expression="a14" Label="a14" Title="a14" Unit="" Internal="a14" Type="F" Min="0.00000000e+00" Max="4.24719095e+00"/>
    <Variable VarIndex="14" Expression="a15" Label="a15" Title="a15" Unit="" Internal="a15" Type="F" Min="7.61214733e-01" Max="1.49992204e+00"/>
    <Variable VarIndex="15" Expression="a16" Label="a16" Title="a16" Unit="" Internal="a16" Type="F" Min="8.04693282e-01" Max="1.99997473e+00"/>
  </Variables>
  <Spectators NSpec="0"/>
  <Classes NClass="2">
    <Class Name="Signal" Index="0"/>
    <Class Name="Background" Index="1"/>
  </Classes>
  <Transformations NTransformations="1">
    <Transform Name="Normalize">
      <Selection>
        <Input NInputs="16">
          <Input Type="Variable" Label="a1" Expression="a1"/>
          <Input Type="Variable" Label="a2" Expression="a2"/>
          <Input Type="Variable" Label="a3" Expression="a3"/>
          <Input Type="Variable" Label="a4" Expression="a4"/>
          <Input Type="Variable" Label="a5" Expression="a5"/>
          <Input Type="Variable" Label="a6" Expression="a6"/>
          <Input Type="Variable" Label="a7" Expression="a7"/>
          <Input Type="Variable" Label="a8" Expression="a8"/>
          <Input Type="Variable" Label="a9" Expression="a9"/>
          <Input Type="Variable" Label="a10" Expression="a10"/>
          <Input Type="Variable" Label="a11" Expression="a11"/>
          <Input Type="Variable" Label="a12" Expression="a12"/>
          <Input Type="Variable" Label="a13" Expression="a13"/>
          <Input Type="Variable" Label="a14" Expression="a14"/>
          <Input Type="Variable" Label="a15" Expression="a15"/>
          <Input Type="Variable" Label="a16" Expression="a16"/>
        </Input>
        <Output NOutputs="16">
          <Output Type="Variable" Label="a1" Expression="a1"/>
          <Output Type="Variable" Label="a2" Expression="a2"/>
          <Output Type="Variable" Label="a3" Expression="a3"/>
          <Output Type="Variable" Label="a4" Expression="a4"/>
          <Output Type="Variable" Label="a5" Expression="a5"/>
          <Output Type="Variable" Label="a6" Expression="a6"/>
          <Output Type="Variable" Label="a7" Expression="a7"/>
          <Output Type="Variable" Label="a8" Expression="a8"/>
          <Output Type="Variable" Label="a9" Expression="a9"/>
          <Output Type="Variable" Label="a10" Expression="a10"/>
          <Output Type="Variable" Label="a11" Expression="a11"/>
          <Output Type="Variable" Label="a12" Expression="a12"/>
          <Output Type="Variable" Label="a13" Expression="a13"/>
          <Output Type="Variable" Label="a14" Expression="a14"/>
          <Output Type="Variable" Label="a15" Expression="a15"/>
          <Output Type="Variable" Label="a16" Expression="a16"/>
        </Output>
      </Selection>
      <Class ClassIndex="0">
        <Ranges>
          <Range Index="0" Min="1.5737366676330566e-01" Max="1.2424665689468384e+00"/>
          <Range Index="1" Min="-1.6602026224136353e+00" Max="2.3728845119476318e+00"/>
          <Range Index="2" Min="-2.8459167480468750e+03" Max="2.8458808593750000e+03"/>
          <Range Index="3" Min="-9.9957782030105591e-01" Max="4.9734047055244446e-01"/>
          <Range Index="4" Min="0.0000000000000000e+00" Max="4.0238528251647949e+00"/>
          <Range Index="5" Min="0.0000000000000000e+00" Max="2.1440477371215820e+00"/>
          <Range Index="6" Min="0.0000000000000000e+00" Max="1.2174736785888672e+02"/>
          <Range Index="7" Min="-3.2218487262725830e+00" Max="1.3983263969421387e+00"/>
          <Range Index="8" Min="-3.2218487262725830e+00" Max="1.2600463628768921e+00"/>
          <Range Index="9" Min="-2.5827357769012451e+00" Max="9.9979519844055176e-01"/>
          <Range Index="10" Min="-2.3130946159362793e+00" Max="9.9979519844055176e-01"/>
          <Range Index="11" Min="-6.7721351623535156e+01" Max="9.6615833044052124e-01"/>
          <Range Index="12" Min="0.0000000000000000e+00" Max="7.4944236755371094e+01"/>
          <Range Index="13" Min="0.0000000000000000e+00" Max="2.6476423740386963e+00"/>
          <Range Index="14" Min="8.0233871936798096e-01" Max="1.4999220371246338e+00"/>
          <Range Index="15" Min="8.0469328165054321e-01" Max="1.9999747276306152e+00"/>
        </Ranges>
      </Class>
      <Class ClassIndex="1">
        <Ranges>
          <Range Index="0" Min="1.9928193092346191e-01" Max="1.2282055616378784e+00"/>
          <Range Index="1" Min="-1.5119391441345215e+01" Max="4.0045657157897949e+00"/>
          <Range Index="2" Min="-5.6918608398437500e+03" Max="1.8972768554687500e+03"/>
          <Range Index="3" Min="-9.9985295534133911e-01" Max="4.9631196260452271e-01"/>
          <Range Index="4" Min="-5.2225632667541504e+00" Max="5.2225632667541504e+00"/>
          <Range Index="5" Min="-2.1629617214202881e+00" Max="2.3547170162200928e+00"/>
          <Range Index="6" Min="-3.5554531097412109e+01" Max="4.5110630035400391e+01"/>
          <Range Index="7" Min="-3.2218487262725830e+00" Max="1.3839943408966064e+00"/>
          <Range Index="8" Min="-3.2218487262725830e+00" Max="1.3755927085876465e+00"/>
          <Range Index="9" Min="-2.7534360885620117e+00" Max="9.9979519844055176e-01"/>
          <Range Index="10" Min="-9.3197441101074219e-01" Max="9.9999284744262695e-01"/>
          <Range Index="11" Min="-2.1346183776855469e+01" Max="1.8431252241134644e+00"/>
          <Range Index="12" Min="0.0000000000000000e+00" Max="1.0007691955566406e+02"/>
          <Range Index="13" Min="0.0000000000000000e+00" Max="4.2471909523010254e+00"/>
          <Range Index="14" Min="7.6121473312377930e-01" Max="1.4989335536956787e+00"/>
          <Range Index="15" Min="8.1194871664047241e-01" Max="1.9984273910522461e+00"/>
        </Ranges>
      </Class>
      <Class ClassIndex="2">
        <Ranges>
          <Range Index="0" Min="1.5737366676330566e-01" Max="1.2424665689468384e+00"/>
          <Range Index="1" Min="-1.5119391441345215e+01" Max="4.0045657157897949e+00"/>
          <Range Index="2" Min="-5.6918608398437500e+03" Max="2.8458808593750000e+03"/>
          <Range Index="3" Min="-9.9985295534133911e-01" Max="4.9734047055244446e-01"/>
          <Range Index="4" Min="-5.2225632667541504e+00" Max="5.2225632667541504e+00"/>
          <Range Index="5" Min="-2.1629617214202881e+00" Max="2.3547170162200928e+00"/>
          <Range Index="6" Min="-3.5554531097412109e+01" Max="1.2174736785888672e+02"/>
          <Range Index="7" Min="-3.2218487262725830e+00" Max="1.3983263969421387e+00"/>
          <Range Index="8" Min="-3.2218487262725830e+00" Max="1.3755927085876465e+00"/>
          <Range Index="9" Min="-2.7534360885620117e+00" Max="9.9979519844055176e-01"/>
          <Range Index="10" Min="-2.3130946159362793e+00" Max="9.9999284744262695e-01"/>
          <Range Index="11" Min="-6.7721351623535156e+01" Max="1.8431252241134644e+00"/>
          <Range Index="12" Min="0.0000000000000000e+00" Max="1.0007691955566406e+02"/>
          <Range Index="13" Min="0.0000000000000000e+00" Max="4.2471909523010254e+00"/>
          <Range Index="14" Min="7.6121473312377930e-01" Max="1.4999220371246338e+00"/>
          <Range Index="15" Min="8.0469328165054321e-01" Max="1.9999747276306152e+00"/>
        </Ranges>
      </Class>
    </Transform>
  </Transformations>
  <MVAPdfs/>
  <Weights>
    <Layout NLayers="3">
      <Layer Index="0" NNeurons="17">
        <Neuron NSynapses="21">
          1.8671453422544970e-01 7.8799359843514348e-03 6.6486001605015890e+00 4.1421564334181782e-01 2.3757236615216049e-02 -1.3529276915939830e+00 -8.0712446216852685e-01 1.7420190189123534e+00 6.0579902049697498e-01 -7.3399361217089321e-01 -4.7481678074770295e-01 9.9104628940022935e-02 -8.7011788087685360e-01 -2.0921721208772409e-01 4.7083334610685229e-02 1.4849200178806192e+00 -2.8745046368868947e+00 5.3397093103545967e-01 1.2292823547281997e+00 2.4667125241803164e-01 -3.3317806435574943e-01 
        </Neuron>
        <Neuron NSynapses="21">
          1.7904338391761701e-01 -2.4233392300508699e-01 1.2922163696130871e+00 2.2154023415073974e-02 1.1982041246613738e+01 1.1720033765565687e+00 -1.0791859214031529e+00 -1.8529821752821289e+00 4.4127678281605665e-01 4.0159703583894224e-01 3.9708881410822414e+00 -1.2104178191259169e+00 -3.9282370360851587e-01 -2.6726327051978118e+00 -2.9754114035716710e+00 -2.8865400497888269e+00 5.0119076675150098e-01 -1.8949570364023949e+00 -3.8311896614860474e-01 1.6038762634676040e+00 5.0437772844909612e-01 
        </Neuron>
        <Neuron NSynapses="21">
          -6.6919194651786984e-01 3.5574873361990667e-01 -4.3437167183989539e-01 -1.4293692156410445e+00 -2.7783566523360059e-01 4.4184658139143268e-02 1.3281002958352919e+00 1.2551750005731248e+00 1.0110711548130029e+00 1.1074769952352419e+00 -1.2428153138530067e+00 1.0610387910851058e+00 -1.8641929959661232e+00 -8.3949840228849959e-01 -5.8060520414830630e-01 -1.3316296794077802e+00 1.2134395452235198e+00 5.7768745534351018e-01 -1.7329365720758141e+00 7.5776560310623620e-01 -4.1258304012542579e-01 
        </Neuron>
        <Neuron NSynapses="21">
          -2.1014437551281789e-01 5.1696075516179096e-01 -1.2496403328488326e-01 -1.2538367594471560e+00 -1.8265542017224426e-01 1.9795883137133301e-02 -4.1656224242781076e-01 -6.9299963436360634e-02 -1.2502324629797996e+00 4.5454918593274934e-01 6.5124187461414262e-01 7.5210191856306541e-01 -1.3624734021199453e-01 -1.4604739047341990e+00 -3.7379892953899152e-01 -4.1669537100952542e-01 -1.8718246536852337e-01 1.0976876752812128e+00 -1.3985184345263948e+00 5.4999898143381376e-01 -4.4433550596019522e-01 
        </Neuron>
        <Neuron NSynapses="21">
          -6.1276592576607856e+00 1.3201254656804433e+00 -1.1654582399651874e+00 -5.9073827068038733e+00 -2.6673540407497054e+00 -1.7116027952107962e+00 1.4143862953443356e-01 -2.6742378614412965e-01 5.8765573909808255e-01 -1.5648084933649358e+00 -1.1995810112115766e+00 1.3963682621053113e+00 -8.2577109286613670e-01 -4.8391398301537847e-01 -8.6055338059825797e+00 4.1868971918344169e-02 -1.8790525227536274e+00 -2.1576295190665573e+00 -1.8185912981603247e+00 2.8614608961748491e+00 -1.0958437712907898e+00 
        </Neuron>
        <Neuron NSynapses="21">
          -1.4421707783954134e+00 -6.4771527373138815e-01 1.3460631232170592e-01 -8.8530498857578017e+00 -2.5523212881196762e+00 -1.3140069892409854e+00 2.2191204216187352e-01 -6.7643450078824288e-02 7.9034117392238723e-01 -1.3521105920774739e+00 2.2726549907291984e+00 1.1001354233384197e+00 -9.1192540287322066e-01 1.8383711572566448e+00 -7.8788245573599897e-02 -8.2392256804281994e-01 5.3829075604635501e-01 2.2899377630994349e+00 9.6039108400264872e-01 -3.6290412877708009e+00 -1.5845779975359048e-01 
        </Neuron>
        <Neuron NSynapses="21">
          -3.5736126849300067e+00 1.2978954959998443e+00 -1.5217826022977432e+00 3.1912302526245340e-01 -8.1919961119219646e+00 -1.6406849469646758e+00 8.5119774180273133e-01 -1.1144112421403591e+00 1.7403661713188043e-01 1.2312175578036555e+00 2.0064598314741495e+00 -1.8371208608158420e+00 5.2674099954248577e-01 2.1413045367014396e+00 1.0436104118757656e+00 2.5518877516372291e+00 -1.6223320056142079e+00 -1.7509955100443839e-01 -2.9550357860516803e+00 1.9051058592744992e+00 1.2903027691669535e+00 
        </Neuron>
        <Neuron NSynapses="21">
          -1.4143327078152843e-01 3.7533230031379339e+00 5.3785494811466354e-03 9.7153102218431028e-02 3.5769887813025793e-02 1.2421334655078897e+00 -4.6148126554882879e-01 -5.2411328102269550e-01 2.5063849376538083e-01 5.5049050735779825e-01 4.0857980083013140e-01 3.0160768644760377e-01 -1.0826375173103124e+00 2.0996226516484531e+00 1.4398883685284591e-01 -3.9354187938953339e-01 8.5303357192400597e-01 -1.7900142026396643e-02 2.3532499428661052e-01 -6.3589201342938473e-01 6.4223505470154651e-01 
        </Neuron>
        <Neuron NSynapses="21">
          3.0368744549732307e-01 -4.3340536391241517e-02 2.2711957564576873e-01 2.0031446895704272e+00 1.4803698885140254e-01 3.7191549182716038e-01 6.4582147996134687e-01 -1.2249952695649058e+00 3.1282177999750926e-01 -1.0598023122646752e-01 2.5284556323489643e-01 -9.0961847653522454e-01 -1.2080893118342639e+00 8.4554329256291105e-01 2.3728516884198222e-01 -5.3406250826938306e-01 -6.4070062764659408e-01 -4.1749102105549118e-01 8.5352670658996510e-01 1.8627220751639979e+00 -3.9010758242912291e-01 
        </Neuron>
        <Neuron NSynapses="21">
          -1.2718612026885065e-01 -2.1080550559171360e+00 2.9041432683132901e-01 -1.7989795940287642e-02 -8.6582344541179995e-02 1.0735775893653407e-01 -4.0492985748989535e-01 -1.5499764265732010e+00 1.3557162390634079e+00 1.2331501138650036e-01 2.7390748557881278e-01 1.4938890379554037e-01 7.8860187742073928e-02 -2.0124859092473817e+00 -3.7601814046228960e-01 3.6299844859652333e+00 -7.6277216630335931e-01 -4.9009708490604348e-02 1.0792127167161438e+00 -2.3455037373947993e-01 6.0809584841525066e-01 
        </Neuron>
        <Neuron NSynapses="21">
          -7.4980190675628444e-01 -7.1448065443613129e-01 7.8979668461617802e-02 -1.0148328689115300e+00 -2.8091895373984815e-01 1.0353651038953859e+00 7.8023818404237566e-01 -5.6041556271879223e-01 1.6243687669323432e+00 -1.5026713517159069e+00 -1.5711035907043178e+00 1.7615156160671372e-02 -1.2508679561009550e+00 7.6210748414535845e-01 2.3209405453625406e-01 1.9463137419996027e-01 -3.6856661321786743e-01 -1.3366350548485186e+00 -1.6432681884239626e+00 1.0030846309537171e+00 5.6288167953262758e-01 
        </Neuron>
        <Neuron NSynapses="21">
          -3.0735009140332754e+00 -3.5612215376765222e-01 -3.9175617435240083e-02 8.8337066129693254e-01 -4.6692189048769484e+00 7.0546492923065329e-01 -2.4604827362274773e-01 -1.6892557015462615e+00 -2.5123469386332795e+00 -1.7884339017508655e+00 3.1118162058211923e-01 -2.3771173758435129e+00 -1.8218552601862286e+00 -1.3071995534565108e+00 1.4118873875171658e+00 -4.7967368351441730e-01 -2.4244531382044134e+00 1.1933265433793647e+00 -2.1112887300029874e+00 1.5119333728061959e+00 -1.3475745574843816e+00 
        </Neuron>
        <Neuron NSynapses="21">
          2.9346151981729329e-01 1.4747018709531972e+00 1.0848201346004287e+00 -6.7767191406827088e-01 8.0655284138872796e-01 -9.0650305275477250e-01 -1.4404812179067779e+00 -1.0330032523677999e+00 1.9750509212437466e+00 5.1113567738330645e-01 9.0322200258570950e-01 -3.8066136518227198e-02 5.5115084321979735e-01 -1.0241607145332190e+00 8.5416283520454730e-02 7.0351651525775820e-03 1.3417308104964287e+00 -1.5222321192969364e+00 -1.5744143911132474e-01 7.0099223111758646e-02 1.1156214385378627e+00 
        </Neuron>
        <Neuron NSynapses="21">
          -7.5870424444325271e-05 2.6652116298876022e-01 1.7849202413668237e-02 1.9012902614432819e-01 -2.7329055954589992e-01 4.8585246385271685e-01 -4.0033384652927184e-01 2.5755731374438107e-01 8.5521100290437996e-02 -6.9472915503947708e-01 1.5374459293533200e+00 8.3024465096994460e-02 -6.3638399999141648e-01 -2.9158621213305463e-01 -4.7728006409262680e-01 4.3285543110738366e-02 -3.5543579989399993e-01 -3.2099977800126595e-01 -3.1658477114257050e-01 -3.3894122008602390e-01 3.4278528971322336e-01 
        </Neuron>
        <Neuron NSynapses="21">
          -8.4986994422329792e-02 -1.4063463357276042e-02 2.8818882566455470e-02 1.8586609377010410e-01 -4.9806608634981993e-02 -7.4660290023012787e-01 -6.5200746871214998e-01 -2.9863444174833631e-01 6.3586944805087392e-02 -1.1238954774211636e-01 1.3876707257783369e-01 -1.1208841044940444e-01 -2.8335530493961764e-01 1.0582469900407758e-01 -9.2011547987294495e-02 -8.3784001132231015e-02 2.1182452427365306e-01 -1.4674119446209001e-02 -2.3858882133722580e-02 3.1819809378299113e-01 9.6544647936621500e-02 
        </Neuron>
        <Neuron NSynapses="21">
          -9.8685909222206505e-02 -1.7771766477548073e-01 -6.6597254795276961e-01 3.1924371758486250e-03 -1.3249057586610916e-01 -1.1467906470722034e+00 -1.1728917216006599e-01 1.7488460943051527e-02 -5.9753454498724490e-01 3.1740669536367527e-01 3.9800391041519551e-01 1.0709181698562662e+00 7.7006779697269290e-01 -1.2138290364906879e+00 -6.3794381558140267e-02 -7.2891991784504884e-01 3.1611800605679369e-01 -5.9049574184114717e-01 -6.3829546040747853e-01 4.0817323008633756e-02 6.0901629563642523e-01 
        </Neuron>
        <Neuron NSynapses="21">
          2.1568818046117415e+00 1.3338630112939420e+00 7.1328554475950123e-01 -1.8322431595229025e+00 -6.6973228717811999e+00 3.8777416659017773e-02 1.3505059909389081e+00 -1.7119459978490223e+00 -8.7381209162172901e-01 -1.6228814987613098e+00 -2.8957186487215336e-01 -3.4941345937884161e-01 -2.2471513301536483e-01 -2.9747629434906903e-01 5.6164182090579706e-01 4.7795362861501156e-01 2.2668317860979371e-02 1.5910127832179205e-01 -1.1123893246872696e+00 -3.2361729951021007e-01 -1.8935869440129736e+00 
        </Neuron>
      </Layer>
      <Layer Index="1" NNeurons="22">
        <Neuron NSynapses="1">
          7.7551488199800751e+00 
        </Neuron>
        <Neuron NSynapses="1">
          3.7253750799267964e+00 
        </Neuron>
        <Neuron NSynapses="1">
          -1.8325277708406784e+00 
        </Neuron>
        <Neuron NSynapses="1">
          -6.5101148738014958e+00 
        </Neuron>
        <Neuron NSynapses="1">
          -8.7174072644910172e+00 
        </Neuron>
        <Neuron NSynapses="1">
          -2.2564935221608997e+00 
        </Neuron>
        <Neuron NSynapses="1">
          -2.9601915151414659e+00 
        </Neuron>
        <Neuron NSynapses="1">
          1.3414926411898127e+00 
        </Neuron>
        <Neuron NSynapses="1">
          1.2903390258500047e+00 
        </Neuron>
        <Neuron NSynapses="1">
          -3.1354981356486192e-02 
        </Neuron>
        <Neuron NSynapses="1">
          -2.9675328790102089e+00 
        </Neuron>
        <Neuron NSynapses="1">
          2.0133277336559185e+00 
        </Neuron>
        <Neuron NSynapses="1">
          1.0846655725914559e-01 
        </Neuron>
        <Neuron NSynapses="1">
          -1.4460790160551680e+00 
        </Neuron>
        <Neuron NSynapses="1">
          -6.5391471116826532e+00 
        </Neuron>
        <Neuron NSynapses="1">
          -2.6554256133436924e+00 
        </Neuron>
        <Neuron NSynapses="1">
          2.4599273541182005e+00 
        </Neuron>
        <Neuron NSynapses="1">
          2.5912050463441103e+00 
        </Neuron>
        <Neuron NSynapses="1">
          3.1269981751734215e+00 
        </Neuron>
        <Neuron NSynapses="1">
          -3.1788610725078437e-01 
        </Neuron>
        <Neuron NSynapses="1">
          2.4989397231717034e+00 
        </Neuron>
        <Neuron NSynapses="1">
          1.5047098442258791e-01 
        </Neuron>
      </Layer>
      <Layer Index="2" NNeurons="1">
        <Neuron NSynapses="0"/>
      </Layer>
    </Layout>
    <InverseHessian NElements="143641" NRows="379" NCols="379">
      <Row Index="0">
        2.9113722870113350e-03 -3.4834057577810742e-04 -5.2500265769651871e-03 2.5473203582962234e-04 7.5429565065704982e-04 -6.9168765727945433e-03 -5.9430917618591636e-03 4.7489002116868295e-02 1.1424836562421450e-03 1.0140587159101955e-01 -7.1409585538804131e-04 -2.3226523160016499e-04 3.5467848019776937e-01 -8.0143606165229524e-05 1.6108199871102777e-03 3.8994817533397530e-04 1.3507234348579672e-03 1.5920297476590766e-03 2.9135343524974494e-04 -3.2422015045671868e-03 1.6412556422505509e-01 -2.6276404622425113e-03 -1.8436623417936420e-03 -1.0511468552173177e-03 2.5601495555110793e-03 1.0607500826218197e-02 2.5898027759066689e-02 -8.7174624838922722e-03 3.1871260115369254e-02 4.2767327027078035e-03 7.2125197061701840e-02 2.3208702455846464e-03 -1.2382674555820001e-02 -2.3414460859444830e-01 -9.6919420890685649e-04 -6.3234040574343701e-03 1.5004588102635963e-03 -5.5801235223255398e-04 -4.3440305618983807e-03 -3.5910265806205835e-03 -7.6077356809263336e-03 2.6906125551234028e-01 -2.0687956474560744e-03 -1.9052178749276796e-04 -2.4479821342597132e-03 2.8590105263075032e-04 2.2544267521107343e-03 -3.1837141887901999e-01 1.4562013177190067e-02 3.9385322287743263e-01 -9.8749707715992518e-03 1.1674675073287233e-02 -8.5956622389711593e-03 7.5965792087056162e-03 -9.2049884325788867e-02 1.5326398569358430e-02 -2.5925384868443931e-03 1.6493379686580013e-03 -1.4038137350719836e-02 3.7950795125073710e-03 4.5122088877465761e-04 1.0081180106160492e-02 -9.8525350455094696e-02 -3.2142514633394758e-04 -5.8939485003231171e-04 4.6802478611903493e-04 -6.1270567197891583e-04 -9.1803056795559197e-05 3.4937405273984118e-03 -3.0375455762435971e-03 1.2283890005391691e-02 2.2883901658207499e-03 1.6951392963404643e-03 7.3471978406425742e-04 6.5251566595066002e-03 6.0718581781085845e-01 1.1426637932867769e-03 -6.1654945161871626e-04 2.1522204156470843e-04 1.6126458791896996e-04 4.9158829940297750e-04 -2.8941952479484903e-04 3.9811418004303866e-03 6.6874489363177955e-02 -2.5775425786859598e-03 3.8549582669886867e-05 3.1090236252132490e-03 3.7766491841446335e-03 1.5367332403741290e-04 -9.4166418329195700e-03 -4.2710983628500912e-03 -8.4751649017212882e-03 6.3676630788670559e-04 -3.4685362357759797e-01 6.2434895315322957e-04 1.6321587672977499e-02 9.9601668310356217e-02 2.0316303975204510e-04 -8.5997035756825071e-03 -4.4534829820767246e-04 -1.7488794451173857e-03 -4.1121729297888647e-03 -1.9479487497754914e-03 -1.4708133164507076e-02 1.5032487214790935e-01 -1.7037787777907890e-03 -5.3955731295509421e-04 2.1404779282815853e-03 -4.8894369446677004e-04 -1.7617484035125648e-03 -1.0157109576299589e-02 -1.0250282531187680e-02 4.3581634148226106e-02 -3.9654703667867091e-03 -8.2104572687057953e-02 4.7460509167774473e-03 9.8841201465765527e-03 -3.7203765804105160e-01 -1.9225727291648572e-03 1.5267049050441835e-03 -1.4164713370437999e-04 -5.0991096743486994e-03 -1.3352667815186344e-03 2.7373805126964762e-03 2.1930054492555390e-02 1.3176852594595845e-01 -3.2520625981840275e-03 -4.7823072580255744e-04 5.7498214123310196e-03 2.0183269554733966e-03 -4.1602909425989352e-03 -4.7964741649236683e-02 5.1436392712623791e-03 -2.3478227178833078e-01 -4.1660769212136317e-03 3.5524539041800196e-02 5.5071936243884347e-03 -1.8585421862289588e-02 -4.2819668752160922e-03 -3.4526813673324856e-03 8.3479020825191052e-03 -3.1349001603574837e-03 -7.5536161475994370e-03 -3.5720615678063491e-04 -5.4663455902358733e-03 -5.9080036100548766e-02 1.0102487848955732e-01 -4.9234125144545548e-04 -1.0703371178111887e-03 9.2135081588076207e-04 5.0370748469535486e-04 1.2002087973322646e-04 2.4858595043198706e-03 -2.7714925915062528e-03 -1.1901671500026736e-02 1.0863100953168482e-03 7.0236362740189406e-01 6.2273930526363683e-04 2.3341970132734766e-03 -9.3179378405081081e-01 -8.0860245704436964e-04 3.1410523239473281e-04 -1.6803439372844087e-04 -2.6492765924896492e-03 -5.0695056977937683e-04 -1.8888250611264054e-04 7.2289896857508432e-04 9.9407689568986157e-02 7.3129820300870101e-04 1.1920936840584559e-03 -1.1517721201640854e-03 8.2351561898937596e-04 2.4308683788153824e-05 -3.9361640443707352e-03 6.5690379879684933e-03 -4.6856128718253176e-02 2.0060691942760025e-03 -8.7012926527869539e-01 -6.9924071611142218e-05 -7.0333841900294507e-03 -2.6729726341230275e-01 -1.3626859027859859e-03 3.8724412261600792e-04 3.1955943030461190e-06 -8.2373379942232358e-06 -1.6797879664326586e-03 -4.4699574052928150e-04 -4.3130117109776364e-03 1.5050528808282948e-02 4.1216209748650800e-04 8.8515796149278819e-04 -2.8100884521162391e-04 -2.9485048739078977e-04 -1.7738835732319892e-04 1.2578032971192393e-02 -2.9027063473781971e-03 -4.6544815829284825e-02 -5.2381396207521278e-03 1.3584989352906973e-02 4.9430868681574333e-04 7.3649719216823534e-04 5.5085524023169796e-01 1.7272221980220138e-03 -3.9178869598763760e-04 -1.5549598626532794e-03 2.0068633643117329e-03 -2.2760062336515540e-04 9.3474447495693266e-04 -1.8847329897230120e-03 3.9619103788884447e-02 -1.5358691899885349e-03 -5.5250086157831654e-04 -1.5297194521147551e-04 7.1225505977156461e-04 5.0408502565786975e-04 8.7299323641424342e-03 9.4187437883719409e-03 -3.3082554724475681e-02 -2.1555648258553065e-03 -1.1867346303596094e+00 -1.1162085848342536e-03 -6.9955787340401226e-04 -2.9826803827836201e-02 4.8241461242950409e-03 1.3225847109778616e-03 6.5827968620884789e-04 8.7908622320502679e-04 -6.4705722370319262e-04 -2.3731736551908149e-03 -1.4198050335579401e-02 -3.9641966033399534e-02 -2.1600905050652500e-03 -4.3433198536765912e-03 -1.8452893263183187e-03 3.6893195805392178e-03 -9.2119977597263265e-04 -2.4809441749293698e-01 2.5437027621705070e-02 -2.1292465516675416e-01 -5.0071730245515346e-03 2.0317909267220102e-02 2.4125814404473062e-03 -1.7632731387128737e-02 -1.9303270257108807e-01 -6.4192611834866728e-03 8.3880155498753765e-03 -2.4720927911891497e-03 3.7014610549070048e-03 4.9149441313512190e-04 -7.2773890324594496e-04 4.2075038318686427e-02 1.7313900717691677e-02 1.3614520521397510e-04 -2.0105148153478877e-04 -1.5248308246215217e-03 -3.3210209670456875e-03 5.4609142456289771e-04 -9.2553276298321663e-03 -7.3703481988586436e-03 -6.4545175974920821e-02 -5.1515064391075473e-03 -4.6566551336734108e-01 4.7919201796936452e-04 -8.7941731232612022e-04 5.5656159261493043e-01 1.0139206387362065e-03 7.0338838721096457e-05 2.5841574319424802e-04 -2.0684779955412770e-03 -5.1610236846053948e-04 -3.0314088721471676e-03 -2.6216407694644367e-02 3.9196973521260059e-02 2.6830210527808220e-04 1.6827133884706131e-06 -6.3549077296408386e-04 -3.3221075572865402e-04 -2.5648497770394490e-04 1.1444746283940294e-02 9.1041416823250693e-04 -4.3272235809421744e-04 -2.7551881365196762e-05 -3.1503295034860912e-01 1.2137616692689981e-03 -1.7377008750444484e-03 -3.1637332834293375e-03 4.4637690861878097e-04 -8.1678655634866409e-04 2.1851425287561276e-04 1.7295531193875190e-03 -4.5255979068539449e-04 -1.8453134572253994e-04 -2.6295418349733552e-03 -4.0637276313547854e-02 1.6935841500780599e-04 1.4109394223891375e-04 5.9839966444328110e-05 -6.3851813659693626e-06 6.2473454652482502e-05 -1.5391337555057481e-03 -4.1634378680450307e-03 -1.2072354321922329e-02 8.5990300016753479e-04 7.6067274406408103e-01 1.6863767618318292e-04 -7.1581289851217408e-04 -8.8374136806677939e-02 5.4899920604437047e-05 7.6489908325472840e-05 -2.0418341993176832e-04 -4.7646892637309354e-04 -7.0893652808869719e-05 -3.7601577694445793e-04 -8.0055431513366415e-04 3.9382667968018481e-02 1.6071709062216374e-05 -8.0843199668311112e-05 6.2737079048476828e-04 1.0007752057136559e-04 4.1232735243563285e-05 -4.6190516497569417e-03 -5.1059914552741351e-04 -1.2905203966103673e-02 2.2927702227750306e-03 -1.0496453046143692e+00 -3.0462488958419524e-05 5.3626100368972807e-03 6.7083349582357243e-01 3.0688162077281006e-04 1.3012982441574540e-04 2.0941330695819528e-04 8.9250303025190797e-06 2.9267963657305870e-04 -9.2209184650490414e-04 -2.4887268837546495e-03 9.0542347568817849e-02 3.9664283569304272e-03 4.8596209937692234e-03 2.9282743470084405e-03 -8.5386290308357444e-03 -8.4874856397861818e-03 2.9749062067057630e-01 -2.2348705561247906e-02 -7.9321922967351993e-02 7.2894059927699250e-03 3.0301096513696280e-02 1.6815316965095482e-03 1.0576600380611208e-02 -1.9210457066534925e-01 -1.3962422706352701e-03 -1.0163019175959630e-03 4.6774578657623821e-04 -1.8101864532105065e-03 3.0968812085508364e-03 -3.7260848124810032e-03 -8.8625290668660969e-02 -2.3607399558128098e-01 -2.2485800027936605e-02 1.4019340799301047e-03 -1.3003292608024888e-03 5.0691536160188400e-04 1.1246070103903286e-02 1.9726943316635725e-02 2.2904815820750268e-02 -2.2974465103932620e-01 5.9540890463145105e-03 -1.9404700552968954e-01 4.6016426077523619e-03 -3.5577524689038853e-02 6.8399814110039064e-02 -1.1183281966125540e-03 1.7686197055270959e-02 -1.4168857839497221e-03 2.8064742069760368e-03 8.0134420036504644e-04 -4.0819412263882627e-03 -1.2135769724244683e-03 1.9137604784841286e-01 -2.2476097984920540e-01 
      </Row>
      <Row Index="1">
        -3.4834057623086239e-04 9.2898493014055856e-03 -2.9181535681207993e-03 3.4815531002139793e-04 -1.6896255860979968e-05 4.0807415951009056e-02 -1.0410185453362093e-02 2.7595377394017406e-03 1.2246377345837649e-03 -5.4068325773049963e-01 2.6479546696501620e-04 2.2021215046483995e-03 -1.0406690408262023e+00 6.7063521962117730e-04 -3.0368020366574222e-05 6.0413922499493410e-04 -4.4921896124202245e-03 -1.2870194350804510e-03 7.8140937554782022e-04 2.0374395554805629e-03 6.4066698220671014e-02 7.3639180828778195e-04 -4.4984437078438543e-03 6.5257814883613787e-04 -6.0015428354617990e-03 -2.1560141704378725e-03 -5.2179477083496115e-02 -3.0797382511314766e-02 -1.1589016855074852e-02 1.8248659662636283e-03 -6.6111525019491246e-02 1.0802960935177724e-02 -5.3017294010843999e-03 5.0889314759928084e-01 6.1791037747555644e-03 -3.3724180803246316e-04 8.5969897355071302e-04 -3.7276219495623909e-03 -4.6286864526822718e-03 -2.3225321778433550e-03 -6.5673736256341908e-04 -5.6996116226792126e-01 7.3998725046186282e-03 1.9380324399952591e-03 1.5055820267790704e-03 3.0161957979574543e-02 -2.3627830373443917e-03 2.7387441437339810e-01 8.3914190486822776e-03 -4.7316416235171999e-01 4.8591095927175646e-03 -2.7797130385932789e-02 3.2530953089354078e-03 -2.3653928569106794e-02 6.2022424062327275e-02 2.1684441822787715e-02 -5.9679042808169665e-04 1.2567777407280951e-02 2.7496950096712588e-02 -5.9359573482028957e-03 1.1655006670305206e-02 1.2302667820423607e-02 1.3315423451890274e-01 1.8167838310081830e-04 5.9095830176145701e-04 -2.3815166574368244e-03 6.6047850687777027e-04 1.3033322308612778e-04 -4.9264406671983910e-03 -1.0591824620183599e-03 3.3139866043014610e-03 -2.1490063219276696e-03 5.2609810240077692e-01 8.9688749218559802e-04 7.3799399902342655e-03 -2.5199770773775683e+00 -3.3795110826101383e-03 3.2660727643951421e-04 5.9433114070445462e-04 4.3838040809083788e-03 3.0990740934160989e-03 2.0360679068284720e-03 1.0242333440735435e-02 -8.9414602211730060e-02 1.3656570794773454e-03 8.8744000552966914e-04 -2.7150677171256894e-03 2.9895429470397140e-03 -1.9838495169291525e-04 5.5641190621366299e-02 4.8328931527365296e-02 -2.4015253038767628e-02 -3.4196256867547251e-03 -4.7643582562669273e-01 -4.7695874709780739e-03 1.3144885992586024e-02 -4.2887083860597386e-01 -5.0193754514595880e-04 1.2220076772754456e-05 8.2292192139186591e-04 4.4373476100239787e-03 -1.1280869518131408e-03 2.9398219113423154e-03 2.5821953799957977e-02 2.5854874645501358e-01 -1.6947402493274627e-04 -1.2529668427640759e-03 -4.5425406102549441e-04 4.2051794777492775e-03 1.4102875679198205e-04 3.3291295021713227e-02 -2.0650431899910913e-03 -5.4512198019112390e-03 1.7225622321283725e-03 -2.6070388001976141e-01 5.5483990683210856e-03 1.4000558611895584e-02 2.2982748650667872e+00 5.0942545488624541e-05 4.3961017167820702e-04 -1.2919570879378096e-04 7.2217161958796033e-04 2.4472474551136473e-03 -1.3507364985902489e-03 -2.4804984245376853e-02 -1.5743910192203958e-01 2.8749789268938840e-04 -4.7713936036562193e-03 -7.9144150594105873e-04 -6.9742775628575063e-04 1.3790132915740395e-03 3.1526371738577683e-02 6.0885440893111209e-02 -1.9405076872276339e-01 -1.0173361194238333e-02 -2.3325389556054565e-01 -4.8945837159515744e-04 -4.3073717328162286e-02 9.9114849461180654e-02 -2.6815280510237810e-03 6.8883289614729516e-04 2.4803848999609681e-03 9.8119966707574217e-03 9.8918422242457284e-04 9.5132388653518234e-03 3.4431483827679563e-02 1.5694425036397730e-02 -2.7285072100886182e-06 -6.2403747936617023e-03 -6.8281655315261302e-03 5.3507192877697148e-04 9.0909373019845474e-05 -4.2376142176023979e-02 3.2462768825144053e-02 -1.9894746106913101e-02 -3.4599645318749901e-03 -2.4670210467963187e+00 -5.4788799420704502e-03 -1.0109160985487252e-02 -3.3672709643349492e+00 -1.4494275550434449e-03 5.9733894090420589e-05 3.3691447427557559e-03 1.4438419591618665e-02 3.7096205659896296e-03 -2.6688356211356391e-05 -4.2260087276656966e-03 -2.9791169742457835e-01 -3.7482706961319650e-04 -2.5744594256072945e-03 3.2676488911170323e-03 -1.3358087260646554e-03 -2.7443726470387545e-04 -9.9480036258498411e-03 1.5023694622666124e-02 -1.2836708824918469e-02 3.1268714323893412e-03 -1.1480888140723291e+00 1.5983816276200933e-03 -7.6853353095260729e-03 5.9328025723863220e-01 3.8070636762397251e-03 -6.1727305428760978e-04 -6.0474819155246432e-04 -6.6014440543466467e-03 -3.4098111488522105e-03 -3.9868215069866200e-03 -1.3187937759033264e-02 1.1647785353811635e-01 2.3476359145532875e-04 7.1515943570856690e-03 4.7976697400355112e-03 -2.8384949542143735e-04 -5.2714057164773929e-06 1.7676522580952245e-02 -2.8457739420951374e-02 1.7563691292571293e-02 4.0466735344648307e-05 1.5330733372175276e+00 3.8438507027867583e-03 9.9533464596052272e-03 -1.3231525218511706e+00 -9.9000299580740726e-04 4.1164038563748902e-05 -5.4501425886866895e-03 -9.9765266870839100e-03 -1.6638233106337722e-03 3.0098495226997188e-04 6.2022174243730327e-03 1.5586255726777765e-01 5.9139347799488364e-05 5.0856547088422711e-04 -1.8811744657390257e-03 1.2579981099137562e-03 1.5210967777854134e-04 -5.9277090704079882e-02 5.8273412966193608e-03 1.3013354470725685e-02 -2.8361079931392037e-03 -1.8242342771560729e+00 -2.8341531778746827e-03 -3.5858510350250256e-03 1.1075936566852391e+00 -2.8727128468099966e-05 -1.9053219369124315e-04 6.1095868261359758e-04 1.0636376787674633e-03 -2.4681702121345274e-04 2.7763895719730845e-03 2.4014651291066759e-02 3.1122292064386969e-01 1.2422837864925645e-03 -1.1921628609689976e-03 5.3208171468238745e-03 1.4915206658424459e-03 1.3259607145174775e-03 -1.3771092675347696e-01 -4.9229342010553581e-02 -2.9569364410670013e-02 -4.2874737202423865e-03 -5.9647588940798357e-02 4.8303842299508744e-03 -3.2780913186022630e-02 -5.7378615423090196e-02 4.4519548189360381e-03 1.3976364046988281e-03 -1.0561855803828016e-03 8.1549239272139130e-03 7.8032752815271333e-04 5.6692650338157867e-03 -1.1659043775664523e-02 4.2965649440337650e-02 -9.6223443044547393e-04 2.9786036508707651e-04 -2.7179124931450589e-03 8.1224249615482070e-04 -5.7427395419378977e-04 5.0784990024266119e-02 -2.0205620544956535e-02 3.0346051387575845e-03 1.6975493094617700e-03 5.4092758744698699e-01 -3.4458077416555490e-03 -3.4620212649243837e-04 -8.0598761789951823e-01 -1.5467597933311455e-03 -3.3442178985810454e-04 -6.2685587455537576e-04 1.9916163531030831e-03 -3.6301400210921302e-03 -2.3329841611037794e-03 3.7420168262587705e-04 1.8807422032826954e-02 -2.8139970235278129e-06 -1.5876214419440447e-04 1.2032093637467586e-04 -4.9603240895657388e-04 1.0476991740571609e-04 -1.9152624119446862e-02 -4.1139132776441528e-03 5.5020920138286519e-03 -7.0074559629154654e-04 -2.1376300428636696e-01 2.9654997511214553e-03 8.7390455663372175e-04 -2.0997166576165682e-01 4.7774865168890429e-04 1.4359070985886058e-04 5.2049083424976451e-04 -9.9476225457271854e-04 -6.9893224574870544e-04 1.4068819015973493e-03 5.2037019876344237e-03 -9.8178650945476953e-02 1.8569023601266001e-04 1.8147006360782853e-03 4.5017757056453004e-04 -1.5746845799998756e-04 -1.6781107609098607e-05 2.0585026845638111e-02 -1.7331096904477462e-02 3.7805473141963031e-03 6.5205836198443078e-04 1.2665615819972800e+00 4.7526572805619508e-04 -1.1336167578565003e-03 1.1055860208621482e+00 7.8904140336918515e-04 2.6873518488789621e-04 -3.7048253920085854e-04 1.2182741277093596e-04 -5.4777232036276515e-04 3.1842505002168363e-05 2.9429844888038958e-05 1.7721911794548677e-02 -6.3288912811093959e-05 1.0087409674381207e-03 7.1143897922701740e-04 2.9894387940724914e-04 -1.9388249933832160e-05 2.0656646254750610e-02 -4.6336009013149479e-03 9.4504595370981104e-04 6.1424792299036822e-04 3.8325942457279183e+00 1.3098293095989430e-03 1.1024704415362355e-02 1.8372074230168280e+00 1.3345082046055338e-03 -1.0542726329201293e-04 2.3940842227089098e-04 -6.2309416883899469e-04 -1.3431199018385303e-03 4.6633160622614129e-04 -5.2116145515432866e-03 1.2353926362283074e-01 -4.8582562501229996e-03 -7.7116861836982781e-04 -9.1558761719349666e-03 -8.3147178712971170e-03 1.1414325203250248e-03 1.2328529088562035e-01 8.9172696994934283e-02 8.6099322389493915e-02 -1.0909213172816991e-03 -7.2947158666551104e-02 -1.4610914868429867e-02 2.5432201991074051e-02 -2.7588764756984574e-02 -1.8856518308137921e-02 -5.5199059020190084e-04 -8.9007034045735824e-04 -9.2241794724260383e-03 2.4312141102206565e-03 -4.3522523928412960e-03 2.5581064507657736e-02 1.8953063733755826e-02 2.7000759280631508e-03 6.9738715990790429e-03 -7.2327236219024878e-04 -5.2430082465001618e-03 -1.7297692216899445e-03 -1.2411699628246162e-01 5.1064316208212807e-02 1.6246108716394932e-02 1.0152970681048812e-03 7.1091242129166088e-01 8.6709276510872832e-03 -6.8163245152808027e-02 -6.0664254686502350e-01 4.1026558709149341e-04 8.2907720967269512e-05 -4.1879839814270743e-03 -5.6380415497794267e-03 -4.6590183615929856e-03 4.2734747095987003e-03 1.0792472665839270e-03 -5.6904959038811750e-02 8.0026258879757062e-02 
      </Row>
      <Row Index="2">
        -5.2500265782569732e-03 -2.9181535693266957e-03 5.3526436863279170e-01 -1.3186467121967336e-03 -1.2127162030613815e-03 -3.6052686450980087e-02 -6.0729727378910581e-02 1.1576790154971744e-01 1.8661518937161156e-02 -4.1056787328008291e+00 1.3637041344901074e-02 1.1777606510064353e-02 1.2225737092791817e+01 1.0721607093714900e-02 -7.9367560874565000e-04 -7.0804530496521474e-03 1.9893202094804499e-01 -2.8590641369562821e-02 3.2311581368641637e-03 -3.7110593864112217e-03 -5.4417566851884658e-01 -7.0747677385590560e-03 4.3177722608184720e-03 1.9602815535926069e-01 1.4521487148235541e-02 -5.6606309888241745e-02 5.1393393547936983e-02 -9.9132881017028537e-02 9.0796715337981115e-02 -2.2594677507568637e-02 -1.2289214039424223e-01 1.3823638708458377e-01 8.8805822252397026e-02 4.1500378573019248e-01 1.8261211537691027e-02 2.8311039657706312e-04 -3.7056556257797153e-03 -9.0628624278100450e-02 -8.1683945757937110e-02 4.7813968009731610e-02 8.0924888309043722e-02 2.0631799701076652e+00 1.3917126555036019e-02 1.0786589399637425e-02 5.6259667265364660e-03 1.0034170462772890e-01 -1.6735934339509009e-02 1.0608727644038518e+00 -7.3022444901092110e-02 -2.1773739636058291e+00 1.3200089369524014e-02 -1.0994724015986890e-01 -1.2752265414594458e-03 -5.1396845077574978e-02 3.6304769347196952e-01 8.3998903272175102e-02 1.0102280777680713e-02 -1.4021118042653942e-02 1.0678860195359928e-01 8.2827049576686199e-03 2.5774483132566126e-02 9.0893317677921102e-03 1.1665748476526749e-01 6.2669185028168184e-04 3.9259904531497788e-03 -2.2776350300860403e-02 1.1245747638585688e-03 -4.9771447285196582e-04 1.0991999137689445e-02 -1.2147356147556286e-02 -5.6070024787546486e-03 -2.6619656692721334e-02 5.4858135529474907e+00 7.6382018700970333e-03 -1.9474097742940136e-02 -7.9938059401184773e+00 -1.4653268949257052e-02 1.6791265189951170e-03 1.0603441364130800e-03 1.8020770309098089e-02 4.0458536803532140e-02 6.9459245166196577e-03 7.6242791201868165e-03 -1.3722555716563807e+00 5.7669614610952949e-03 -2.5812469732815549e-03 -1.2873038863748654e-01 1.5942590536658779e-03 3.1880586487353199e-03 -1.3892766128137335e-01 3.2338360792135978e-02 -8.2115351452586305e-03 1.4941797351765079e-02 -1.2485211456149039e+00 -1.6981538075829444e-02 -3.0968815289086210e-02 4.3946921815941096e+00 -1.0075529614269614e-02 1.0419347607130411e-02 1.9016376771522764e-03 9.3062409267533730e-02 -2.6346726257332798e-02 -9.6917251160108069e-03 -5.1957665130542230e-02 8.3914358432796377e-01 4.3359016599177954e-04 -4.0860829194507911e-03 -2.4722488417557725e-04 3.9112702900371164e-03 1.1433281296540983e-02 -4.0921461928092873e-02 -2.8206823824677901e-02 -2.1434523702948294e-02 1.7699662885608015e-03 -1.0736639681244924e+00 2.7957990365305534e-02 -8.9451041614891924e-03 -6.1379249408173564e-01 -1.8215920049147235e-02 1.6746137673095147e-03 -2.0695989770157415e-03 -7.3950441231718442e-03 6.2283693837755436e-02 -2.2059972410707840e-02 -1.0099795512386049e-01 -1.9905538489617847e-01 -8.3699332322249038e-03 4.8785988345874370e-03 -9.3262446291994150e-02 -9.5149702654960620e-03 1.2369025989354347e-02 -6.6712767511492022e-02 2.0331454020783749e-02 4.1216186994140891e-01 3.3505255986960247e-02 -2.6100094685199693e-01 2.1183977405591199e-02 4.3345987812574455e-02 1.6603285452389613e+00 3.6889096921765001e-02 -1.2745131148760143e-02 1.4770898369297758e-02 2.6439143186219857e-02 -2.5077631799338244e-02 1.2525196929881584e-02 7.3035197768775595e-02 2.7336742557826970e+00 3.7330688972441318e-04 7.9574579501146617e-03 1.6422114278270904e-02 -8.2934668672075156e-04 -1.3442735217153857e-04 6.4377870084837863e-02 -1.3807403379829893e-02 1.6002504358650907e-01 8.7538027039296504e-03 -6.5248444185613153e-02 1.2852929107439345e-02 2.4118264287232034e-02 -9.5744807509562406e+00 9.4835933100602468e-03 2.4384735000958649e-03 -8.4563386243900231e-04 -7.0237855393158952e-02 -8.7465126233382939e-03 3.0690252829608669e-03 6.7991405032054933e-02 1.4243543939583558e+00 2.6366113244754314e-03 -7.0246997730933937e-03 6.6913646666884909e-03 -1.5071275720460395e-03 9.4039809857559306e-04 -8.2499601975844494e-03 -7.5511402535921590e-03 1.1177249315847559e-01 1.0001410299748374e-02 -2.9756360657734895e+00 2.4534360826619223e-03 -1.2874338856595766e-03 3.0772224260789613e+00 5.7948756489378736e-03 -5.8226937608338552e-05 -2.1029024259843149e-03 4.4646112859329248e-02 -2.6472416367733703e-02 -6.3082064463782089e-03 -3.7289425077837238e-02 1.1961253232624784e+00 -2.5420976625691385e-04 -5.6337273163372037e-03 9.2897823146868910e-03 -1.6586990973962556e-04 1.4330659598834768e-03 1.7876799242314889e-02 9.1385012088409552e-03 1.0674727979686383e-02 2.4703076267840164e-02 1.3292008987138573e+00 2.0062894500318456e-03 -1.2120686647299353e-02 -8.4470339322958807e+00 -1.7650788508303060e-02 3.0347117572131254e-04 -2.4088312070147215e-04 4.6648797958840187e-02 2.6208807629369626e-03 -1.4898041306965945e-02 -8.1823112552293797e-02 -1.5479410879737694e+00 -2.2999159384655735e-03 4.2450994021083583e-03 3.2566301233185276e-02 2.8361196430951637e-03 -2.1109927382457669e-03 2.2669256974775009e-02 2.6114456634632986e-03 7.7825307141592415e-02 3.3947074782940269e-02 -6.2380996751642215e+00 -2.6224059975112970e-02 1.4051452359453737e-02 4.9222761694533119e+00 8.8917883863105993e-03 -7.6445610934097515e-03 1.8460004392353490e-03 6.1141357478845942e-03 -2.5146122075133556e-02 2.2344419986971075e-02 1.2110355107022984e-01 -3.7128243046468032e+00 -9.2935138462302280e-04 2.2145360461281058e-02 -4.8751119219614045e-02 2.9886600802423415e-02 1.3436210866185376e-02 -3.7465589735161098e-01 -3.2115691259094203e-01 4.1359946553699900e-01 3.7526769086897865e-02 -2.9980164926384489e-01 -1.7405380108021260e-02 -9.9910836408563297e-02 6.9958319473050778e-01 5.9769664983625612e-02 -2.1251063965064078e-02 4.5219626967484647e-02 1.6579298869034650e-01 2.5581153137053649e-02 -5.1805212877172740e-03 -2.5163323558023981e-01 2.3718756498207711e+00 -4.5033211683734187e-03 6.9107218179283321e-04 1.5339782603145141e-01 -7.3246699355427247e-03 -6.4591777651291178e-04 3.2262683270709713e-01 -1.1034205486554552e-02 4.6318164527840844e-01 5.1686346341779002e-02 3.5210310119667412e+00 3.0607268561362630e-02 2.5595749794402572e-02 -1.5665643428811194e+01 6.4984815606536725e-02 -2.7951395489871321e-03 1.9888330524285868e-03 -9.1671994064583040e-02 -4.1838141353845157e-02 4.1509461945319182e-02 1.1080005614089924e-01 -9.5277223646771447e-01 -1.8510806303421532e-03 -3.0570766661080565e-03 1.8242907487197771e-02 -4.4022103714693936e-04 -1.2080019439368551e-03 -2.8507827972600319e-03 -1.7260313154687040e-02 -9.6329969375123670e-02 -7.4063900548500539e-03 -3.9732107678190687e-02 2.9791209241484692e-02 -1.1579141850334039e-02 8.3021225162698045e+00 -6.9595667470230480e-03 3.7257552320431463e-03 9.6502933331763007e-04 -1.2669768258254900e-02 -1.3893998545862027e-02 2.3704546135178278e-03 -4.3633514804020029e-02 5.6842089595288847e-01 2.3038654942123091e-04 3.1336193585030140e-05 6.7788015225474160e-03 -6.8943951991267197e-04 6.3907684900476377e-05 -1.0533944725352004e-02 1.7575069593783674e-03 4.6374951456245039e-02 1.4236607789212680e-03 -7.5703551054584182e+00 3.8339530063507751e-03 -4.5456569311401740e-03 2.3126841740964892e+00 3.5889878363648759e-03 8.6188304368557808e-04 6.2241187685049999e-05 -1.5730468332692440e-02 2.4337708716975007e-05 1.3726108098244573e-03 -6.3231878783140752e-03 5.0280998390701437e-01 -7.9814486780451117e-04 -5.7522522608664979e-04 -4.2191087103197328e-02 9.3877795749917913e-04 -9.0866246380131102e-04 -1.2446146455630691e-02 -1.9546621688942875e-02 1.1106665940092599e-02 -6.9838096806097739e-03 3.0877378311914754e+00 9.2257113364752046e-03 2.7337304461816342e-02 6.9150445967958944e+00 2.5612284155941689e-03 -6.2479882497273713e-04 1.5911966279445779e-03 -3.7934267506855399e-02 -1.8562310294307147e-02 2.9679209917101495e-03 1.7736564235490943e-02 -1.4751638704552512e+00 -9.9245945883436291e-03 -2.3929154750938937e-02 1.0558296790698078e-01 -8.1854382220597474e-02 3.1713621717743924e-02 2.5007801603435925e-01 3.9354905779972682e-01 6.9774865505938721e-01 -4.3205003169090622e-02 -3.1192737865168496e-01 -1.1303404394258809e-02 1.0735425611402444e-01 4.0182445418766832e-01 -1.5599252964511034e-02 1.2252883532449401e-02 -2.1067332381908221e-02 -1.2240734482105249e-01 -5.2254620491116316e-04 2.4842968751891736e-02 3.1640678478374928e-01 6.6951666353040284e-01 2.7428129085479806e-02 -1.2871981790306367e-02 9.3371426963939297e-02 -2.6058751992860951e-03 -3.8085003462131985e-02 2.7209399852557753e-01 4.4677697955659124e-02 4.8404253955729293e-01 -3.6458084932043333e-02 2.4686261619723346e+00 7.3651780806026773e-02 -1.0699027201946620e-01 -1.8445328510999346e+00 9.4603945227492714e-03 -2.7739245837070398e-02 2.1412679654875624e-03 1.5033874446821471e-01 -9.0932892122900705e-02 2.7172424946331368e-02 -5.8060616751487437e-03 -1.2601430169611572e-02 8.3538306759879710e-01 
      </Row>
      <Row Index="3">
        2.5473203639123922e-04 3.4815531151016207e-04 -1.3186467088039033e-03 2.1635840049623628e-02 -7.2733103076723946e-04 1.1993698219587678e-02 -1.9426792815352412e-02 -4.0586509135668011e-02 3.2602084489495343e-03 3.2189078125539261e-01 1.8895657948266485e-03 -2.0884069501497654e-03 -8.8923355392966574e-01 -1.7812715871558841e-03 -6.8162507989011204e-04 -6.8730406615016533e-05 7.8724484126753182e-03 -4.4822285231970556e-05 -1.9282324392502635e-03 -1.2056491195522392e-03 1.2922504608820873e-01 3.3486296080417863e-03 3.3501261059082355e-03 -1.9667016186581338e-03 -2.5260482388340812e-02 9.0354432309795070e-03 -3.4940529130318011e-02 7.4348238667337127e-02 -2.5977596735794217e-01 -1.5374588195134140e-03 -2.9208741682806760e-01 1.4855322584892486e-03 7.9517385485283754e-04 6.0504194355596042e-01 1.8329141507254336e-03 -1.2317737559138235e-04 5.8327755740819262e-04 -4.8518398368716763e-03 -1.8550686239154962e-03 1.7412701390925036e-03 -2.2828989210355848e-03 -3.2946748308285478e-02 -8.0831675832685936e-03 1.5720094657174955e-03 -2.0969647404309861e-02 4.8052374007678221e-03 1.3669277799835007e-03 5.1823241204470749e-01 -1.1236553457583548e-01 -2.6026330477143844e-01 -9.2975649587591601e-03 9.9042297748731301e-02 2.8002582797037909e-02 2.3780881407515896e-02 4.2843139674339170e-02 3.9874795474673111e-02 -8.7475557464115564e-03 -1.1846254215486848e-02 -1.8988694138289186e-02 2.3784609911778283e-02 -3.6310793829079104e-03 4.3733045823739214e-02 -2.3406217603250568e-02 2.5992182024702230e-04 3.9354662294384380e-04 -1.7240808577971972e-03 -9.1992027092313144e-03 1.7411714918108665e-04 -8.2210167605600293e-03 2.1816055895528926e-02 -3.3685549259484960e-03 1.7686489275744472e-03 -1.1368694961951649e+00 -1.0168105472037061e-03 2.6656614186908838e-03 4.0654146970114553e+00 3.9356132821673270e-03 4.5804005559534500e-04 2.4527375184122454e-04 1.5140003837644670e-03 -9.7928481621115029e-04 -2.0326584333381480e-03 -3.0588005776428156e-02 -1.3073261561922678e-02 -2.6950128325299418e-03 3.5006053952650325e-03 -2.5317529208512823e-03 -4.7746580408575566e-02 -1.7671375383942287e-03 -1.8407523676607696e-02 1.2409109812408008e-01 -1.0116980506155293e-01 6.2611877304805247e-03 8.8390761407284302e-03 5.8925242873843035e-05 -1.6454826774218875e-02 -8.1408688210331093e-01 2.9204168603685493e-03 -3.9771536316620375e-03 2.0542627986940105e-03 -4.1821468185944885e-03 1.8441395797563582e-03 3.2328985157797341e-03 1.2254898557559790e-02 8.9227276927832833e-02 5.8833065242014076e-03 7.0186461645077728e-03 -4.0722157652789102e-03 -6.5910074081356518e-02 -1.8885275975324789e-03 -2.7472481939459586e-02 1.4989858270584638e-01 -1.4134115296372007e-01 1.9550013841409364e-02 -2.5029003562310663e+00 2.3825593189164738e-03 -1.0005214775075350e-02 1.2920623116790466e+00 8.0119046332073150e-03 2.6021162534839329e-03 1.4271193218931043e-03 -4.7500096371756659e-03 5.1541015481862164e-03 -2.5864007200820864e-03 5.1875833527361345e-03 6.7841115457890688e-01 -7.6310818294432481e-03 -3.2230439798541042e-03 7.9328206539090035e-03 2.0447524290961557e-04 -2.9771561252279902e-03 3.7131621495470335e-04 -7.3018801050705184e-03 -1.2956031435735210e-01 -2.5277134315188025e-03 -1.6974455694922774e-01 3.6110228764857756e-04 1.5333914087957172e-02 -1.7240213540597438e-01 6.1511174077013425e-04 -1.1234755577242354e-03 3.2348189398676046e-04 -1.2356713791024284e-02 1.3484551702969225e-04 1.9459615851138258e-03 -3.9697609762508357e-02 -5.4149057531203226e-01 -1.2628052354460837e-04 1.3894135090426513e-03 -2.2351104179570841e-04 -1.7424192895728881e-03 3.1306245148414154e-04 -1.5553489527098563e-02 1.2277688625696608e-02 1.6792633398646194e-03 1.2337122554124079e-03 -3.7573595332303000e-01 -5.6908958446201356e-04 5.7747539335293793e-04 -2.0982071206697128e-01 3.1818817110898703e-03 1.4857311795832083e-04 2.7447862405768019e-04 -2.4002703100354378e-03 3.0917907565727377e-04 2.5515301932524728e-04 -3.5657247174867707e-03 1.6152359173130404e-01 7.7803910518294472e-04 1.2143070083647962e-03 1.0576824004337416e-03 1.3022200157366430e-02 4.3616065599405692e-05 4.3940856981281723e-03 -2.4993551690647871e-02 3.7598161202095179e-02 2.0927711990687339e-03 3.7328731785803169e+00 4.2560038903729346e-03 -1.0680082566486754e-02 -1.2637601444882449e+00 -1.4602651112025061e-03 -6.9091898220068613e-04 -1.5244464436135405e-04 -5.7905600641913572e-04 1.3967002812497536e-03 -6.2755061427669130e-04 3.4187034553745985e-02 6.9345547901903171e-02 -3.1058924894503224e-04 -1.0930813206763965e-03 3.9243079672627711e-04 3.4558805108042823e-03 -3.3933410675945664e-04 5.1498310411970394e-03 1.1580711588022322e-02 6.8071512193724981e-02 2.3732129111336056e-03 -2.3195745230291340e+00 2.0437483355814244e-04 2.4338471720072065e-03 2.8782576054285869e+00 -3.3194262899664487e-03 -4.1557281861783477e-04 1.8442521440771957e-03 1.1836907824154738e-03 7.4720368900724676e-04 2.6176327909875098e-03 8.3043560082408513e-03 2.5495786041491275e-02 -1.9554480569749320e-03 -1.7410385843946862e-03 9.2927042641995604e-04 -8.8713395029779898e-03 -1.4044901549357166e-04 5.1630628067312889e-03 -2.5962812826325590e-02 5.6891933973298225e-02 -4.5815616346851287e-03 5.7147269955318478e+00 -2.9677742429678111e-03 8.8992612647603234e-03 -1.9173739181529044e+00 -1.3945483619076764e-03 6.4366845339262164e-04 -1.0141132102681992e-03 6.4922977839611956e-04 -6.7714230787448842e-04 3.4497978742350794e-04 -2.9415578930808126e-02 -8.6237685535048392e-01 -3.7069746603917535e-03 -5.4382213704913234e-03 8.1667072880986444e-03 1.4103157960944714e-02 8.5815841871100243e-04 -3.8470288126410956e-03 1.3623395227130734e-02 -2.0917322255771287e-01 1.5577892594978739e-02 4.3799021528114679e-01 -1.4594292852410096e-04 1.6853507878792306e-02 9.3593436128003304e-04 -2.4801212220785074e-02 -2.1850858546726849e-04 1.6807506631477360e-02 -1.0312629464326373e-02 -2.3934715046915779e-03 7.2543265190072349e-03 1.7965989552222561e-02 2.8396884037353054e-01 2.8307425394211057e-03 1.3272815579587430e-03 -1.6653932062471802e-03 3.3611975687854630e-02 1.1226591618936379e-04 8.8420907908228999e-02 2.4512664508536681e-02 -6.8756523011554438e-02 -5.9500535245019560e-03 -3.3044118191351579e+00 7.1075501607159438e-03 6.7103244420371830e-03 5.2414345720458186e+00 -6.0857642950403346e-04 1.5376373021289552e-03 -1.9651714267508100e-03 3.5325565724002583e-03 6.3287239967908821e-03 -5.4236567770849127e-04 4.0793381277945212e-02 4.2126833773192018e-01 -5.0815519705770993e-05 -6.6561420839613729e-04 1.0118009256078360e-03 4.3421086304286675e-03 -6.2217760405369467e-05 -1.4975566309593055e-02 7.3927939775325947e-03 -1.3277474761936858e-03 5.9168802138814119e-04 1.6765384079265004e+00 1.2026344231306956e-03 -1.1024501673468981e-03 -1.4905778375086243e+00 -6.9095350099802194e-04 -8.5748331715619023e-05 -1.0335904232214479e-03 -2.3473812088095070e-03 3.4263387143995683e-04 -2.2913585125631034e-04 1.2878674794158072e-03 3.6067077919539692e-01 -5.2754242335056878e-04 -2.1880066583158941e-04 4.9552704601151052e-04 4.7297625745052431e-03 -1.7849083123032134e-04 2.4570962862016524e-03 1.3359993513900598e-02 3.3394502068078147e-03 1.8705505619153080e-03 3.4158644411467094e+00 -1.0696083035279826e-03 -2.1659766478289363e-03 -7.4549663538144273e-01 -1.5154202917474907e-03 1.0344994396142490e-06 2.6416039558842599e-04 -2.1246588895378858e-03 -5.3145613106231684e-04 4.3107218757823442e-04 6.8491105286031251e-03 5.3335554161425414e-01 -1.0642759084567098e-04 8.6343448152587533e-05 2.1544444106602265e-04 1.7575437603200850e-03 -1.3850269694706460e-04 7.8913624602862803e-03 1.8042684015865257e-03 3.5342013185279239e-03 1.7632362229543517e-03 -1.5888613475146087e+00 8.6926891313673796e-04 3.9812667666733852e-03 8.1831790260082471e-01 4.6822566555498185e-04 9.8410361176272593e-05 -1.0164722970448098e-04 -1.0519261183902871e-03 -2.8072643008235885e-04 -7.8052643379530103e-04 -4.3736253533931124e-04 -2.6760388993786066e-01 3.2328417613797619e-03 6.9008475782174946e-04 2.7922607801337523e-03 3.5730665896869865e-02 -7.1633582593821840e-03 -6.6354696572563543e-02 -1.7990211662184646e-02 2.5232765249021250e-01 -2.7095901667861910e-02 3.0115207722326431e-01 -2.6757314816264854e-03 5.5387685723136404e-04 1.4228262658656377e-01 9.9725379338118994e-03 4.0449107997498762e-03 -1.5747701804307936e-02 2.0537076453385348e-02 -1.2114152620338742e-03 -8.2315220700342924e-03 -2.2725229926162049e-02 1.8806216299434553e-01 -1.3343751871776331e-02 -6.4785141444793242e-04 1.5333694933888399e-05 1.0609844888748138e-01 7.9739980541507563e-03 -6.1838768014649687e-02 -6.1617228998865459e-02 2.4184878707341090e-01 -6.9995358582288641e-04 -2.5558587695959729e+00 3.3863988586316333e-03 -3.2810019074714258e-02 8.7673003142857664e-01 1.2931788067282735e-03 7.2021822005684053e-03 1.4591155402413959e-03 1.0778346525989413e-02 -2.0096816447634017e-03 -3.9384229802173695e-03 1.1759810975204843e-03 6.9614720044811218e-01 -5.2920752048190622e-01 
      </Row>
      <Row Index="4">
        7.5429565078549558e-04 -1.6896255946564367e-05 -1.2127162037006819e-03 -7.2733103022318551e-04 2.1778444329798381e-03 -3.5694608618047213e-03 3.6933403959685321e-03 5.8557855317351581e-03 3.7063484609484469e-04 4.7097250008700797e-01 -8.8276468593124113e-04 -1.7547139484279384e-04 2.0862165100082353e-01 1.7359863367124107e-03 3.7795633115896325e-04 4.1184825077319120e-04 -4.7773964217066242e-03 5.7756761811374841e-04 1.7559093552157754e-04 4.1987987828810344e-04 6.8530877072262797e-02 4.2806425849529536e-03 -8.4843507574482169e-04 6.4898674594132590e-03 -2.2152953809208731e-02 -8.8057641182901440e-03 3.6374085140694304e-02 -8.7786623286169332e-02 1.6310387865661621e-01 -2.3839845247075001e-03 1.6828616342923652e-01 3.7496124261968532e-03 -2.6164085415532889e-03 -2.6465218044350536e-01 3.0365690525661453e-03 -1.8792412068193424e-04 -6.0017134117075726e-04 -1.2742563115997791e-02 -2.0539040516292413e-03 5.3985745126916224e-03 1.3259954465474233e-02 5.1649626317737773e-01 1.7039375994152021e-03 -1.8632023629739491e-03 2.6926481534802274e-03 1.0921036480351469e-03 -1.4123799134149963e-03 4.3396081257548458e-03 -6.7568100336645731e-03 -2.3110804064463686e-01 -2.9576311620996302e-03 3.0388808537615830e-03 1.4349954600406251e-03 2.3175131173243865e-02 -1.4135805626779074e-02 1.0525409778641885e-02 7.4211053409450108e-04 -2.5796473112999103e-04 -4.1973601394742210e-03 8.6951282681468206e-04 -8.0756614565876371e-04 -2.4284006121521720e-02 -1.6103521333677850e-01 4.3826547256635093e-05 -8.1747556789916976e-05 3.1847863489398555e-04 -2.5717436558336977e-04 -8.0335300767131316e-05 -3.1347861817497685e-03 1.7781447806889290e-03 1.0312074406894862e-02 6.8045767970300848e-04 8.8502525435447676e-02 -1.7348619650012697e-04 2.5733279633558849e-03 1.8490537534494678e-01 1.1221038628891412e-03 -4.5078333464397308e-05 1.2027359327090631e-04 3.6014371883955412e-04 -4.1588986940277548e-04 1.4012220414848786e-03 5.4765211499699399e-03 1.0182841465154054e-01 1.5229076366042957e-03 -5.5827278772273541e-04 1.4702089439848631e-03 -1.2424921400636156e-03 -5.2567707079350734e-04 -3.9058693151319268e-03 9.5082084164455766e-03 -4.6328131438311271e-03 7.0168870663224470e-04 -1.4304983980831598e-01 -1.6657281067110248e-03 5.4934628033978250e-03 7.1954422764918036e-02 1.3653567032209137e-03 -8.1431810960241185e-04 -8.8653333423293484e-05 -1.0298196518690971e-03 4.0315571818557599e-04 -1.2286714074575362e-04 1.7946262470671659e-03 3.1424765989106263e-01 -9.1671449495331456e-06 -5.5511789099660022e-05 4.0347031536335301e-04 2.4469647045956893e-03 1.2091292596478917e-03 -3.8825826439160410e-03 1.3419657329575951e-02 4.2244386047992966e-02 4.6924469537787047e-04 4.2452262428241738e-02 -1.5997706028004137e-03 1.1596803225420171e-03 -6.8289496167182051e-02 -2.3447524415681036e-03 3.6382046170225796e-05 4.1355702008415846e-04 9.3815089535847704e-04 -5.0245724551463259e-04 -1.4003524505016313e-03 1.3643311313164819e-04 3.2370219993021365e-02 3.4021647399129300e-04 1.8047886210575178e-04 -9.2466738859291846e-03 3.3124833493294588e-03 5.5047483662293952e-03 3.9203696295412316e-03 5.1291000907463580e-02 -2.7681490409704612e-01 5.0961820806977491e-03 -9.0701943549944986e-02 -2.8723625150762792e-03 -1.5866653468045326e-02 2.0347698519223911e-02 -2.1859818794442059e-03 1.7021374582638473e-03 -1.7852935097395408e-06 2.5570032769211701e-02 9.1413785309608486e-04 -5.0522400375771943e-03 -4.1640567784707372e-02 -1.0681326357311991e+00 -3.3217963806409455e-05 -1.1642697421508008e-03 -5.9500922638932793e-04 3.9124073852188102e-04 -1.2675236062884834e-04 -3.2867142871881028e-03 3.9428450210100309e-03 1.4468018168640718e-03 2.1436563928039316e-03 -1.4755604243606513e-01 -1.0691299039005710e-04 6.0395947966314714e-04 -3.0070329355993408e-01 -9.5494591268477196e-04 -4.5264314031762337e-05 3.2960930122703943e-04 1.2616491675202565e-03 -1.2364650756937286e-04 -4.9437583168688822e-04 -8.3704268734315773e-04 -7.5751629288389077e-02 -9.1040444418526525e-05 -5.2926690527242486e-04 3.3808299007698456e-04 1.0309136247722240e-03 -1.9566285615000464e-04 5.0527392205247830e-03 -2.1915784772465613e-03 -1.3164323482923179e-02 1.0183191901418781e-04 -2.5519481260585053e-01 -4.0358176793190217e-04 -3.6938211425923155e-03 1.0673227111442429e-01 -1.4736107263882874e-03 -4.9727450400230465e-05 1.4285815254053407e-04 -3.1244264842246825e-03 7.4884189051667330e-05 -1.2450796462727851e-03 -1.7405340311076878e-03 8.5765989270308429e-02 1.0387318706372257e-04 6.8434463528674588e-04 -8.0554031393372970e-05 -3.2747934017935895e-04 3.9686512505826001e-04 2.6700727870471661e-03 2.2328743535126238e-03 -1.3443917308700204e-02 -2.7006942235786716e-03 -2.1556178814206817e-01 -1.9339769583618868e-04 4.7226224064161187e-04 -9.8183946449665882e-03 1.6304907097191334e-03 -1.3224562298099971e-04 -1.3631071824869593e-03 -4.4961657133647456e-05 -2.6768471466699661e-04 -1.0608340796662025e-03 -1.2406765518651226e-03 8.4681792957705337e-02 3.9766553794625607e-05 6.1927288612880068e-04 1.3394811142502898e-04 -7.9828966038305010e-04 -3.2696038481075265e-04 2.6438181918342352e-03 -4.7486985590528621e-03 -2.4276088545922558e-03 -3.8764799175431981e-04 -3.5582204010172802e-01 7.2965475293505018e-04 2.0858110362598423e-03 4.3100206507716621e-02 7.8203662379882277e-04 9.3071113028982458e-05 -1.2216740115239576e-04 1.6238676095167454e-04 3.7778407547735217e-04 2.1363229075856260e-03 3.9800603668323498e-03 -5.7692662221274116e-02 -1.5614461866750922e-03 6.9617741855533804e-04 -1.0336612350280352e-03 5.3600737222071304e-04 2.4565998945785977e-03 3.5007631094320486e-02 2.8966348515457041e-02 1.4575596739444252e-01 -2.1998033018484466e-03 2.2242930137373662e-02 -6.1979801742378746e-03 -1.6020092964827759e-02 -9.8303453281204156e-02 -7.0935982860747381e-03 7.1820111305890937e-05 3.0665036538191112e-03 -5.6295284216316271e-03 2.0238438211344846e-03 8.5625149723349541e-04 -2.6906638129560786e-03 -2.2929533749583741e-01 9.2006521753884942e-05 1.9913987881388124e-04 -2.2521310596152200e-03 -8.6556293741804451e-04 2.0554322080448568e-04 -2.5672667902381235e-02 7.3833384145259445e-03 -3.0105663422634876e-03 -2.5235958922981104e-03 -3.3329796577609727e-01 2.2157428859665617e-04 -1.1663180654643472e-02 5.6189863178708066e-01 5.5579580237965108e-03 -5.7014027408577579e-04 -4.5562406076950961e-04 7.1393161798404339e-04 8.0377654089747175e-04 7.1064055157513042e-04 -3.5462692651072547e-02 -2.1560160875827940e-02 8.2149997548109114e-05 1.3615340191829625e-04 -7.9924126041797973e-04 2.7325370251454024e-04 2.3210743646047042e-04 1.9996849346029799e-03 6.7264956582530760e-03 -2.0491677212122153e-02 9.2759698095896612e-04 -3.2160711439155421e-01 -1.0577856108407186e-03 -3.0176214810449659e-03 -4.7052917564849395e-01 6.0923936309775426e-04 -7.9943562089770416e-05 3.4792619104227025e-04 1.9579690712716339e-03 1.8785445158149642e-04 2.2960514261966599e-04 6.3920071564449975e-04 -6.1174658975602814e-02 9.8075257289314296e-05 3.2853085709787580e-05 -3.2838486641048256e-04 1.2094506568173556e-04 3.1417761459092032e-04 5.4211975664844071e-04 5.0219827457089385e-03 -5.2917797976352876e-03 4.7515550166074994e-04 -7.2593866749059544e-02 -2.3470757838054508e-04 -1.4069403632751762e-03 -5.6201492611748449e-02 -5.7144818724000346e-05 1.2766119855697408e-05 1.1911511979001942e-04 8.7546789794981769e-04 9.8638690655151085e-05 -1.0464955532136101e-04 -1.9534638936087555e-03 -5.8273137641679185e-02 1.5138190443638258e-04 -4.2038743811442011e-05 -8.6594806507498540e-05 5.0421373885806142e-05 1.4669953487948703e-04 -1.1118802057992899e-03 1.8377624043185922e-03 -9.4462060703707218e-03 -2.5873137663097977e-04 -6.7631564820768486e-01 -9.4366131280482234e-04 6.1603965714273484e-04 3.8874450547293948e-01 9.8557312419496942e-04 7.3146934333956836e-05 3.6660222776958330e-04 1.2252389370403984e-03 6.5538899191204276e-04 5.4254458034969349e-04 -1.4903700492314431e-03 1.7205823803609910e-02 -1.7720240541639731e-03 7.6374114574166675e-04 -1.1499919241749625e-02 1.3507333302549388e-02 6.5647087866459054e-03 -7.5788445587214093e-02 5.6371842020595739e-02 -3.0200332081765791e-01 6.8386650272519965e-03 8.9877957739474823e-03 2.0058046491787085e-03 -1.6203318380005757e-02 -7.3711491408829488e-02 7.1461884634807776e-03 4.7349311538210509e-05 -1.9630882026562936e-03 2.7375008325796198e-02 2.2429841949951970e-04 -4.4672841053062778e-03 -5.1658890402440795e-02 -6.3522407007365511e-01 4.6578336005286590e-03 2.4799933650995884e-03 -4.9541267052704641e-04 1.9154409694574978e-03 -1.1040363068263087e-02 -1.6627387958323438e-02 -1.5491115039040300e-02 -5.7212958585467828e-02 1.3105488661323793e-03 -6.2903699131303864e-02 -9.6023780381664960e-04 -2.5030709515856536e-03 1.1181493779090609e-01 -1.8278439666729648e-03 1.7273506783620335e-03 -1.5288622523127098e-03 -4.8190069031331037e-03 1.0265771248706315e-03 4.2471785754359948e-03 -1.2282896728933734e-04 -5.9930602437663127e-02 -4.2231813348472050e-02 
      </Row>
      <Row Index="5">
        -6.9168765886130079e-03 4.0807415995227442e-02 -3.6052686191969475e-02 1.1993698153590982e-02 -3.5694608850286307e-03 3.0374899771099322e+01 -2.0975256610366277e-01 4.3946413800375019e+00 2.8078385835395736e-02 -1.6919567335875826e+01 2.9039069635737416e-03 -1.1189886958771922e-01 -8.0155233841388963e+01 2.1998132515852295e-02 -6.0697006501161960e-03 1.3691801114760116e-02 1.0581203265524583e-01 -3.6785925685632104e-02 1.9993244934026259e-02 1.2680872699100187e-01 1.2092427255822258e+01 4.4412351287037882e-02 -1.8376453305934798e-01 1.5154633247995764e-02 1.1795459879274614e-01 -9.3264393952586316e-02 -3.0187063294385823e+01 -2.1727065457201378e+00 -6.4622748149476639e+00 9.6049885941291407e-02 -2.4050224443957973e+00 3.5198451313017254e-01 -2.3660144029946117e+00 -1.7087956759494617e+01 -1.9710390321797187e-02 4.9310459947083871e-04 -5.2366164571939378e-02 -6.0838765745228451e-02 -1.0962354961152232e-01 -5.4364313626099198e-03 -4.5682437327926828e-01 -3.9647251330766395e+01 -3.5682686742751418e-01 1.1386551678268059e-01 7.2472837553786196e-02 1.8000289051664697e-01 6.5658555601355972e-02 -7.9156174116568607e+00 -4.5840939593918961e-01 1.3161388517296420e+01 -5.0314850118149934e-01 -2.6842636026640321e-01 5.7559250750891217e-02 2.3441259564420376e+00 -6.6848338838483414e+00 1.5116115533523247e+00 -5.2427053318560257e-01 -2.0057749346984163e-01 -3.5596286840400060e-01 7.0009261826881442e-01 2.4692189324472136e-01 8.4846882048390171e-01 9.9182586797542029e+00 1.2371190516120706e-02 4.5689970828324808e-02 -2.5207329831369397e-02 4.8355762662885479e-02 -4.5541489125239566e-03 -9.4352743897105178e+00 -2.3536564049073549e-01 -2.5899607286639657e+00 1.4236701916064490e-01 2.8073318362235227e+01 1.2853956116894683e-01 7.1760163079417949e-01 3.0134948541788503e+01 5.9508297163784335e-03 8.6534148358253099e-03 4.1704046044941587e-03 2.7496773677137772e-02 2.8992107829152403e-02 1.6659297759018407e-02 1.0232912417658416e-01 3.0171983116516000e+01 1.1681373236802471e-01 1.3587402858114528e-01 -7.9988431832703100e-02 7.6838855001757522e-02 -1.5316087358728862e-02 1.1166584519421674e+01 1.3812317111247090e+00 -6.4540541429889364e+00 -1.9405861527889182e-01 -1.3373211144044994e+00 -1.5385964262376484e-01 1.1080559213877970e+00 -1.3569590282804256e+01 7.7359115050084040e-02 4.6370996940121187e-02 -7.2503837456651066e-02 1.8580781735833662e-01 -2.1849911798094598e-01 3.8173515050059850e-02 3.3857782040862072e-01 9.8068658289254685e+01 3.0770224477904319e-03 7.5919736151297143e-02 -6.3981016394686646e-02 8.2530813563731528e-02 6.4067696408793093e-03 2.2632868626583784e+00 1.6227985221289771e+00 -8.2093005429883483e+00 -4.0895957403124378e-02 -3.4248476586644756e+00 1.8030799254870508e-01 -1.6611141395212467e-01 -1.0174995455331464e+02 -6.5762477918211965e-02 1.1596114858958659e-02 -2.8276932549846340e-02 1.4438339038187248e-01 1.7025317003138307e-02 1.1427831569196051e-02 8.2500895089120663e-01 6.9762894911650733e+01 1.7402796797289170e-02 8.3826779126011330e-02 -3.8517283907271521e-02 -1.2128730261922016e-01 3.5552689315688453e-02 4.5042942076934573e+01 2.4870812183143465e+00 -2.7864815391854147e+01 -1.0498718359885417e-02 -6.2727974277195813e+00 2.0021875513853285e-01 -3.5514063540269110e+00 -2.0010193757351544e+01 4.8496192425828905e-01 1.4050573636357998e-02 3.4880085067161976e-03 2.4406240400646784e-01 -4.1998321186789339e-01 2.0298495272991224e-01 5.6953363104153176e-01 -9.7581511664284889e+01 3.7914361613135827e-02 -1.2837558892920126e-02 8.3969976597522103e-02 -5.6834970894723003e-04 9.2822027751995051e-03 -1.9784059472964408e+01 -4.3303768498251249e-01 -1.1074058630706221e+00 1.8717920129303781e-01 3.1224467556478714e+01 -1.1088335449911427e-01 1.1151900238417609e+00 1.1683326545328333e+02 3.0754909362670252e-02 4.2941930794879474e-03 7.4791964974107068e-03 -2.9455998507002579e-01 1.8856231819705069e-01 -2.4460025516863756e-02 -2.6168340250216049e-01 -2.0847636243790355e+01 -9.9330414279819104e-03 -1.4919525295667779e-01 3.4889027082246032e-02 -8.8506039487391636e-02 8.3027977519308030e-03 1.0080884158111896e+01 2.3231400019032522e-01 1.3657061901739442e-01 -2.3505572622080037e-01 2.5686379869534051e+01 -3.2007695057399438e-01 2.6766467336726929e-01 -1.4460716420124911e+02 -5.2915538972722817e-02 -2.2269298693814360e-02 -3.7456058039681848e-02 -8.8519055542488900e-02 9.2728448474983793e-03 -8.7939160176951844e-02 -1.0357230413029805e+00 -5.4914066625825328e+01 -3.3328395841217186e-03 -6.2059599098460469e-02 -3.7334861418507725e-02 2.7723969310945128e-02 -5.8938290405712718e-03 -3.2705874813949309e-01 -5.9882057849105075e-01 -2.8963978702046327e+00 5.2776743545209559e-02 2.2701856696541427e+01 7.1887273357409548e-02 1.7270918469807822e-01 3.6053082190139122e+01 -1.4474418181503884e-02 -1.7509825397425908e-03 4.0158215909519346e-02 8.9638563671217308e-02 -3.3146784502906958e-02 1.1587405764974891e-02 3.2053395511508798e-01 -1.2940175269520182e-01 1.3127501681229434e-02 4.4739040526543775e-02 2.8062710300331972e-03 6.1162084963745943e-02 7.3951442691063476e-03 -1.6313582184232146e+01 -2.3580944276001797e-01 -7.6770284831748459e-01 3.4358601112848897e-01 2.4679382735974059e+01 1.2284085825955383e-01 -7.2214910561739010e-02 -1.2895574545975694e+02 2.0281007822298663e-02 1.0372552049083952e-02 2.7593246675802981e-02 -1.2363611796653282e-01 9.6849491050743655e-02 5.9931634792231153e-02 -7.9453979594260149e-02 -6.5688205758224143e+00 -9.2077201045525178e-02 3.1601408449017321e-02 -3.4587158140190921e-01 7.8260862742360632e-02 4.0558589996595208e-02 5.9697608474509906e+01 -1.6073803364305870e+00 -2.9935982535007621e+00 -1.2903411960996682e+00 5.3234339001392073e-02 1.8521357339693503e-01 -2.6552761595057959e+00 -1.6725627787735448e+01 4.0533786305788932e-01 -1.5833497471604543e-01 -1.2029883186742643e-01 -4.1724577991025047e-01 6.2407772158379526e-01 2.2563360737927618e-01 3.9990618683619905e-01 -1.0484197663329367e+01 -6.4478836207298986e-03 -2.9361663985296022e-03 -1.1170639451907993e-02 1.6836829780265083e-01 -5.2839229887611805e-03 9.0235728397868975e+00 -2.9125205824532219e-01 2.3846239285280319e+01 7.7012111750105278e-02 -1.2118602498723249e+01 6.7006005086074572e-02 -1.4353339991944341e+00 2.9508235282096621e+01 4.4849055971194407e-01 -5.5073630486222297e-02 -9.8076373320527377e-02 7.4457812582938543e-02 -5.4621264064715319e-02 4.3529926190104644e-02 8.5196819997430617e-01 1.0020364316622357e+00 2.2764371053968037e-02 -9.4710490877809861e-02 5.2793532212194516e-02 2.9071685234032106e-02 1.8975177484683420e-03 -7.3261483798794105e+00 -8.4034254202801728e-01 1.8732885755887576e+00 1.5336627607312403e-01 1.3499317262398108e+01 1.3385667268955515e-01 1.1128172487845478e-01 2.2864579389067671e+01 -3.0744135442523635e-03 6.8462080807613623e-03 2.3618405098469596e-02 -1.2188765942577168e-01 6.1786285511819791e-02 -5.3780664344541818e-03 -3.0592389865409331e-01 -1.6766870739582956e+01 -8.9835960514172974e-03 5.6633354922878049e-02 -3.2624029659740317e-02 -9.4764185950962088e-03 1.0044842163354553e-03 9.1987757160863435e+00 6.4175953223103224e-02 -5.4357567702224134e+00 -6.4859586804749014e-02 -6.9842269652514005e+01 7.4515025551937994e-03 -8.9769728997656273e-01 -2.8432734464283158e+02 5.3118611381367753e-02 1.6711710552786063e-03 -1.4133183566746834e-02 9.7160117646818936e-02 -6.7458728086874462e-02 4.7879742013491877e-02 2.3617590110777043e-01 4.0664208473111110e+00 -7.4994538797021615e-03 -7.2585642686630123e-03 -4.4344011680665985e-02 -2.1008011972303134e-02 2.0953842773276557e-03 1.4284440889888566e+01 3.1438929378900604e-01 -3.2323396398135174e+00 -2.0349038569472347e-01 2.4651222463826002e+01 1.3263911762623204e-04 7.6034425291397945e-01 1.4943644583593596e+01 4.3977942341215562e-02 3.4180002185525624e-03 -4.4921535408389029e-02 1.1093062876242971e-01 -6.8175199706287257e-02 2.8623393427316679e-02 1.4448782269173654e-01 1.1543154284911527e+01 1.6464032596216188e-01 7.0353678941008913e-02 2.5066803190214887e-01 -1.2449717313272796e-01 6.6815664570043509e-03 -1.3199329597800354e+01 4.2333901667167044e+00 1.0115895559803851e+01 1.1327604430475704e+00 -8.7518838212872652e-01 -1.2057937724503826e-01 -1.6490475632753221e-01 -1.9477120890053584e+01 -1.3546685831251676e-01 2.8135463057900517e-01 7.2664921024030465e-02 8.9926207057847107e-01 -1.1080434965514467e+00 -1.3075410486842956e-01 6.6774466254317966e-01 4.5409949356363342e+00 1.7479725558304243e-01 -1.1701529604848757e-02 -1.0350991655096453e-03 -1.1743739096125194e-01 -1.1089704100402938e-01 -9.7037685104589656e+01 3.0024245340670390e+00 -1.2454503863822023e+01 -1.0647721387240949e-01 -2.8806596918831744e+00 4.0166285688425418e-01 -8.0846741501886683e+00 -3.3653952588499749e+01 -1.6011648234041331e-02 -1.7947326618236621e-02 3.0045097256751779e-02 5.5560798343600837e-02 -1.4285635306236344e-01 -2.3036657094380186e-03 -1.4041755178600468e-01 -2.0386748085408652e+01 1.7089090665111371e+01 
      </Row>
      <Row Index="6">
        -5.9430917622756516e-03 -1.0410185430694080e-02 -6.0729727292663675e-02 -1.9426792852454279e-02 3.6933403900282847e-03 -2.0975256742080717e-01 1.5912131147109654e+00 1.2903230751353689e-02 -3.8385184907961195e-02 4.4753171626797155e+01 1.1730734143745225e-02 2.5045347649665928e-04 -1.3231572221167621e+01 -1.1105664496604262e-02 -1.1921468734941891e-03 -1.2656053135813534e-02 -2.3440119931443622e-02 -4.8858468161919032e-03 2.8424558463556383e-02 3.1057508124818629e-02 3.5081015465857490e+00 1.9638370464432967e-03 -3.5831428632995529e-02 -2.4596242530502799e-02 3.4148558218873783e-02 -5.5234702290615903e-02 -2.1968952854895174e-01 -7.4828211894199925e-01 3.7842088440967947e-01 -4.1321550356717085e-02 1.2129462347784568e+00 -6.9712060236780060e-02 -8.8380469101238757e-02 -4.2309636578515892e+00 -9.2989079145159893e-03 2.5976869253529662e-03 7.2935164694092752e-02 2.5284255361697053e-02 -2.8889071474045465e-02 2.5292161297338744e-02 -7.8863337173540132e-02 -7.8287339819162405e-01 -3.7580245414712665e-02 4.1759080347835278e-02 9.1514044015605839e-02 -3.4760246408116191e-01 3.9685610206172575e-02 -4.0327225859998383e-01 -9.8473186339067875e-01 3.6953691770843169e+00 1.2902917175974646e-01 6.6261516363854867e-01 -1.8741446621556285e-01 -5.9732274084893644e-01 -2.4914323840120005e+00 -1.8056655455478282e-01 -1.4765285934810080e-02 -2.0639154717111183e-02 1.0930490085847566e-02 1.0241574340804771e-01 -1.3317633061027079e-01 -7.6455977243018225e-02 -1.2575753998252424e+00 -8.5462319862381845e-03 -1.8750446922451251e-03 -2.2089411023926159e-03 3.0051008384781620e-02 5.7900695377722626e-03 4.7939431052327258e-02 1.0438069023575616e-01 7.7667229429867576e-02 5.8867078492495097e-02 -1.2096369764084272e+01 2.0565855053164321e-02 8.9657550713352241e-02 8.8539062295750739e+00 5.7738300456687541e-04 -8.9810164573356811e-03 2.0480075116152005e-02 3.6274640707378132e-02 -1.1824485767208532e-02 5.7870310911503778e-03 1.7231049961552658e-01 -3.2652975610849815e+00 -4.5124599534723600e-02 7.4010407546109512e-03 1.8659621765323209e-02 9.9133265676438556e-02 2.0815985771602180e-02 9.3303928022886984e-01 4.8702500061866405e-01 9.3188205966837745e-01 2.6975357940136297e-02 -2.0560587220478537e+00 3.3174171435842864e-02 2.4062493560057632e-01 2.6708433136363965e+00 6.4456592627576415e-04 -3.9277935292904770e-02 8.4801334688987366e-03 2.8041989799370892e-02 1.5329406355911334e-02 -5.5281504121075659e-03 1.2817825553171458e-02 -1.5702591746327286e+01 -1.7889167514456072e-02 -1.0344042492819960e-02 1.1853081909701996e-02 1.5903854611293974e-01 2.3090190482775316e-02 4.7855244405117547e-01 6.0738257174138155e-01 4.3384553999664188e-01 -5.4538076403136931e-02 2.3247674287067639e+00 -1.2618745736101507e-02 1.8380491237639854e-01 -7.9624486663760763e-02 -3.0064269252459844e-03 -8.5789369350217550e-03 1.9149593524119123e-02 -4.6111894623376282e-03 -8.6535705321856594e-03 1.0688227202153615e-02 2.4016977846694371e-01 -6.6140004855508607e+00 -4.5558279785231637e-03 7.1401357798114171e-02 3.3089186498192896e-03 -1.5747120646982658e-02 5.3267841395714000e-02 3.4289677128588281e-01 -6.8793406746237540e-01 -8.2385143581520826e-01 1.8476806387419492e-01 -3.8005853455627800e+00 -5.1664786406873484e-02 -2.8617150099235777e-01 2.4923593736741054e+00 8.1416281742571470e-02 2.6428179085544526e-02 -6.6363098314447172e-02 5.3794706181660421e-02 2.8805811561672376e-02 -8.2519433655121793e-02 6.7354447150246910e-01 1.1068695934990005e+01 -3.8065041112431714e-03 1.0469012275679002e-01 -6.7263234048013151e-03 1.8339093226809610e-03 3.4065272826956641e-03 -1.3652886751181148e-01 1.1933033883815913e-01 -1.9149572579917895e-02 -8.6404565321155091e-03 2.5452473805125919e+00 1.3242506185251728e-03 2.7138825047109578e-02 -8.0548493725773369e+00 2.1889114680624863e-02 3.8584273282218752e-03 1.0726447524328090e-02 2.7711462053346098e-02 -3.3058863521887444e-03 -7.2665639607224887e-03 1.5787477245212747e-03 -2.3632844663484098e+00 1.3009085681359209e-02 9.0498176485816484e-03 5.0469385285854592e-03 -3.1871136213985643e-02 -6.4112514151928460e-03 5.1395526891530041e-03 -1.1738898314133511e-01 2.8132083440268074e-01 -8.2975851235905257e-02 -2.5020399729073162e+01 -3.3270982050225550e-02 -4.5301020224670059e-03 1.1158908775897032e+01 -6.0599639688422302e-03 8.6055003351063926e-03 -1.7835442265670836e-02 -6.1924879995575638e-02 1.5652751150457046e-02 1.8971910975693975e-02 -2.3812625544433447e-01 4.1561305689998047e+00 -2.1587286360964411e-03 -7.9538005639185755e-02 -1.0576799527334341e-02 1.0190809548129440e-02 5.3947757013399437e-03 -4.5605468357913526e-01 3.1568004385226678e-01 8.7764820895802842e-02 2.4982066410292856e-02 1.7296901083210514e+01 1.0062897497380621e-02 -6.1460281731973515e-02 -1.2133187884969857e+01 -1.6024406425892902e-02 -2.1977398757203840e-03 -3.0099385818318725e-02 2.6120671779597406e-02 -4.6097236838717045e-03 1.7787345844311780e-02 4.0660856626875408e-02 2.5831331545144849e+00 2.0773092854089736e-03 5.6648999751804929e-03 5.9609731989129604e-03 -6.1366989091511392e-03 -9.0363412375909641e-03 -7.5398643386902719e-02 -9.7976611652167145e-01 -3.4839288463404339e-01 -1.4192098093837341e-02 -2.9475021692212010e+01 -1.5939214489971480e-02 -1.4784660346701187e-01 1.1719095549715121e+01 2.7578516021821896e-02 1.1309855034516595e-02 -7.2128163261773294e-03 -2.3634813230896903e-02 4.9566359765680634e-04 -1.8376537894423568e-02 1.7036154094272615e-02 1.7067245366380085e+01 -3.2147314889053799e-02 -1.4090311165149089e-01 -3.8990799968094472e-02 -9.3689375286276855e-02 5.8642824626506371e-02 7.5778401954544439e+00 4.9879323193340563e-01 2.8874439126835005e+00 -9.2150202949666166e-02 1.7215518819297131e+00 -3.0767906517785729e-02 -2.5215050516353643e-01 -5.4798056630640986e+00 4.1452691272820696e-02 -3.4796893833588770e-02 5.6026393028049043e-02 -7.1831430809063221e-02 1.9270122163035422e-01 4.9005604927361196e-02 8.3242084537941108e-01 -9.4490748249963303e+00 -1.4613651017622301e-02 1.5941361632037118e-02 2.1753827180938157e-02 -8.4024897307403854e-02 1.7644912683040671e-02 -1.5872466187253769e+00 1.2530339544652414e+00 2.0983660631379375e+00 -9.9924120121133192e-02 5.6951019626820653e+01 -1.4518522766265490e-01 -3.6713837472682775e-01 -4.2799246440070078e+01 2.4553802455582696e-02 5.4730921438052797e-02 8.7922078353915023e-02 -2.3343754746930412e-01 -2.8524597563344634e-02 2.1825470650334439e-01 1.4205016659215441e-01 1.4283324918281841e+00 -1.1070666976945726e-04 -4.8725225001682027e-03 2.6474870867788380e-03 1.4542320814508947e-02 6.7623362691238940e-03 -5.0905292225145415e-01 1.6760291675019226e-01 -1.0655466142135506e-01 2.6339945312341406e-02 5.9817322100101364e+00 -1.3049497848311173e-02 1.0226835184746208e-03 1.7252139824518054e-01 5.8868286702604411e-03 -2.1810680094333998e-03 7.9999460557273975e-03 2.2586653638576051e-02 -6.3179676184359629e-03 -2.2080212088362791e-03 1.3183086138882782e-01 -8.0580449273354837e-01 -1.5387410701848469e-02 -2.5407911094504659e-02 1.0638654905963107e-04 9.7576647731828191e-03 4.0204834611619550e-03 9.6728933873354238e-04 6.0661751243976125e-01 2.4327780688862344e-01 -1.4463703495135011e-02 1.2588570627605088e+02 2.4810436826145900e-02 1.6115076606728285e-02 -4.7845155947070793e+01 -1.3260367951406227e-02 -8.9399324601559214e-03 1.8901023426740732e-02 3.8500522739885634e-02 -4.4370955756176597e-03 1.2672354469860944e-02 6.5853488100402868e-02 -6.1738799015439074e+00 -1.8178488652864158e-03 -6.1087245303675288e-03 5.3171242911871086e-03 6.9755121221136635e-04 1.0879149035290902e-03 5.9692404255751175e-02 1.9944490978906440e-01 8.4361346021942785e-03 -9.7892870857866909e-03 -2.0776189136078358e+01 -2.7376148187226584e-03 7.8899320854396299e-03 6.1974699521713035e+00 -1.6706315299495955e-02 -2.7751375825418780e-04 7.6713774307028970e-03 1.3412867754923190e-02 3.9905554791671311e-03 6.4211068523565840e-03 3.2850440735575193e-02 5.9454242033709139e+00 2.6652272162705548e-02 1.8460286840156459e-01 2.9516739289816046e-02 1.0654880680344722e-01 1.0922316482570360e-02 -8.4446669454066523e+00 3.6289486057956721e-01 -2.4683420716767657e+00 1.6613257054408154e-01 1.9187284491206356e+00 -1.3692380359617201e-02 8.6612792632551061e-02 -5.9623216321936070e+00 6.6310209336989112e-02 9.2937114781102614e-02 4.9808621326719871e-03 -1.2544443480990161e-01 -2.2750491157780650e-01 1.4454660501713398e-01 -1.2999202289492950e-01 2.3455265224738753e-01 -9.4832153974066705e-02 -1.9112322221776629e-01 -1.6992820305939238e-02 -1.8774677612531471e-01 -9.8261112125789682e-02 -9.2630977109113699e-01 -4.1751770322056094e+00 -5.2728426483637514e-02 4.2958358793043439e-02 -2.0124743613784894e+01 -6.3794221780791277e-02 -3.0156169185654846e-01 -5.4637372385699070e+00 1.7092740597991318e-02 4.3680750250897432e-02 -5.8078931856094002e-02 -1.2408806038388676e-03 1.4136832156404155e-02 -2.4716481207891078e-03 -1.9185383733049122e-02 1.0870975520492951e+01 -1.0571543950521930e+01 
      </Row>
      <Row Index="7">
        4.7489002347384277e-02 2.7595378624200801e-03 1.1576790130402699e-01 -4.0586508347994356e-02 5.8557854232005810e-03 4.3946414294376659e+00 1.2903243885724169e-02 1.7526032413044831e+02 -8.1442677156139856e-02 1.5413288443798388e+02 5.8306465372305161e-02 -1.6963091291904675e-01 8.8144562749483816e+02 -9.1449051517230165e-02 8.9167062666825128e-03 6.5316172619492338e-02 -5.4721030743956967e-01 1.2171799643585844e-01 2.3734229685286420e-01 -1.2874801237152567e+00 -2.2357506663684035e+01 -2.6225373952485448e-02 7.5285889025129865e-02 -4.6111260243302721e-01 1.6043214091317304e-01 -4.4576206167551868e-01 -4.0905192545321674e+00 -1.4117512378739401e+00 -2.5642291430243468e+01 8.7676993408941040e-01 6.5414831676544054e+00 -8.8168632935858693e-01 3.5536469632908585e-01 1.3674626456235660e+02 7.2919118054868826e-01 4.1232380484689318e-01 -3.4705672205966487e-01 7.0404353587335267e-01 -1.7611252074254563e-01 -5.0525434103927569e-01 -2.0429260958189364e+00 1.2811434454560921e+02 1.5104827756422599e+00 -3.3382270760460098e-01 1.3774219905584515e+00 1.4259167976276055e+00 8.3657069886586624e-03 -8.3944697969209940e+01 2.6844255214070514e+00 1.0588451406163193e+02 -1.4134076109508287e+00 2.8856515794054758e+00 5.2243890772650481e-01 3.7916489519856920e+00 6.6768495395277796e+01 -2.4800487669950311e+00 1.8997354920770804e+00 1.0796247929717429e-01 -1.8463725456066786e+00 -1.8658078927547517e-01 -1.1967742074474990e+00 -1.2646402380997163e+01 -4.0771570265715809e+01 6.9916443788365909e-02 6.8903788454525772e-02 2.0823657137257320e-01 -7.4081266003647464e-02 3.7396286304320269e-03 4.9520491303018037e+00 -4.3053231820862581e-01 1.7832618281806911e+00 -7.4530805842511749e-01 -9.6000489819104700e+01 5.5436842154921062e-02 1.0097380157731546e+00 1.5939095387124325e+01 -2.9228051286589107e-01 -2.5737366256179128e-02 -1.5945222859042544e-02 -1.9568329435590395e-01 2.1918315390474363e-01 5.9844466001386714e-03 -1.6984148794527718e+00 -4.3364140928599561e+01 5.3715211864932333e-01 9.9743062883515615e-02 3.1636606183565164e-01 -1.7123611888194562e-01 2.1256230219644914e-02 3.8420325423627020e+00 -1.2012335268818184e+00 6.7535165118257467e+01 -8.6932527456157205e-01 -1.9473051466700166e+01 4.1813335382036110e-01 -6.6943598416676608e-01 -7.5160012952292163e+01 -3.0119636423794438e-01 7.0920231429574609e-01 2.1029758888469230e-01 -4.8573482412404745e-01 5.5279969444721877e-01 2.5842745927606059e-01 -7.2629211167309995e+00 -5.1914258822382898e+01 1.2092372859635579e-01 2.7594586323433562e-02 1.5411864470823367e-01 -1.6557647569666323e-01 7.6257043252298609e-02 7.2612051943652780e+00 -1.4928966665017862e+00 3.5193742082354802e+01 -3.0264949994520729e-01 5.3836822413904883e+00 -4.3867141445403213e-02 -2.3856194853510759e-01 1.8025047549215378e+02 3.7114470002417417e-02 -2.2111836016912752e-02 4.6012816492533887e-02 -2.3150830052467120e-01 4.6632418996229205e-02 -1.3072881698876465e-01 4.6995081524464970e+00 -4.9724395901249224e+01 3.9692563249524554e-01 2.1339579663664024e-01 -1.2150142254714116e-01 -1.0695287714903255e-01 4.0281939212598977e-01 8.2068498380952803e+00 6.5071746804124952e-01 1.0331717438609201e+02 -9.0095294310670093e-01 -1.4992994566939274e+01 -3.0103542488808765e-01 1.9957001792134745e+00 -9.6896982740347084e+01 -2.7014263252649523e-01 -2.3858976495119152e-01 -2.0636774510617684e-02 -5.2332868572642910e-02 -4.7856823857490483e-01 -8.5063947615471314e-04 -5.0009559845250404e+00 -7.4063388791681149e+01 -5.6179298455391810e-03 1.7964586871375543e-01 -1.1000570204996485e-01 -1.2437316025253736e-01 -1.3243016878622033e-02 -2.9011143073646268e+00 9.9254837014309816e-03 -3.6472294202491938e+01 2.4187781605013225e-01 6.8730215125855466e+01 -7.8179158599866461e-02 -5.9831900165402796e-02 3.7479000009486481e+02 6.3498025955278647e-02 -3.6778490213596630e-02 -2.0875726456856203e-02 1.8175690890206331e-01 -3.5290840106183108e-02 -7.0086409130843352e-02 1.3727086516884290e+00 -2.5836784416678356e+00 -2.6123993832314107e-01 -2.0196749148999965e-01 -6.2996260859096798e-01 3.2372068906083129e-01 3.7985156564636991e-03 -7.1558488364002795e+00 6.8633264222687318e-01 -5.2336427923235163e+01 1.3433753598017180e+00 -1.0081716464572264e+02 -2.1757914842445752e-01 -3.1399703469095308e+00 1.8057712136583973e+02 4.3799368393186838e-01 1.9035201385649531e-01 5.5840547309603528e-02 6.6652090860710222e-01 -6.3413404551160246e-01 6.2620589493888712e-02 -2.7646191028346565e+00 2.0626528997955145e+02 -1.0285685499918246e-01 -6.8867522027731123e-02 -1.9836164696298070e-01 1.0788263473712666e-01 4.5201447475626107e-02 1.9349498658502924e+00 -4.7989891052562872e-01 -8.1363681105648922e+01 3.9244182740995259e-01 -1.6607545647942061e+01 -1.5581869845805027e-01 -3.9989115925284890e-01 -1.1821546766606957e+03 3.4732205321752518e-01 1.0621690252808325e-01 -6.4569740954918076e-02 4.1815263425875759e-01 -3.7769007450546849e-01 -1.8575283814144478e-01 9.9684198061726548e-01 3.2437933075808246e+01 1.8944074031603048e-01 7.3826525792997699e-02 1.3211079462505926e-01 -1.5011745130670537e-01 2.7015129306408592e-02 -1.6380274514903448e+00 1.4978519316831829e-01 -5.5820230354459284e+01 -4.2772884446614068e-01 -9.6817152141042243e+01 2.8334775869140238e-02 2.0179632717740921e+00 3.6659378144273069e+02 -3.0149943228081533e-01 -1.7190775939173031e-01 -2.2432790699841126e-01 -1.0563254632348862e-02 3.0416771211925009e-01 -8.9330434773458256e-02 -7.7355445312575855e-01 -7.7088940330035371e+01 2.2790705158624658e-01 -6.2509170305535933e-01 3.6670896166176503e-01 -1.0692621673560998e+00 2.2412254332972387e-01 1.0183001149991199e+01 -3.6486498505568505e+00 -1.6965592527601186e+02 -3.6660614088339882e-01 -1.7143324384414882e-01 2.0779553964003616e-01 5.2236366868589377e+00 1.6529903469848250e+02 4.8729224955018235e-01 -4.3003933746763040e-01 -7.9839054361798167e-02 -2.7014172468131203e-02 -2.1617921282334795e-01 9.0006843856069052e-01 1.9275599690211251e+00 -5.3979199962410000e+01 9.1921907737139603e-03 1.0005885952999810e-02 1.4777249211747401e-01 -7.6806721044449966e-02 5.4208853970201677e-02 -6.2672908888991685e-01 -7.1557785066852642e-01 -4.8688399922780519e+01 -2.0746610004745980e-01 -1.4426065741373893e+02 -3.8069018278063538e-01 -3.4728173759708736e-01 1.3510463016765391e+02 1.9665454698063045e-01 8.6047614901460651e-02 -4.6481607417125426e-02 -3.2902186465138428e-02 1.9397434725624607e-02 -4.9141335308076584e-01 -7.3054254718397367e+00 -2.9909349410351311e+01 4.3104096698370307e-02 4.3962921385279907e-03 1.1547844897613271e-01 -9.5043036221273303e-02 4.3299425896369398e-02 -3.8432817285664678e+00 -2.4868600382738476e-01 -2.5015661992384253e+00 -1.5958247640447265e-01 -6.3680167195707327e+00 -1.5376288190356660e-01 3.1364771889262388e-01 1.7835618524094116e+02 9.7835601608625478e-02 6.3426882021024839e-02 1.1754445475468672e-01 -8.8556730838482034e-02 1.5959095537370663e-01 4.4435534788521469e-02 -2.9490207262235391e-01 -4.5618938792810184e+01 -1.2080629799696679e-02 1.4663918186298419e-02 -9.9916637310417999e-02 -1.7986811050680590e-02 3.6277436555298016e-03 2.4495272621746267e+00 -1.8776787906205072e-01 -3.8868101566163205e+00 1.3532706525540217e-01 -4.2840915555643733e+01 -3.6904208200079336e-02 -7.8650842354613504e-02 -2.3814354478706446e+02 6.1211560542485666e-02 7.7446827387704989e-03 -4.6097238419316150e-02 1.5045931264739956e-01 -9.8344164484323926e-02 -6.7937482423350598e-02 -6.3389040609527503e-01 8.7743839344910839e+00 4.7179238591129324e-03 -3.9130180993953156e-03 -1.3972415890822765e-03 -1.1018571786579057e-03 8.1520612390686177e-03 1.4729143105685445e+00 -1.2307539101750020e-01 -7.6554573646179076e+00 -2.1029036547709856e-01 -4.0159736733658065e+00 1.3545795547043715e-02 -5.1954952907588625e-01 -3.7574385236021681e+02 9.3843892637385018e-02 -9.0292061595454304e-03 -2.8867089222128439e-02 4.2200525653683880e-02 -3.2103642170933089e-02 -2.0424110369320597e-02 4.5276732781646500e-01 -1.6956709116308140e+01 -5.1813630566947477e-01 7.4281987737225641e-01 -4.9897666274159813e-02 2.2546136434675490e-01 3.0698971766284089e-01 2.1800550923128114e+01 3.3006024999370340e+00 2.2429318771908049e+02 -1.1691541252729365e+00 8.9127018007711740e+00 -2.9018499200922371e-01 -5.1706645863271774e+00 1.8063076782931921e+02 -1.1729750927542426e-01 -5.3167533550802681e-01 3.2800770682558056e-01 -6.4237999965719161e-01 4.1598258312908065e-01 -4.9769451405932674e-01 -8.2676393512037691e+00 -1.2581484183864109e+02 1.6386432774736934e+00 -1.6306997155055081e-01 -5.1923662617629408e-02 8.3136249112446325e-02 -5.7844278357197321e-01 -1.3648857542677359e+01 1.1883527628965638e+00 -4.7055132347444209e+02 -9.9581478704777737e-02 -1.2935694683738177e+01 -6.0424148051898108e-01 2.5554205185694912e+00 2.6608028918582630e+02 -1.1179452479759533e-01 -1.1930864740250342e+00 4.3330926530974478e-02 -4.4283613552784118e-01 2.0422514292172878e-01 -3.6359517784484563e-01 -9.5666716967662069e-01 8.4933893518104284e+01 -1.1834960238301966e+02 
      </Row>
      <Row Index="8">
